solver_type L2R_L2LOSS_SVC_DUAL
nr_class 4
label 0 1 2 3
nr_feature 17745
bias -1
w
0.098250587473706519 -0.0182277204060581 0 0 
-0.10645381710901934 0.045151641219325724 -0.076699927019822561 -0.075705795892017591 
0.098250587473706519 -0.0182277204060581 0 0 
0.080086756182320779 -0.20510862438874669 0.0070499813929508432 -0.21168330808273861 
0.098250587473706519 -0.0182277204060581 0 0 
0.48898388095412287 -0.35437173052432192 -0.66585062567269893 -0.33296979095327173 
0.36895078880748289 -0.36934654201748945 -0.019513270137586709 -0.11284709873201104 
-0.0061203544098926378 -0.013655428651244642 -0.14500620138145137 -0.012658235930664686 
0.10983643411731953 0.11977551550515433 -0.052011456541709154 -0.14687552990376637 
-0.17853975929371327 0.24926517582522281 -0.43803815916057715 -0.048451059765689176 
-0.078811320661897277 0.35950499858352558 -0.043081628492439766 -0.21984263167763524 
-0.096097721173404788 -0.23481946693691874 -0.12106933602516338 0.29184855373237667 
-0.15051358509999713 0.063401318417112995 -0.0070721389299597641 -0.11947383304429844 
-0.24773321087406827 -0.1316926498649508 0.11601332114310532 -0.078530508368974114 
-0.0082640605507288255 -0.025162938070401299 0.014591019275004769 -0.15832682187190325 
0.04144850898038667 -0.2458917492216412 0.11762165168380402 0.16764421267380131 
0.27855960119268697 -0.1129712843319795 -0.052277630978409741 -0.32176164127668055 
0.098250587473706519 -0.0182277204060581 0 0 
0.098250587473706533 -0.072906171962079269 0 0 
-0.11669542189871214 0.067755856299200098 0 0 
-0.094671224104204671 0.014895726690796817 -0.10826620856906256 -0.15118738055952241 
0.085544056600124194 -0.070380130925918952 0.11248882613369542 0 
0.005003556723956179 0.03189291314193278 0 -0.0084496681583118155 
0.10874463874718016 -0.12582131600006552 -0.064291433974623557 -0.12822055018463577 
-0.11669542189871214 0.067755856299200098 0 0 
-0.13422758976235252 0.57878339342353335 -0.094209379167502702 -0.17678803044627112 
0.018859219974310892 -0.066607802286933637 -0.022349788828699986 -0.077602969600856386 
0.10498923897843138 0.026065454511653548 -0.039309990692991854 -0.11543000474943753 
-0.011605352375050476 0.1157718381878733 -0.23042532649245373 -0.031961903043029871 
-0.055349986112374891 0.13027557102311116 -0.037410941844057986 -0.10364149249603816 
0.0056465505761534003 0.028418563264606001 -0.21826228876124423 -0.16721666908920513 
-0.11669542189871214 0.067755856299200098 0 0 
0.047043445795818956 -0.046936262896965897 -0.13996444264570398 -0.1337144548634262 
-0.23998144729974896 0.3005885770872237 -0.034694611172753603 -0.14688418777569978 
-0.11669542189871214 0.067755856299200098 0 0 
-0.035648567183087003 -0.10377374211623021 -0.11230488880393731 -0.010953906496080372 
-0.11967510307743941 -0.029899615625892221 0.22470650317687149 -0.11123834028088642 
-0.15465886687014649 -0.13911862862271895 0.12786142941959383 0.087567184714220925 
-0.11669542189871214 0.067755856299200098 0 0 
-0.11669542189871214 0.067755856299200098 0 0 
-0.11669542189871214 0.067755856299200098 0 0 
0.070757924553435353 -0.20330197663534683 0 0.20821937884037378 
-0.036024954840145396 0.57655302207129133 -0.17620724200593571 -0.0018217243947853557 
-0.11466243141890838 0.15012192108657121 0.0076744126485934127 -0.19307344370003643 
0.050012229556300691 -0.032537094772776845 -0.1213397922661742 -0.078683772620687223 
-0.00022361807311112574 0.0080121573018396459 -0.1248801118029257 -0.093766439012099648 
0.04969494097234612 -0.12641637872623554 0 0 
0.04969494097234612 -0.12641637872623554 0 0 
-0.16628359306182447 0.094142979902674784 0.14259000109373221 0.0027124455387424352 
0.04969494097234612 -0.12641637872623554 0 0 
0.0026217776372199665 -0.12641637872623554 -0.063737865492521986 0.17688207243867921 
0.18815619458665156 -0.15498185614832238 -0.013105678987901536 -0.1247284818322858 
0.38162261767153666 0.049891957864394466 0.011788850549284115 -0.42750438364660337 
-0.087745683008638609 0.074728599044516703 -0.071112478759599626 0.05050275782926858 
0.04969494097234612 -0.12641637872623554 0 0 
0.04969494097234612 -0.12641637872623554 0 0 
-0.25139958903118975 0.24879095892811978 0.12269876703963824 -0.36318345234890953 
0.04969494097234612 -0.12641637872623554 0 0 
0.30762608136862063 -0.6551004226350281 -0.17895102508049804 0.10240322659369605 
0.04969494097234612 -0.12641637872623554 0 0 
0.15365027445376495 -0.33521608702272632 -0.17059884858080718 0.020754471250038785 
0.19386907293774003 -0.087524177610835585 -0.064530608921134727 -0.28303864975049975 
0.32337559510242425 -0.29571117781258327 -0.018558415763695803 -0.1285026467937477 
-0.0065603212825626235 -0.012619731740013344 -0.13632423573242466 -0.089535075523329441 
0.16628480670726822 -0.055861409037256407 0.16432475505578942 -0.21346400746153782 
0.096696449744855223 -0.086595945065660346 0.081853329214122708 -0.20702544859108177 
0.071619532589280374 -0.045081320530169201 0 0 
-0.10303353849600501 -0.15444628946152544 -0.037134435798388751 0.080634547216921981 
0.1690260912716976 0.21358836162545658 0.020427060042876741 -0.16947091024377881 
0.25168968221029725 -0.1912068590612582 0.079721670921375651 0.023440677738332354 
-0.22845459084785039 -0.07287300289466675 0.26889775633983104 0.02548895244755937 
-0.17985757460862684 -0.31483947644233345 0.29919445779493403 -0.16218627434676711 
0.11879702559977358 0.027820404454639184 -0.73562662974494741 0.051497803246992095 
0.008420526772175415 -0.063025004559138537 -0.10629550248497317 0.062356453525787323 
0.071619532589280374 -0.045081320530169201 0 0 
0.071619532589280374 -0.045081320530169201 0 0 
0.071619532589280374 -0.045081320530169201 0 0 
-0.40400047534714439 0.18064493831718659 0.33719125514530029 -0.34282086227029801 
-0.068655108164627623 0.021801952504449145 -0.10843096155004289 0.043913323656619652 
-0.19285230589062266 0.31254871652167598 -0.020961505081061475 0.12316530657821942 
0.010991771013621809 -0.090414228552436693 -0.35458010487101094 0.11421327213674201 
0.25938569372453651 -0.2144471518668323 -0.31815536636915409 -0.20748384821374841 
-0.17057472669007523 0.20714409622945551 -0.12578864336886814 0.010261918328782807 
-0.081047208739593216 0.073060082854123964 -0.10933755055510649 -0.11765876805966465 
-0.025248588845301404 0.056135378450291366 0 0 
-0.20588135932071158 0.23141066901757407 0.16698689476409617 -0.41159193762933954 
-0.025248588845301404 0.056135378450291366 0 0 
-0.025248588845301404 0.056135378450291366 0 0 
0.1174549331007535 -0.17816249462293463 -0.07421821087492958 -0.043727237072458555 
-0.025248588845301404 0.056135378450291366 0 0 
-0.025248588845301404 0.056135378450291366 0 0 
-0.29161311805687418 0.17988271988244162 0.27806033084341358 -0.068386810724658437 
-0.025248588845301418 0.10391361086576029 0 -8.6736173798840355e-19 
0.0060926828663158935 -0.0037170759007911836 -0.17225597681123708 -0.15729417911511903 
-0.15793780244148903 -0.13727947863300266 0.093703651850013142 0.22744623086196636 
-0.02336103346232335 0.04726661318258131 0.090343182607751066 -0.21869422279750073 
-0.15330859591853316 -0.20602463803876633 0.21244958095869834 -0.066843066558008299 
-0.16579165906384039 -0.015326705822047077 0.17154210378341275 0 
-0.16579165906384039 -0.015326705822047077 0.17154210378341275 0 
-0.16579165906384039 -0.048130742158829593 0.15983140228658485 0.0059107512237618759 
-0.041889624562512343 -0.16604578376509768 0.17154210378341275 0.090044214630717975 
0.021147933979209201 0.090937789963613083 0.15216048421023839 -0.045493142949840304 
-0.16579165906384039 -0.015326705822047077 0.17154210378341275 0 
-0.16893718473214572 0.31721463366723868 -0.084206968073603783 -0.20322435339811976 
0.015881758739807253 -0.169081180432198 0.17154210378341275 -0.10985815690305575 
-0.16579165906384039 -0.015326705822047077 0.17154210378341275 0 
-0.16579165906384039 -0.015326705822047077 0.17154210378341275 0 
-0.16579165906384039 -0.015326705822047077 0.17154210378341275 0 
-0.029599010123396698 -0.15272972828507225 0.012604993744897151 -0.25689968623159382 
-0.1188571367073083 0.046829229999675114 -0.15052362601162728 0.18518661472597403 
0.16907608044473418 -0.26659643705863145 0 0 
0.16907608044473418 -0.26659643705863145 0 0 
-0.19697355312158504 0.097706973919118256 -0.2081365276395668 -0.15797972851567985 
-0.065096279645207561 0.32494972886423168 -0.21103110687742771 -0.15436039494612736 
0.12460797146194086 0.073958551183015836 -0.14767333152315432 -0.13448948508537334 
0.16907608044473418 -0.26659643705863145 0 0 
0.080895148574191569 -0.056114159626776891 -0.26918719029934451 -0.093391860651594077 
-0.11307942072909036 0.34909104658626522 0.082297068966861162 -0.10205838827930347 
0.26565499749790489 -0.26659643705863145 -0.055211822485968592 -0.12590693186196419 
0.16907608044473418 -0.26659643705863145 0 0 
-0.018490456795465102 0.20894140963549879 -0.10443208057838388 -0.30865281119987587 
0.16907608044473418 -0.26659643705863145 0 0 
0.16907608044473418 -0.26659643705863145 0 0 
-0.078809839411388027 -0.019277519692938491 -0.0047756644417176588 -0.014361135370416811 
-0.045072797973033062 0.12515050458757457 0 -0.039416562750608994 
-0.20097002326960736 -0.073205261299051666 -0.15155468056649044 0.12184144730074048 
0.073034188695432073 -0.13111081901953892 -0.013282075649443998 -0.03480479021557055 
-0.34720260008290099 0.32338273975575504 -0.061342299329271134 0.051983941321924042 
-0.1807151975393336 -0.18484251119753425 -0.15947299170188808 0.28483695111974067 
0.082967139690866054 -0.44139579382287369 0.21382439570487205 0.01528836455148417 
-0.063896717039723216 0.31414326020482952 0 -0.039416562750608994 
-0.062821246775335321 -0.051902155020952842 -0.095318178541181367 0.057472740446302295 
-0.11984221453241109 0.22730015954981203 -0.044172010261750626 -0.1240309274846617 
-0.045072797973033062 0.12515050458757457 0 -0.039416562750608994 
-0.045072797973033062 0.12515050458757457 0 -0.039416562750608994 
-0.045072797973033062 0.12515050458757457 0 -0.039416562750608994 
-0.045072797973033062 0.12515050458757457 0 -0.039416562750608994 
-0.06223373473662884 0.066586255429313915 -0.080011853591899662 -0.19112334222041905 
-0.045072797973033062 0.12515050458757457 0 -0.039416562750608994 
0.094327915356235831 0.15975812327444197 -0.24191651559245672 0.0186559076117335 
-0.045072797973033062 0.12515050458757457 0 -0.039416562750608994 
-0.189738538307863 0.11109246854447337 0.095598627301029263 -0.11231883502189113 
-0.11280317712200144 -0.049011969338747408 -0.084292693587139339 0.15851685118082295 
0.11945529691482212 0.12789440864536833 -0.21967690740978546 -0.2756512345415924 
0.24328992493020288 -0.2822052545885308 0 -0.070130090959223831 
-0.0093583474584389703 -0.037391398096951127 -0.067556194400848729 -0.043021361007932038 
0.24328992493020288 -0.2822052545885308 0 -0.070130090959223831 
0.24328992493020288 -0.2822052545885308 0 -0.070130090959223831 
0.24328992493020288 -0.2822052545885308 0 -0.070130090959223831 
-0.24006146061764719 0.22546796520928888 -0.016635327654807925 -0.14171472828222942 
-0.24006146061764719 0.22546796520928888 -0.016635327654807925 -0.14171472828222942 
-0.24006146061764719 0.22546796520928888 -0.016635327654807925 -0.14171472828222942 
-0.24006146061764719 0.22546796520928888 -0.016635327654807925 -0.14171472828222942 
0.20858323677806928 0.090331584662026981 -0.025320550994472231 -0.071521345455215213 
0.23472183761132259 -0.10741519581821615 -0.0018183692081504346 -0.21863502154920034 
0.24969239753759681 -0.26381659350157927 0 -0.086615997500119474 
-0.014013054010934011 -0.32274475114884699 0.14939030464858899 0.32688614456537446 
-0.13741043676231124 0.10075020005301805 -0.10406580717559245 -0.087796046631620772 
0.16113835837936336 -0.17390004606433529 0 0 
0.27743894803086999 -0.3255096928589899 -0.025044750606226893 -0.09161567690801628 
-0.076055128320312818 0.077517027869768912 0 -0.0057758112616648257 
0.15978821199043367 -0.19443240623751309 0 -0.022698075778835845 
0.088636759789594399 -0.021013670338814766 -0.14829733858181177 0.13732630092178522 
0 -0.054678451556021211 0 0 
0.14646361634861696 -0.11355356919298598 0 0 
0.295231014961441 -0.20686588398394282 -0.38923007740882326 -0.40868053671621152 
0 -0.054678451556021211 0 0 
0.019636676313273357 -0.18566084216668072 -0.087581751796110205 -0.11557465055678807 
0.071726146516479003 -0.079877259541494786 -0.0054714187844534384 -0.042241064038311738 
0.48675227798001197 -0.24145949886189921 -0.077826174274489318 -0.16207143277421998 
0.31521934306887728 -0.13098700944000552 -0.080547604500816841 -0.042241064038311738 
0.043673075837122502 -0.023615403223367037 -0.0054714187844534384 -0.042241064038311738 
0.043673075837122502 -0.023615403223367037 -0.0054714187844534384 -0.042241064038311738 
0.043673075837122502 -0.023615403223367037 -0.0054714187844534384 -0.042241064038311738 
0.043673075837122502 -0.023615403223367037 -0.0054714187844534384 -0.042241064038311738 
0.043673075837122502 -0.023615403223367037 -0.0054714187844534384 -0.042241064038311738 
0.043673075837122502 -0.023615403223367037 -0.0054714187844534384 -0.042241064038311738 
0.043673075837122502 -0.023615403223367037 -0.0054714187844534384 -0.042241064038311738 
0.011486729714726699 0.099920397675723277 -0.0054714187844534384 -0.055209409022679658 
0.043673075837122502 -0.023615403223367037 -0.0054714187844534384 -0.042241064038311738 
0.043673075837122502 -0.023615403223367037 -0.0054714187844534384 -0.042241064038311738 
0.088554039158233219 -0.08991654743724424 0 -0.086615997500119474 
0.088554039158233219 -0.08991654743724424 0 -0.086615997500119474 
0 -0.016203165865055748 0 0 
-0.11492728799526961 -0.18730422834748614 -0.10928378151966943 0.38139434371597541 
-0.10514720522197872 -0.043394070213445227 0.10386992458826509 0.08660172672598572 
0 -0.016203165865055748 0 0 
0.27671019053104179 -0.19308123031937699 0 -0.10830377778284679 
0.19277378638812592 -0.2293539007852769 0 0 
-0.098813872613622358 -0.013126237405694319 -0.037885766262093563 -0.042174784318028152 
0.32705977396828784 0.11020087392305195 -0.3361512356347196 -0.22381782459813607 
0 -0.016203165865055748 0 0 
0 -0.016203165865055748 0 0 
0.10411755669087654 -0.061136242022154404 0.11107483749448473 -0.060397435504651792 
0.068625508870727173 -0.19160923491724199 0.084968605765871369 -0.32175901365649506 
0 -0.016203165865055748 0 0 
0.18292930863426218 -0.11119885991077683 -0.024085633613003515 -0.16675906280834898 
0.013445722178666887 0.043035646269418464 -0.6675360167736798 -0.37894998728159912 
-0.26277056052656511 0.16660993638597893 0 0.054084535178943405 
0.14531707411853631 -0.1734042610896413 -0.11716988657502291 0.16359206945138843 
0.21892702805318756 -0.25016258205942365 -0.0471071573660405 0.067380642335504268 
0.17594534985745455 -0.15230832714772674 0 -0.069943438901770308 
-0.097071947410524093 0.13523321574594599 -0.26514556304839759 0.18873720872858024 
0.17940785381093752 -0.22133500031336531 -0.018330817713196047 -0.14188349983493176 
0.17594534985745455 -0.15230832714772674 0 -0.069943438901770308 
0.17594534985745455 -0.15230832714772674 0 -0.069943438901770308 
0.17594534985745452 -0.15230832714772674 -0.028437051747192098 -0.069943438901770308 
0.17594534985745452 -0.15230832714772674 -0.028437051747192098 -0.069943438901770308 
0.12322228728480415 0.0054422622625798665 -0.30531706354395993 -0.30876329863533597 
0.12066058983451619 0.015914630970460083 -0.14449808977345455 -0.35406318790908015 
0.027948038388664286 0.090766849243868977 -0.13597119051599157 -0.18136938246110543 
0.25256379429301717 -0.46754718447377447 0 0 
-0.26476918978695368 0.11375436130087266 -0.092418948603588652 -0.1481093257320254 
-0.060548167064577219 0.13402115253746325 0.30337062583643792 -0.30874888245925047 
0.25256379429301717 -0.46754718447377447 0 0 
0.16931734780621197 -0.37675007762973312 -0.35920508566648723 -0.08459838477578964 
0.097132884025346117 -0.34107884577575065 -0.15717692704676131 0.13302152474016615 
0 0 0 0 
0.67823306407056916 -0.63756639583436092 -0.38581433099617285 -0.48126194164457264 
-0.18507038008575805 0.036426173170533205 0.1277290595559262 0.14577317901248588 
0.18185149408769063 -0.25877949363859798 -0.016862106483376924 -0.071940060933161534 
0.095040504578790042 -0.13663272042096408 -0.1085106284460079 0.012023863216544186 
0.18185149408769063 -0.25877949363859798 -0.016862106483376924 -0.071940060933161534 
0.024240244552097851 0.37609960527055719 -0.22539126930972558 -0.31743131710639594 
0.18185149408769063 -0.25877949363859798 -0.016862106483376924 -0.071940060933161534 
0.18185149408769063 -0.25877949363859798 -0.016862106483376924 -0.071940060933161534 
0.1322375446818195 -0.11457354939510278 -0.12988961276669661 -0.1416395887422878 
-0.041878509560008312 -0.28107184566656152 0.22895003705518743 0.26024281589067111 
-0.18081581630210783 0.27343168740350865 0 0 
-0.18081581630210783 0.27343168740350865 0 0 
0.034675312561372365 -0.36154012136151104 -0.011462635717419029 0.072323385677420124 
-0.13836768252614523 0.26047552951729203 0.11709305259944086 -0.22767007486423504 
-0.18081581630210783 0.27343168740350865 0 0 
0.081195626379420224 0.1350700347345801 -0.043169680231139915 -0.14671609769310148 
0.065992036165630749 -0.032680343955963843 -0.22757488163082046 0.0044297262701050565 
-0.1193455446155593 0.036768331827326653 -0.062480999378097354 -0.029287847918493037 
-0.18081581630210783 0.27343168740350865 0 0 
-0.18081581630210783 0.27343168740350865 0 0 
-0.30336033373377158 -0.10691474499001613 0 0.3388611695445285 
-0.2373772519535548 -0.13599729115967657 0.16562261541783813 0.36516362163842003 
-0.067261648748021943 0.29308509554591655 0 -0.026586667478424243 
-0.067261648748021943 0.29308509554591655 0 -0.026586667478424243 
-0.087360136407657954 0.32999290338710041 0.13946582452080697 -0.30355143969124199 
0.084479246358154722 0.028420986360229623 -0.43061962899095108 -0.072088894613735244 
-0.067261648748021943 0.29308509554591655 0 -0.026586667478424243 
-0.016718161592111126 -0.15165916489031647 0.11703595645585295 0.00049094944341958313 
0.53545787484832885 -0.36224867739074468 -0.17265177653038041 -0.0024403376707790719 
-0.25122353614026971 0.035502073503744069 0.01097215963129013 -0.039921518659524861 
0.0017892020136024544 -0.13842295101088539 0.13298512422581923 0.33439736836682538 
-0.067261648748021943 0.29308509554591655 0 -0.026586667478424243 
-0.41227901879211748 0.033125637161576627 0.21176156429066192 -0.010038577788160832 
0.22871794231494863 -0.14735088722977754 0.058504047429726987 -0.28782575674000133 
0.1204063451280038 -0.064135766141232911 -0.075945959491737602 -0.11244136693694609 
-0.028595025533609236 0.11061068313220151 -0.08000546213649655 -0.11561912525746805 
-0.053116296648560303 -0.25745234429923769 0 0.36201251537599277 
0.14991141274231845 -0.16701546145760957 0 -0.052032295115916817 
0.14991141274231845 -0.16701546145760957 0 -0.052032295115916817 
-0.097695626882518205 -0.14298674814942566 0.23263739573972647 -0.33458290149016989 
0.14991141274231845 -0.16701546145760957 0 -0.052032295115916817 
0.14991141274231845 -0.16701546145760957 0 -0.052032295115916817 
-0.33439204608378387 0.37145893347026393 -0.060013564292643352 -0.045737520735552838 
0.14991141274231845 -0.16701546145760957 0 -0.052032295115916817 
0.1182446289802678 -0.1052669240262072 0 -0.008085982531238994 
0.20275324927921351 -0.52192536036742765 -0.084224788412491897 0.42026930994304856 
0.1182446289802678 -0.1052669240262072 0 -0.008085982531238994 
-0.010189817970193492 0.2159742355410435 -0.013882286046829286 -0.17006463104132688 
0.1182446289802678 -0.1052669240262072 0 -0.008085982531238994 
-0.01224107446585925 0.077167036398213207 -0.078501836285180496 -0.027957266909867464 
0.0086962828195241079 0.046075923463620355 -0.037611001263664144 -0.17785311824257227 
0.1182446289802678 -0.1052669240262072 0 -0.008085982531238994 
0.1182446289802678 -0.1052669240262072 0 -0.008085982531238994 
0.1182446289802678 -0.1052669240262072 0 -0.008085982531238994 
0.052125058684457465 -0.27243191444423187 -0.13145653378056513 0.1655367973287771 
-0.033252952521948889 -0.16355163314740193 0.091190174730766738 0.00673519609357906 
-0.052153439191823456 0 -0.0030551219398106825 0.13868971101870381 
-0.052153439191823456 0 -0.0030551219398106825 0.13868971101870381 
-0.052153439191823456 0 -0.0030551219398106825 0.13868971101870381 
-0.052153439191823456 -0.08822303793457921 0.088434076000915823 0.13868971101870381 
-0.44394686685941126 -0.29141147402198364 0.39268176738796956 0.26476726787551619 
-0.23950349957530187 0.225216911442981 -0.030926373501972384 0.015645318928326941 
-0.36562004943823723 0.16002881010219358 0.07983083306431063 -0.12618237622401957 
-0.040272699141288719 0.03390599301043791 -0.12637620877731415 -0.021241734610245564 
-0.052153439191823456 0 -0.0030551219398106825 0.13868971101870381 
-0.052153439191823456 0 -0.0030551219398106825 0.13868971101870381 
0.015184896096382655 -0.32716993511593312 -0.0030551219398106825 0.43121047101439897 
0.309731237165772 -0.52179612952044618 -0.13001760307240193 0.062775991858383701 
-0.03188640834766894 0.026554871310284014 0.1729246084906581 -0.18685019800196762 
0.35847662311553086 -0.15876619082925808 -0.045490833785295857 -0.36573413457184095 
-0.12228772222107527 -0.2190370855765095 0.26339814516957361 0.13619842287341682 
-0.1626942729484977 0.089029220556743033 -0.050072405441706963 0.043552708237451859 
-0.056351288052244819 -0.048481025776312518 -0.10236992839225181 0.15135947670061234 
0.28089119363174847 -0.46807772498188516 0.17456813556832323 -0.16688306227979513 
-0.029011840778272169 -0.19029845123171946 0 0.21388465552684557 
0 0 0 0 
0.11130203358931748 -0.23570071261716236 0.029866045544151513 0.25554970629286466 
0.041365198431925862 0 0 0 
0.041365198431925862 0 0 0 
0.30186791938902302 -0.2484186501170815 -0.13001760307240193 -0.14561463617882214 
-0.026498744093081707 0.039544270142533935 -0.20854794554009362 -0.078454540534481768 
-0.067948271617939954 0.19796934378369163 0 -0.014081454844236686 
-0.017856326960060797 -0.059499025248896699 0.11285707187636969 -0.033995239501289208 
0.23788719932286773 -0.17427879043977279 -0.04308162849243978 -0.36969613774063881 
-0.63954835969372992 0.09566501889924757 0.28047666747949157 -0.2807532120947806 
0.041365198431925862 0 0 0 
0.041365198431925862 0 0 0 
0.041365198431925862 0 0 0 
0.40056375134937289 -0.46978031947241106 0 -0.14162250171256929 
0.26056271976811968 -0.3424876153351723 -0.13001760307240182 -0.2490982691281611 
-0.24701683409084299 0.29922860980012334 -0.12305892787260941 0.23512536287297914 
-0.044731690332822538 -0.097405965522045918 -0.0043098372768725487 0.056685375185448181 
0.027384861880906931 0.090845802602811054 -0.13099455940033378 -0.29265953250030619 
0.23380842225703913 0.092992004944698628 -0.15154372721089232 -0.46080621073232281 
0.01717384178823627 0 -0.13001760307240193 -0.11995776250733217 
-0.094991534953202825 -0.052015810048035044 0 0.21405680620149706 
-0.094991534953202825 -0.052015810048035044 0 0.21405680620149706 
-0.15812598153685284 0.12845868770350899 -0.20425042301811799 0.10991138902346126 
-0.047506996879998972 0.019384745787991917 -0.018352754484642558 0.009790837605260571 
-0.34510225470882011 -0.050760091730674813 -0.20152999043336142 0.33721929796386946 
0.13113180476203584 -0.16643915723495536 0.054911650692190499 -0.40146868024251631 
-0.18010164991891284 -0.073773103989985461 0.01860150008740781 0.072607532839684102 
-0.094991534953202825 -0.052015810048035044 0 0.21405680620149706 
-0.11758187496758585 -0.13560161921459835 -0.095174227722858107 0.38010519078007082 
-0.094991534953202825 -0.052015810048035044 0 0.21405680620149706 
-0.011024665224524145 -0.02868475827727095 -0.15346291940416643 0.053499785703519667 
-0.20556112871115972 0.20163279703784473 -0.0025050122051518998 -0.27141639213779822 
0 0.14938915189615593 -0.039751363069911123 -0.13410252997431157 
-0.21481129185012784 0.073174094466840714 0.00035305049388098531 0.20254695041459692 
-0.38402057960997127 0.34206043889717613 0.064834878947359578 -0.12324258638432554 
0 0 0 0 
0.031983459942590491 -0.029995065980203142 -0.013123977705261912 -0.036280135979340142 
-0.22813687632719354 0.16385469685723594 0 0 
-0.20672732782166292 -0.20849609798791274 -0.28580561378617242 0.31498722989553479 
-0.27924815768298106 0.049115824508548865 -0.1408580125441751 0.0080405152193848001 
-0.10739344108452548 0.18077410404315064 -0.02719339941966771 -0.1244450785933055 
0.17967960688397022 -0.031719002165628993 0.20745810794022945 -0.42595066156851941 
0 0 0 0 
0.16527914138472879 0.13197822904415402 -0.47520665472623824 -0.37901426165825453 
-0.22125902665511651 0.22996145223933803 -0.093329344965645045 -0.19874108990366304 
-0.072496197271783108 0.14958693973932757 -0.081274454445578334 -0.12867860715927798 
0 0 0 0 
0.07731510791588167 0.034607690272919114 0 -0.14117383114366885 
0.066069134416708461 -0.02439684567018599 0.0020627291682642681 -0.14295026423401311 
-0.21138947985868128 0.16646432554905294 -0.29167728004057375 -0.018804653112224366 
-0.090235788921405352 0.1236732958549108 -0.064302519410767145 -0.08068610087128826 
0.038198753229297472 0.011116718088756923 -0.15769320357542349 -0.060032782540684448 
-0.22813687632719354 0.16385469685723594 0 0 
-0.22813687632719354 0.16385469685723594 0 0 
-0.22813687632719354 0.16385469685723594 0 0 
-0.22813687632719354 0.16385469685723594 0 0 
0.23165637654637364 -0.29967742511853407 -0.2606490272717536 -0.068698881739578763 
-0.08408907878207586 0.20270634549078884 -0.010224853029861033 -0.12981410132909246 
-0.0025016702041632394 0.12217222860055525 -0.037560239361691103 0 
0.086599478569594809 -0.10568943481700223 0 0 
0.086599478569594809 -0.10568943481700223 0 0 
0.033191702016279023 -0.016487500437955119 -0.12040746655845458 0.17238767515081346 
0.056601719756265614 -0.1952359806831995 -0.093909313637215719 0.26063656323725082 
0.29476248884575762 0.041871991887348657 -0.27452209580311687 -0.27734539254190255 
-0.061619154525038196 -0.077086354942320273 0.21878508230960569 0 
0.086599478569594809 -0.10568943481700223 0 0 
-0.051857883007988548 0.035701449369791437 0.03531423939936152 -0.27835882360314407 
0.34670011491262304 -0.21683775348569531 0 0 
-0.17589312836105497 0.19943250542747881 -0.1067010303773602 -0.13881200720554127 
0.22619502463550828 -0.16464327474141632 0 -0.14069626782186107 
-0.1481495497538588 0.22984405883200673 -0.097782400382980639 -0.11649296029119563 
0.20058828640337184 -0.19885041311796822 -0.024273044484136242 -0.038856973974174855 
0.017414078201643257 -0.14710776468985381 0.22598998752897984 -0.14685012774363887 
0.086599478569594809 -0.10568943481700223 0 0 
-0.22140584087589932 0.36788097241389356 -0.1672287185774162 -0.0090988254742787184 
-0.1531674092470231 0.18541908511158231 0 0 
0.0028937959755821058 0.11728333505904426 0 -0.1235643972005655 
-0.1531674092470231 0.18541908511158231 0 0 
0.058972098906816886 0.1045335443505042 -0.22118057348892392 0.065969089629222405 
0.14830913579298011 -0.10362771922277912 -0.1325391520111226 0.085694871951787599 
0.13748845696562492 -0.15505991189689675 0.21895448244258672 0.093333294829083188 
-0.10728403909704688 -0.061603288342400142 0.30696341633658897 0.059219258586567416 
-0.064339830270087869 0.087539309514741023 0.079648971989200762 -0.12447937036362866 
-0.18210328964919775 0.27275606691256471 -0.011164877048282982 -0.080429371063884758 
-0.05681315510414911 -0.0064816074408083069 -0.078015606000261709 0.1628541033402614 
0.056889887247901873 -0.16685357306439558 0.14004460018762571 0.073489716434571015 
0.024976153805595157 0.039231198269949696 -0.13095333934866524 -0.13128281594135693 
0.09718354394727878 -0.081357119738024508 -0.37512870103631601 0.043103391464561588 
-0.1531674092470231 0.18541908511158231 0 0 
0.080634237584860588 -0.063646187264717283 -0.22491667732782344 0.20392323273553581 
0.50161414799593074 -0.43188618533326917 -0.10455944607406956 -0.22711688697442864 
0.0089792534529763227 0.019650634617698805 -0.19010883917543886 0.034263324846278788 
0.17344195274552962 -0.10431134359074268 0 -0.080158993942824788 
0.06132634753586691 -0.10431134359074268 0.097284463714530978 -0.16419483636692575 
0.013244644865644055 -0.18663910815903595 -0.011285038371420723 0.40449000250068146 
0.17344195274552962 -0.10431134359074268 0 -0.080158993942824788 
0.17344195274552962 -0.10431134359074268 0 -0.080158993942824788 
-0.28502676382923675 -0.055665808874386186 -0.018543396359463026 0.068562901415545247 
0.066034839278505814 -0.51651948050800789 -0.049305942538687766 0.51685758847566587 
-0.21631681672029188 -0.066527855455284723 0.36253231875960851 -0.19707294989016472 
0.29916493854271942 -0.021942937222688547 0.026397018203041973 -0.20137637374590947 
-0.24394590337115518 0.22513291844847713 -0.061124876719875709 -0.0020407868462488897 
-0.014404082318946059 -0.0076320831626324921 -0.31384467061531085 0.015791353309324699 
-0.21816930500994552 0.013079671647776764 0.1421634860264073 0.25720326200170796 
-0.13761458038503924 -0.020142301014556753 0 0.32016348383497528 
-0.13761458038503924 -0.020142301014556753 0 0.32016348383497528 
-0.13761458038503924 -0.23539885456927848 -0.036902500835099411 0.39207629798123123 
-0.13761458038503924 -0.020142301014556753 0 0.32016348383497528 
0.085827428599256975 -0.13077669640872161 -0.090734176305380901 0.19908504240629271 
0.016288153675577861 0 0 0 
-0.32587669723202634 0.19698984074307724 -0.054262221536277251 0.21126660560937721 
0.016288153675577861 0 0 0 
-0.10887923124141216 -0.057841597744730494 -0.33231116821640194 -0.039221291337105682 
0.016288153675577861 0 0 0 
-0.018458632539453113 0.19731316936905252 0.16906661615024637 -0.064509058774973371 
0.016288153675577861 0 0 0 
0.016288153675577861 0 0 0 
0.016288153675577861 0 0 0 
0.016288153675577861 0 0 0 
0.016288153675577861 0 0 0 
0.33773937500151102 -0.10008668132300665 0 -0.24347693478212246 
-0.1925575823295316 0.087400442546831367 -0.040057117119080478 -0.068341759098987112 
0.33773937500151102 -0.10008668132300665 0 -0.24347693478212246 
0.33773937500151102 -0.10008668132300665 0 -0.24347693478212246 
0.048679604857372688 -0.059221811675450466 -0.031165338913011334 0.060745671035018343 
0.33773937500151102 -0.15017381385818701 -0.014344616624489537 -0.24347693478212246 
0.40143598382378914 -0.41883923674821044 -0.1001835861558793 -0.078818008689769348 
0 0 0 0 
0.36251461108200861 -0.37394748959287194 -0.081628942329346532 -0.072341097328774528 
0 0 0 0 
0 0 0 0 
0 0 0 0 
0 0 0 0 
-0.14045827659151761 0.079076144987630381 -0.022758118965675658 0.067171806900917827 
-0.18059504771048232 0.20022918846380644 -0.14569448578027483 -0.11967144135751312 
-0.36875515710911178 0.20060992354952814 0.38263046770438469 -0.14096134257278484 
0 0.025407228658889267 0 0 
0 0.14118869949898924 -0.0069720335917051578 -0.12072691788374548 
0 0.0078866744178181496 0 0 
-0.28388655844464883 0.034236725589508361 -0.035400884966493282 -0.00063272801837422569 
-0.087837135068178418 -0.097679199849519713 -0.034432892778651331 0.093496776636342635 
0 0.0078866744178181496 0 0 
0 0.0078866744178181496 0 0 
0 0.0078866744178181496 0 0 
-0.15490386995070571 0.26941761406625364 -0.0033661674220465693 -0.03274673607472546 
0.19534312037432591 -0.33075805775016309 -0.17808102959388578 0.072101407576298515 
-0.11946604940811874 -0.095798666075576272 -0.027114656191925431 0.43254405701945275 
-0.074398920421281725 0.13369866941702446 0 0 
-0.15885402302373849 0.11566988193302513 0.26914099152905113 -0.13927300723991723 
-0.074398920421281725 0.13369866941702446 0 0 
-0.074398920421281725 0.13369866941702446 0 0 
-0.28033170486893422 -0.18992368700789111 0.30503036263891964 -0.27247189016458917 
-0.074398920421281725 0.13369866941702446 0 0 
-0.35314365393350849 0.3041343932865106 -0.13089572617799722 0.17274814444742234 
-0.074398920421281725 0.24103548879060407 -3.0322616672935331e-05 -8.6736173798840355e-19 
0.04501360816728988 0.17984060123643761 -1.7347234759768071e-18 -0.029303608324143152 
-0.074398920421281725 0.13369866941702446 0 0 
0 0 0 0 
0 0 0 0 
0.28678135697189155 -0.087181929039228306 -0.22099258704997032 -0.033696062417985825 
0.17685206221837999 -0.10385405765889749 -0.015935085306052806 -0.070084269915106259 
0.12853605986621891 -0.06791590449896362 0.021802328459060424 -0.093952356787411401 
0.019116036108940831 -0.26369059023554647 -0.083653715867483727 0.096234549904235286 
0 0 0 0 
-0.17244099599538854 -0.074527816040967962 0.086861263796676233 0.22937034315291402 
-0.28338479443146297 -0.27187491580622347 -0.067128106932120402 0.53037101609038917 
-0.047266156004376281 0.048693268629991918 0 -0.0023268651577181697 
0 -0.21525655355472176 -0.036902500835099418 0.071912814146255929 
-0.049288320588049002 0.11595506317757065 0 -0.016938380608928438 
0 0 0 0 
-0.055517087450218917 -0.0057570941641551009 -0.22106492436248917 0.044432272900964818 
-0.25255904797482576 -0.0489523963545287 -0.011448596734015968 0.21876915946024555 
-0.22116418430410298 0.10764312306892045 -0.28624539778450458 0.40038074224782483 
-0.099214037451962486 0 0 0 
-0.28520994056544968 0.18182397761912705 -0.1778877216615859 -0.08229313465602868 
-0.29205973535583729 0.58587554184084167 -0.11602134321201643 -0.31195724543248227 
0.19906133924036859 -0.14302289872584639 -0.10518666695850651 0 
-0.20807545937825964 0.31895547149458797 -0.091789538556186004 -0.041308167943833074 
-0.27492979113282923 0.2352231925026893 0 -0.044743058899986268 
-0.099214037451962486 -0.031541411390620874 0.090157132802294287 -0.051627359449786484 
-0.082313917617043028 0.1886626709933468 0 -0.027174598186232819 
-0.19176378979668995 0.32459740188712627 4.3368086899420177e-19 -0.027174598186232819 
-0.11180890053749173 0.13956801122112528 0 -0.12131021726455811 
-0.082313917617043028 0.1886626709933468 0 -0.027174598186232819 
-0.082313917617043028 0.02296595917196334 0.22895003705518743 -0.1527096836357012 
-0.29384959953811801 0.43309252592838321 -0.1383209247921931 0.044096443301530251 
-0.48623199161724179 -0.23211849063319601 0.44278441535215524 0.38126075663437053 
-0.082313917617043028 0.1886626709933468 0 -0.027174598186232819 
-0.082313917617043028 0.1886626709933468 0 -0.027174598186232819 
0.059929235169509334 -0.041618589228558163 -0.11464097026975394 0.1307225467786457 
-0.1383630031032653 -0.13962150824279054 0.16895497575873097 0.11899301128748162 
0.1399473504999014 0 0 -0.11429889369189705 
-0.027234995056588617 0.14774151003052388 0.0071402127377038459 -0.12303833840839487 
-0.0056654310427709867 0.25401314093915672 0 -0.11429889369189705 
0.14188557101403479 -0.11187315900370345 -0.052360303824479697 0.011039680678558959 
-0.033466767119747727 -0.18969820284024028 -0.017004352279890514 0.19462550630176634 
-0.44294751005613131 -0.34905475068040098 -0.47058823529411764 0.36961896263096411 
0.1399473504999014 0 0 -0.11429889369189705 
0.1399473504999014 0 0 -0.11429889369189705 
0.24404280999199979 -0.12960479273777814 0 -0.11967741810523722 
0.26541235165360966 -0.28327808281589256 -0.031435342740506224 -0.19644391740126013 
0.1399473504999014 0 0 -0.11429889369189705 
2.1684043449710089e-19 -0.095774245176755535 -0.020806333336096938 0.13969257074266128 
0.18772401928178578 -0.23332019873414228 -0.11326121307910511 0.12163724367576824 
0.10928183410089296 -0.30956729296161706 0.065285048069813195 -0.12837405915925273 
0 -0.095774245176755535 -0.020806333336096938 0.21403578724685771 
0 -0.095774245176755535 -0.020806333336096938 0.21403578724685771 
-0.3868629395687983 0.28051892177708737 0.013497130156945435 -0.17466798520790078 
0 -0.095774245176755535 -0.020806333336096938 0.21403578724685771 
0 -0.095774245176755535 -0.020806333336096938 0.21403578724685771 
0 -0.095774245176755535 -0.020806333336096938 0.21403578724685771 
0 -0.095774245176755535 -0.020806333336096938 0.21403578724685771 
-0.37501236619432216 0.39320101344020414 0.18198859981592116 -0.3109498157701735 
-0.16944432498720441 0.15556165147674503 0.064448217196593244 -0.14903507075990402 
-0.029011840778272169 -0.19029845123171946 0 0.21388465552684557 
-0.11753704838675702 -0.11932766942931844 -0.013841794358902475 0.27101126404862974 
-0.029011840778272169 -0.19029845123171946 0 0.21388465552684557 
0.19591273876655518 0.15539826444679988 -0.28627547852394075 -0.045861744044072124 
-0.029011840778272169 -0.12982368132238745 -0.0049508960096671497 0.18969141837249762 
-0.029011840778272163 -0.32860807806013892 0.18115507877305273 0.015573001974308442 
-0.33886875081305667 0.40583473228331879 -1.7347234759768071e-18 0.088226763501022848 
-0.029011840778272169 -0.19029845123171946 0 0.21388465552684557 
-0.029011840778272169 -0.19029845123171946 0 0.21388465552684557 
-0.029011840778272169 -0.19029845123171946 0 0.21388465552684557 
-0.35634345831544539 0.33471687201752698 -0.020869036986145877 0.17709445650893163 
-0.052366350884509062 -0.020106176378449876 -0.059673331851503746 0.12594791646815928 
0 0.059878517296576533 0 -0.019468042696833641 
-0.10692437630004133 0.23238417777915527 -0.099935419975656928 -0.012751393014875502 
-0.24646623774974824 0.41385255779068669 -0.04112799043867027 -0.24487637128225581 
-0.033063227429596526 0.072819426620698513 0.049250763753187952 -0.15887890814866873 
-0.045303191774398746 0.14163625755312498 0 -0.019468042696833641 
0.059587034308943895 -0.034184123474940625 -0.19287311424652565 -0.0090890892290365274 
0 0.059878517296576533 0 -0.019468042696833641 
-0.4186953259044483 0.27974600043471876 0 0.31202120165442959 
0.082037964214699027 -0.10005970566323219 0 0 
0.082037964214699027 -0.10005970566323219 0 0 
-0.11676002165075568 0.086131877342160434 -0.065784639148779328 -0.12134568247400536 
0.082037964214699027 -0.10005970566323219 0 0 
-0.14280119943454495 0.10930424203823555 0 0 
0.082037964214699027 -0.10005970566323219 0 0 
-0.27218345728837234 0.13777410898959633 0 0.36722309462365721 
-0.039454440622426097 0.027127918114294131 0 -0.042405262515908135 
0.063352040732523124 0.20520676999057388 -0.26679247088463631 -0.42363571782300757 
0.12562998583854929 -0.19202070156385367 0 0.072035660402725771 
-0.03945444062242609 -0.13659527862501034 0 0.10538222044911193 
-0.03945444062242609 -0.13659527862501034 0 0.10538222044911193 
-0.03945444062242609 -0.28640060835300385 -0.11464097026975394 0.3504036609196548 
-0.098815586473637793 0.044365830445729296 -0.39623675031341238 0.07109343118828465 
-0.15760522066678959 0.023562990794055421 -0.14960223064275371 0.37155285903265223 
-0.28906689986697176 0.33249166837518285 -0.064873514904933677 -0.050266791632019039 
-0.03945444062242609 -0.13659527862501034 0 0.10538222044911193 
-0.29918432269829132 -0.056495876281818729 -0.44231417094601411 0.24903355303375063 
0.15494723223993878 -0.27615690119410696 0.12497206325324703 -0.01417023859050745 
-0.089622853523693216 -0.23799168887629624 0.15137399885872554 -0.092500630644615514 
-0.03945444062242609 -0.07324995608824475 0 0.02688364067450473 
-0.03945444062242609 -0.13659527862501034 0 0.10538222044911193 
-0.22483916364924419 0.20936394770146774 0 0 
0.19651011426646289 0.029288495266030855 -0.25972681919524121 -0.38704308462851333 
-0.22483916364924419 0.20936394770146774 0 0 
0.044684668400885114 -0.071065184976169593 0 -0.037840412684335266 
-0.22483916364924419 0.20936394770146774 0 0 
-0.21572809450347538 -0.092793662300407184 0.51894962870911621 -0.35525636113282022 
0.044087264247502284 -0.066714656254367941 -0.10385690186207477 0.011741023221394541 
0.32896120718438521 -0.15326054315011159 -0.17772382818061791 -0.10218291125970952 
-0.13462665202118357 0.075982088965705408 -0.20788557130961663 -0.070065037106688294 
-0.22483916364924419 0.20936394770146774 0 0 
-0.084618788511671053 -0.16502504236673682 0.16476014718995041 0.080436317453642228 
-0.033849342508404781 -0.16502504236673682 0 0.1611941548769156 
-0.033849342508404781 -0.16502504236673682 0 0.1611941548769156 
-0.057257070691286917 -0.060047132093679602 0 0.15940380900634493 
-0.088707170418199963 -0.1534881838310525 -0.10195273917702107 0.4311696850677994 
-0.033849342508404781 -0.16502504236673682 0 0.1611941548769156 
-0.42546222829210945 0.39923056157937742 -0.11026872413145881 0.13420327530074441 
-0.033849342508404781 -0.12665981977575927 0 0.12311391533979851 
-0.033849342508404781 -0.16502504236673682 0 0.1611941548769156 
-0.088695174923258693 0.18697471508579649 0 0 
-0.088695174923258693 0.18697471508579649 0 0 
-0.26723234135562979 -0.08362792917857241 0.27833959113301326 -0.18261501061460314 
0.20290989649288488 -0.035921992096625006 0.21744516404134745 -0.21276812201159354 
-0.088695174923258693 0.18697471508579649 0 0 
-0.088695174923258693 0.18697471508579649 0 0 
0.20710520200159507 -0.13249313730087367 0 -0.035189939629662499 
0.20710520200159507 -0.13249313730087367 0 -0.035189939629662499 
0.15908217096130825 -0.13778066212160878 -0.089972223686238889 0.15426253859517872 
0.20710520200159507 -0.13249313730087367 0 -0.035189939629662499 
0.010565192402388957 -0.19984484590864207 0 0.21139832662450672 
0.38348318615051863 -0.43765641975113645 -0.24437824320891219 0.17169073226370213 
0.22350868146009337 -0.13249313730087367 -0.026529945954620791 -0.10333906996402586 
-0.095265944345432688 0.077857633370190471 -0.2265297604161976 0.22735606039006762 
0.20710520200159507 -0.13249313730087367 0 -0.035189939629662499 
0.37936667770507571 -0.33143027735419939 -0.12551450014449095 -0.22839189515616704 
-0.19431327694042685 0.19180367074357427 -0.0086365491953985258 -0.26191505919261965 
0.18364256396218151 -0.18363570902819121 0 0 
0.18364256396218151 -0.18363570902819121 0 0 
-0.25263690310113873 0.35142043090202307 -0.021463572396404645 -0.22607398962879616 
0.18364256396218151 -0.18363570902819121 0 0 
0.34025439274698144 -0.40767555246883491 0 -0.023037796047680401 
0.18364256396218151 -0.18363570902819121 0 0 
0.055771404475271617 0.093819932119572166 -0.046084347917000619 -0.29261760403357018 
-0.095926423937063826 0.045313058544941331 0.088088685104653397 0.15644108488162134 
-0.17455377746198192 -0.089200970746718886 -0.068180064551891351 -0.088972995285810708 
-0.47814097890641311 0.37394470055239176 0 0 
-0.47814097890641311 0.37394470055239176 0 0 
-0.19011520893652223 0.12084557214201372 0.099065115906357068 -0.00084668351959894144 
-0.011755449869287934 0 0 0 
0.030582857562675272 0.033064175622487472 -0.039756573629421296 -0.07190062293135277 
-0.13465282196687728 0.1952425361941737 -0.024552407759734583 -0.14672606600012408 
0.069930069320896696 0.2855087709901255 0.013809200829516088 -0.42404377887458994 
-0.055166714177347462 0 0.084188124269647099 0 
0.32163588088023692 -0.00083989299318683753 -0.18988330960175778 0.086090337480436763 
-0.32985565387912258 0.33749232189156014 -0.13306935339157328 -0.065326939280627133 
-0.011755449869287934 0 0 0 
-0.032212106119116957 -0.084112373268991861 -0.02546067688855717 0.22777097880147662 
-0.49396011318743888 0.27315229080175663 0.040028662862837981 -0.6274742754573055 
-0.096309952021806824 0.024432059404933853 -0.26231285847012459 0.035901277173281898 
-0.011755449869287934 0 0 0 
-0.011755449869287934 0 0 0 
0.23992918069044308 -0.046757841738042101 -0.15002602738600526 -0.12310564665407046 
0.053648717580633637 -0.021852948588849536 0 0 
0.053648717580633637 -0.021852948588849536 0 0 
-0.10556960396144272 -0.16245657980792411 0.18253548232246786 0.1223540623863929 
-0.10293306000914304 0.075112355821299576 0.082555424459638704 -0.10782788491409052 
0.053648717580633637 -0.021852948588849536 0 0 
0.055286356957303801 -0.021852948588849536 0 1.7347234759768071e-18 
-0.29569223735346523 0.070414372915899887 -0.0075048176647835342 -0.14831208761994361 
0.053648717580633637 -0.021852948588849536 0 0 
0.28805971289447813 -0.071194611259584817 -0.20361392897748221 -0.17696620973581481 
0.053648717580633637 -0.021852948588849536 0 0 
0.17145460573389651 -0.26294690862564135 -0.038417807683156856 0.14966779826018098 
0.24195845472922184 -0.23676452777421539 -0.010150658885744608 -0.094846888358968318 
0.24998235569449351 -0.12165820078263953 -0.032114862571868324 -0.16746354499463634 
-0.01300883671306139 0.14080360205996756 -0.070704101030891184 -0.040604900799354436 
0.15661182878479984 -0.22403984344064379 0 -0.023037796047680408 
0.15661182878479984 -0.22403984344064379 0 -0.023037796047680408 
0.085666358651010674 -0.041784624533939538 0 -0.011049252922077209 
0.40194828480279676 -0.42582434053697715 -0.082971619874587121 -0.18714890394430644 
0.085666358651010674 -0.041784624533939538 0 -0.011049252922077209 
0.085666358651010674 -0.041784624533939538 0 -0.011049252922077209 
0.085666358651010674 -0.041784624533939538 0 -0.011049252922077209 
0.085666358651010674 -0.041784624533939538 0 -0.011049252922077209 
0.085666358651010674 -0.041784624533939538 0 -0.011049252922077209 
0.085666358651010674 -0.041784624533939538 0 -0.011049252922077209 
-0.084245633947318585 0.10039485546590796 0 -0.040098746755670669 
-0.084245633947318585 0.10039485546590796 0 -0.040098746755670669 
0.026799181532358995 0.086385171962169813 -0.012942667984480615 -0.087010146534505617 
-0.084245633947318585 0.10039485546590796 0 -0.040098746755670669 
-0.084245633947318585 0.10039485546590796 0 -0.040098746755670669 
-0.084245633947318585 0.10039485546590796 0 -0.040098746755670669 
-0.084245633947318585 0.10039485546590796 0 -0.060732160873212093 
-0.14447235385584098 -0.13970254117513081 -0.05036588648066942 0.24714987640511238 
-0.084245633947318585 0.10039485546590796 0 -0.040098746755670669 
-0.084245633947318585 0.10039485546590796 0 -0.040098746755670669 
-0.18421248820776162 -0.11009700646708132 -0.25180728439470612 0.5487664191878141 
-0.084245633947318585 0.10039485546590796 0 -0.040098746755670669 
-0.29075555638680561 0.045668998250066456 0.35632443329725011 0.098641766660479177 
0.074727546388770952 0.18988176182826139 -0.13798480055125151 -0.24633355144471444 
0.042880373912617092 -0.16637005180905637 0.24995286578638859 -0.03132836864038762 
0.30364080987237668 -0.16598855833570181 -0.083880191952979979 -0.035178739638369635 
-0.20768955301142636 0.10221172897711557 0.099956811513066554 0.00035663379202125313 
0.12532378564238519 0.021500383460766676 -0.16302036832922837 0.076202302263105481 
0.067639074567242427 -0.080291228241954546 0 0 
0.067639074567242427 -0.080291228241954546 0 0 
0.067639074567242427 -0.080291228241954546 0 0 
0 0.047616313766679769 0 -0.12970409185614154 
0 0.047616313766679769 0 -0.12970409185614154 
-0.38822773710108732 0.21610602933082187 -0.058019633345723326 0.38988271788865214 
0.01506839274832727 0.081793282660533151 -0.090140307477588583 -0.12970409185614154 
0 0.047616313766679769 0 -0.12970409185614154 
-0.17815896237613946 0.22898314477138174 0 -0.12970409185614154 
-0.17161804417464482 -0.38909031314275977 -0.35467144710501608 0.75442858080084274 
0 0.084134342962580821 0 -0.17769230068467048 
0 0.047616313766679769 0 -0.12970409185614154 
0 0.047616313766679769 0 -0.12970409185614154 
0.099044084893011849 -0.16355163314740198 0 0 
0.21915819670895759 -0.2097543419985195 0 -0.070943820250520373 
0.25958385749724039 -0.094261753121222341 -0.09887267680766372 -0.022630940795085687 
0.099044084893011849 -0.16355163314740195 0 0 
0.099044084893011849 -0.16355163314740195 0 0 
0.099044084893011849 -0.16355163314740195 0 0 
-0.011385702276541102 -0.046522124293214132 0 0.24548133122403684 
-0.06490470545575186 0.086571190321588276 -0.10407835761191492 0.15123804044971681 
0.070389187095947742 -0.28450597733767596 0.19653914176831236 0.09358214706350837 
-0.32747657744493419 -0.16884852071123407 0.33885531287936554 -0.28397440080701664 
-0.011385702276541105 0.034338397243978101 0 0.22987137434310859 
-0.011385702276541102 -0.046522124293214132 0 0.24548133122403684 
-0.011385702276541102 -0.046522124293214132 0 0.24548133122403684 
-0.011385702276541102 -0.046522124293214132 0 0.24548133122403684 
0.052678493743047484 -0.35470170056105177 0.27264669965040478 0.11084915038454229 
0.079586752482157005 -0.054664110413166225 -0.0065076605973870601 0.19659994985333545 
-0.01904471835735002 0.040299178104558908 0 -0.007961935467068481 
-0.041686733534422343 0.10524576615775824 -0.033741965814792302 -0.070669484359995066 
-0.078167796355144578 -0.096376386422097698 -0.16218740534366546 0.11723069676253971 
-0.070012494696506264 0.13188931050211761 0 0 
-0.078167796355144578 0.13188931050211761 0 0 
-0.078167796355144578 0.13188931050211761 0 0 
-0.29511195747580105 0.18655799178218962 -0.0047004871281162318 0.12120603999889208 
-0.078167796355144578 0.13188931050211761 0 0 
-0.078167796355144592 0.23764610319011492 0 0 
-0.19491681224040686 -0.14037635234726267 0.30283247857854312 -0.12009863130862396 
-0.030844677841015706 0.19719409802092161 -0.025931366036711426 -0.11245112300144812 
-0.10798194908033221 -0.11095561821199765 -0.033196504958193915 -0.011570387827843011 
-0.50699843510154641 0.23071806865862954 -0.2797645649633701 0.31631285950673355 
0 -0.061153059652005418 0.21176910780591951 -0.18725693208995725 
0.024741559437749985 0.15920004006997263 0.017869612845890538 -0.20297716433957888 
-0.59536485862605515 0.32365366314054983 -0.25807719851991151 0.089386264573494911 
-0.21375375372442965 0.018760157993920126 0.066450768488285322 -0.06295220875130364 
0.07038431426692722 0.16420633502734169 -0.025380481796703998 -0.22392472034806718 
1.7347234759768071e-18 -0.18600692220137488 -0.025931366036711426 0.15454319858720189 
0 0 -0.025931366036711426 -0.018399224246738267 
-0.15160363674414853 0.026428428284913649 -0.23047201321287941 0.24480778577715129 
-0.13641762911389665 -0.12933764039172052 0 0.078342000838076298 
0.087600423720549714 -0.40229610511258446 0 0.12262700300664472 
-0.34434652743251903 -0.14248134731481008 0 0.22884542034970007 
-0.078131090899010047 -0.13868493068988558 0.059918453490615968 -0.12482972419156527 
0.26388194791845521 -0.0051008364210074477 -0.56965986912238809 -0.0082150475271358277 
-0.041899180705055376 0.16484792654662478 -0.070316968222107701 -0.084708772601571988 
0.2517560625131442 -0.25062985728241416 -0.018558415763695817 -0.1285026467937477 
0.2517560625131442 -0.25062985728241416 -0.018558415763695817 -0.1285026467937477 
-0.21636718463910384 0 0 0.26967460740138893 
0.0047144555462132823 -0.10579986969521028 0 0.14939554192252821 
-0.21636718463910382 0 0 0.26967460740138893 
-0.21636718463910382 0.0020399105143196917 0 0.17553898832306358 
0.36286244598738132 -0.6125378923484035 -0.12349745918378709 0.21357900361416582 
-0.21636718463910382 0 0 0.26967460740138893 
-0.21636718463910382 0 0 0.26967460740138893 
0.0075029821654464257 -0.20759709913751362 0 0.23938525261178414 
-0.21636718463910382 0 0 0.26967460740138893 
-0.073480357438524713 0.15199229699127875 0 0 
-0.1351741800222509 0.039723486451663015 -0.028859454446228196 0.21353497004046743 
-0.073480357438524713 0.15199229699127875 0 0 
-0.073480357438524713 0.15199229699127875 0 0 
-0.16702701963629224 0.30008018846776507 0.016178542704960636 -0.37139095710496406 
0.0041395643907399995 0.098067332090393422 0.084188124269647099 -0.044866084419397746 
-0.058313240470595204 -0.045538312234101784 0.1652194123709442 4.6521923966542922e-05 
-0.073480357438524713 0.15199229699127875 0 0 
-0.14637937252317598 -0.40217178690687244 0.37958321563439007 -0.37224557771768241 
0.11999740007459223 0.11184537608601097 -0.20868252158586545 -0.23481062400294991 
-0.073480357438524713 0.16436087469832511 0 -0.10608562706294956 
0.27388205743507765 -0.090146300937328727 0 -0.14080351681964312 
0.032293050026760653 -0.039242194999147349 0 0 
-0.13646123970092092 0.14032046764939798 0 0 
0.17504029830758541 -0.1124406063008945 -0.23819408156144059 -0.024417790418169227 
0.21952896777406081 -0.36892588808341742 -0.15632261930872726 0.091362044077902965 
0.014054613820969182 0.045058875315822547 -0.21852040687315291 -0.073570140547844651 
0.075514505991476966 -0.34213941791676472 0 0.30735831667129881 
0.032293050026760653 -0.039242194999147349 0 0 
0.058919082626864058 0.14903413338820953 -0.051496012110902156 -0.3545709793791218 
-0.052555736770742621 0.0076441141020101196 0 -0.076543285217677809 
0.032293050026760653 -0.039242194999147349 0 0 
-0.2124687078852576 0.058532745214355489 0.095953646773441176 0.1010315065765767 
-0.0094400186935522101 0.10390926311954268 0 -0.14548781320423271 
-0.046440020142282205 0.19761703010754439 -0.041423270577485349 -0.13967620745931619 
-0.16657775770595168 0.12914211782027829 0 -0.076543285217677809 
-0.16657775770595168 0.12914211782027829 0 -0.076543285217677809 
-0.16657775770595168 0.12914211782027829 0 -0.076543285217677809 
-0.16657775770595168 0.12914211782027829 0 -0.076543285217677809 
0 0.29793878478965796 -0.09887267680766372 0 
0 0.29793878478965796 -0.09887267680766372 0 
0.16939147845204533 -0.14569179826987089 -0.20139072758405097 0.18211016045986994 
0 0.29793878478965796 -0.09887267680766372 0 
0 0.29793878478965796 -0.09887267680766372 0 
-0.25853463996149839 0.014430853648504424 0.11043487119748577 -0.15795265748878917 
-0.31954551992771635 0.29345195141961794 -0.18059018404431099 0.33102462611326239 
0.10579840828393179 -0.068301135772782989 0 -0.028457108387960693 
0.056960756257033965 -0.097996002432931217 0.33079850604252187 -0.11332249093064418 
-0.062388016809486829 -0.061458629341909835 -0.05179531551765202 0.016986517994534048 
0.41416063388012808 -0.5890032367065513 -0.13113066605428783 0.089310824709840891 
0.10579840828393179 -0.068301135772782989 0 -0.028457108387960693 
0.06049521650953308 0.013456604483765441 0 -0.028457108387960693 
0.043513749172086252 0.29305909205669328 -0.25876871660271245 -0.28757338498647356 
-0.004770950940269407 -0.053375747597484632 0 -0.066594620668620264 
0.10579840828393179 -0.068301135772782989 0 -0.028457108387960693 
-0.032302208422333979 -0.19374826437641893 0 0.19626413559184877 
0.018115313975380826 -0.26201633171775046 0 0.19626413559184877 
-0.032302208422333979 -0.19374826437641893 0 0.19626413559184877 
-0.032302208422333979 -0.19374826437641893 0 0.19626413559184877 
-0.032302208422333979 -0.19374826437641893 0 0.19626413559184877 
-0.032302208422333979 -0.19374826437641893 0 0.19626413559184877 
-0.23625486353124248 0.050808932758497447 1.7347234759768071e-18 0.16663649488533058 
0.057697173875472872 0.10455460863260116 -0.27019853363114271 -0.081636482957681819 
-0.12204623616423226 -0.0064097552927831099 0.24786902397872901 -0.1160214857960106 
-0.056960429424650266 0.0011585518928693 -0.056177105772433705 0.014888131850475647 
-0.032186346122395799 0.12353580089909033 0 -0.012968344984367882 
-0.032186346122395799 0.12353580089909033 0 -0.012968344984367882 
-0.032186346122395806 0.075882237686911116 0.10928730855799758 -0.012968344984367879 
-0.032186346122395799 0.12353580089909033 0 -0.012968344984367882 
-0.032186346122395799 0.12353580089909033 0 -0.012968344984367882 
-0.032186346122395799 0.12353580089909033 0 -0.012968344984367882 
-0.032186346122395806 0.12353580089909033 -0.0071907170064534464 -0.012968344984367882 
-0.032186346122395799 0.12353580089909033 0 -0.012968344984367882 
-0.032186346122395799 0.12353580089909033 0 -0.012968344984367882 
-0.080567778920500072 -0.14901811899577133 0 0.21004726958436698 
-0.15721782183292915 0.19052093707135648 -0.02424276721871952 0.10440523001617057 
0.37076815498308807 0.035002451270200352 -0.18581448305022866 -0.30801340430383539 
-0.080567778920500072 -0.14901811899577133 0 0.21004726958436698 
-0.092648154014982581 -0.080824770933516046 1.7347234759768071e-18 0.21004726958436698 
-0.18979634010508983 -0.19776116065848426 0 0.27261474349758952 
0.098786925142991089 -0.026472911485714616 -0.0080898609004544462 -0.031495038933883272 
-0.030143429385053346 -0.0089427268629626386 0.24525656742801277 -0.46805616784620763 
-0.19652220101843382 0.11803080568490699 -0.064610511909995075 0.046309481013702483 
-0.050043687132620182 -0.0066887491516440106 1.7347234759768071e-18 -0.029696687630372073 
0.063829372890511937 -0.12732076496224831 0.078388620043291238 -0.045530704415140968 
-0.13168471284350486 0.052299586223953073 0 0 
-0.13168471284350486 0.052299586223953073 0 0 
-0.13168471284350486 0.052299586223953073 0 0 
-0.031942017453916963 0.157167263760216 -0.12349745918378709 -0.44606272248974838 
0.17278056408571946 -0.31843367006612505 -0.056909669621956725 -0.058872806401954067 
-0.26924771602460529 0.15882760216940217 -0.096572303810903537 0.23384878917053836 
-0.13168471284350486 0.052299586223953073 0 0 
-0.0021336117829288469 0.09901790413948322 0 -0.082027959404303907 
-0.0042672235658576729 0.34863457788654029 -0.06861912635452197 -0.25243931427718208 
-0.081897234361823848 0.15241280928007314 -0.41595580332692278 0.23682427028751635 
0.0070944450907970422 0.17069910809096611 -0.0080683194769403908 -0.15976143524550634 
-0.016204504776705465 0.09901790413948322 0 -0.082027959404303907 
-0.0021336117829288469 0.09901790413948322 0 -0.082027959404303907 
-0.0076602053004754386 -0.018186560571884669 0.021806356615790251 0.21453435793602166 
-0.36338160727270896 -0.38708177335104477 0.15588760866788939 0.44287914990546612 
-0.14552432580164187 -0.082518497144019029 0.3760539303920365 -0.25251318582557181 
-0.071243369036810764 0.11187620243021522 0 -0.09729159638739901 
-0.071243369036810764 0.11187620243021522 0 -0.09729159638739901 
-0.071243369036810764 0.11187620243021522 0 -0.09729159638739901 
-0.071243369036810764 0.11187620243021522 0 -0.09729159638739901 
-0.071243369036810764 0.11187620243021522 0 -0.09729159638739901 
-0.071243369036810764 0.11187620243021522 0 -0.09729159638739901 
-0.090008316121097623 0.23222506103400442 0 -0.09729159638739901 
-0.40782534882629345 0.1574058257670567 -0.0134426497722453 0.17964914340295862 
-0.071243369036810764 0.11187620243021522 0 -0.09729159638739901 
-0.11834892946595146 -0.11039421068191278 -0.076602120255230957 0.22563877305884059 
-0.17622064224445977 0.19840928359691548 0 0 
-0.079585431067722562 0.079151987970206616 0 0 
0.025643396917064656 0.034918881322479438 -0.19129217839270948 -0.21817213268110502 
-0.079585431067722562 0.079151987970206616 0 0 
-0.20231211982098271 0.18920153941626436 0.032575102681876689 -0.13481945022970365 
-0.079585431067722562 0.079151987970206616 0 0 
-0.079585431067722562 0.079151987970206616 0 0 
0.38942300810562502 -0.23168134887995892 -0.079919846773780778 -0.095688583323917997 
0.065752374085148904 -0.043720232404348268 -0.023336368687772339 0 
-0.18517090424623767 0.091757457640617129 -0.21541078070054498 0.12113808370875104 
0.10548630113475246 -0.051289919411490595 -0.023336368687772339 -0.014009622599891766 
0.065752374085148904 -0.043720232404348268 -0.023336368687772339 0 
0.24003406206309255 -0.22681649865725181 -0.045772771887949183 -0.060670890299202127 
0.12207697898545579 -0.098227139961364549 -0.023336368687772332 0 
0.065752374085148918 -0.081898485819555333 -0.023336368687772339 0 
0.065752374085148904 -0.043720232404348268 -0.023336368687772339 0 
-0.0077428385633492337 0.025462227122152417 -0.086151474813034506 0.025315257235740522 
-0.18391547794846505 -0.33119448015723657 0.22279690618608916 0.16768289329865591 
-0.10714024194158114 -0.20205013071252231 0.18808011385205795 0.093295561037534488 
-0.12617613076813469 -0.04540400695695803 -0.44074755057450388 0.094800177844546432 
-0.010220133254014092 0.19607168539064468 -0.039855583010350942 -0.080551025135956383 
0 0.080241992375019486 -0.034223220498973188 0 
0 0.080241992375019486 -0.034223220498973188 0 
0 0.080241992375019486 -0.034223220498973188 0 
0 0.19712723507238161 -0.047165888483453822 -0.0469113997788351 
0 0.080241992375019486 -0.034223220498973188 0 
-0.31980925786895947 0.11907956248861845 0.22504450566506032 -0.13309732085234965 
0 0.080241992375019486 -0.034223220498973188 0 
0 0.080241992375019486 -0.034223220498973188 0 
-0.34670107363102948 0.07898250433097824 0.24526532336566204 -0.19010498945391921 
-0.25210465095317236 0.2792702534525503 0 0 
-0.25210465095317236 0.2792702534525503 0 0 
-0.25210465095317236 0.2792702534525503 0 0 
0.11578261221818732 -0.092909010312610216 -0.033430539670324957 -0.046870855143754851 
0.25924311803166339 -0.51390672994882236 -0.1887229151482463 -0.012047954752555488 
-0.13016836305915697 0.25967401911743376 -0.018454064748094658 -0.11628167394961048 
0.044804676252048134 -0.0011523302222426132 -0.028069131340662225 -0.13508553733750189 
-0.25210465095317236 0.2792702534525503 0 0 
-0.25210465095317236 0.2792702534525503 0 0 
0.20003999515447515 -0.35390718088486817 -0.077453295857534021 -0.0043489363952314772 
0.30620994442926402 -0.28650080338814227 0 -0.19160433379936601 
-0.067849014766568724 -0.0066627398437100749 0 -0.032313258100441437 
0.087580730880769481 0.040537104216386954 -0.02907998313696614 -0.12786064196877608 
0.14299387888971724 -0.11608541394556836 0 -0.19160433379936601 
-0.18050225919753005 -0.020125878578429277 0.048125335892750129 0.19021276021222605 
0 -0.26945577599542042 -0.064446796194733133 0.36602592579570198 
-0.41935821032094833 0.067687793907941801 -0.043477923836232314 0.17603764210181477 
-0.17672476905968029 -0.06567723055962621 0.2175998829211975 -0.20570153563545451 
0 -0.26945577599542042 -0.064446796194733133 0.36602592579570198 
0.023343206837908456 0.080643395680635083 0.11482690276121651 -0.10335954113097469 
0.42938580224042933 -0.20224240768136159 -0.10852547594598083 -0.07904069551766936 
0.42938580224042933 -0.20224240768136159 -0.10852547594598083 -0.07904069551766936 
0.42938580224042933 -0.20224240768136159 -0.10852547594598083 -0.07904069551766936 
0.094111875284722687 0.27051869910783483 -0.10852547594598083 -0.19624945673510735 
0.072696307684523329 -0.13161405918158953 0.31718548134343671 -0.041310935601081449 
0.1146979558197985 0.17787108096677437 -0.20855007353554389 -0.15853030713328067 
0.34237560387736216 0.16256621212665701 -0.10852547594598086 -0.24449273057987692 
0.3328043785914403 -0.18368149156667896 -0.10852547594598083 0.17651997002158493 
-0.11238199715094771 -0.0012859569906304574 0 0.20461361224037267 
0.026121254987177728 -0.191051870000887 -0.093664233328851029 0.023052108621631096 
-0.054327605411612002 -0.090436882841628291 0 0.20461361224037267 
-0.058824740849856443 0.088249102611251462 0 0.10814285766112287 
-0.54260626833839953 -0.098859627145333404 0.18134037211904597 0.030116666303730569 
-0.054327605411612002 -0.090436882841628291 0 0.20461361224037267 
-0.040249794995292576 0.12910598663147807 -0.01588499922058368 0.12257889936349942 
-0.054327605411612002 -0.090436882841628291 0 0.20461361224037267 
0.16900719817028098 -0.36056164835102678 0.10998071440823649 -0.18404514218383702 
-0.054327605411612002 -0.090436882841628291 0 0.20461361224037267 
-0.054327605411612002 -0.090436882841628291 0 0.20461361224037267 
-0.18153541860507444 0.18467387102848132 -0.032114862571868324 0 
-0.23958981034441029 0.27382479687947908 -0.032114862571868324 -3.4694469519536142e-18 
-0.13463132621830956 -0.088141261437091889 0.1684894468085304 -0.032346926344264497 
-0.16331793179174386 0.090556456963708745 -0.032114862571868324 -1.7347234759768071e-18 
-0.13661848490890849 0.17149599151999756 -0.060300505392913289 -0.046074309829308997 
0.010123448089777002 0.11300152093279751 -0.060300505392913289 -0.093853243490925164 
0.065335460407987545 -0.19620938073624708 -0.032114862571868318 0.020251373492737569 
-0.18153541860507444 0.18467387102848132 -0.032114862571868324 0 
-0.18153541860507444 0.18467387102848132 -0.032114862571868324 0 
-0.17793019926443748 -0.048329212015997533 0.038083084857145205 0.099291676435381407 
-0.021650099928508044 0.080906574548806634 0 0 
-0.32473640977506479 0.0081795850776679828 0.23540657894421102 0.062360802159276987 
0.16440717378962996 -0.11908687422147937 -0.50770768494967744 0.19549853553383548 
-0.26930206677186963 0.30334138283121281 -0.31628828009035326 0.16544408931406934 
-0.021650099928508044 0.080906574548806634 0 0 
0.061928389989355737 0.0072946930207542782 -0.036563418850403692 0 
0.16321606553954676 -0.17041538944257367 0 0 
0.16321606553954676 -0.17041538944257367 0 0 
-0.39288902731527642 0.53373839068467588 -0.25929442855182699 -0.12532532367370122 
0.16321606553954676 -0.17041538944257367 0 0 
-0.1852517410610296 0.1269928042055303 0.1601150576106504 -0.16210554043312445 
0.16321606553954676 -0.1460755467718696 0 -0.031269593193854348 
0.27739037671510625 -0.25474078168323167 -0.0069940056386281202 0 
0.16516573214705635 -0.19141502463123961 0 -0.084087272651565806 
0.28366508872515467 -0.28480846805625265 -0.028862762908134526 -0.084087272651565806 
0.16516573214705635 -0.19141502463123961 0 -0.084087272651565806 
0.16516573214705635 -0.19141502463123961 0 -0.084087272651565806 
-0.041456154618219422 0.27788272233087308 -0.20227212447276713 -0.009918511687842203 
0.051863774250607959 0.014433484146912388 0 -0.0080788134165703813 
1.7347234759768071e-18 0.065871730612132959 -0.065308312829276918 -0.053153108263828783 
0 0.075000136754065624 0 -0.0080788134165703813 
0.13012940478806115 -0.093479397264783534 0 -0.17838031053601339 
0 0.075000136754065624 0 -0.0080788134165703813 
-0.36393343173326753 -0.055971252577622525 0.25779686141208114 -0.014977214354863707 
0 0.075000136754065624 0 -0.0080788134165703813 
0 0.075000136754065624 0 -0.0080788134165703813 
-0.025452459012459405 0.10046914074218644 0.1990655215285714 -0.1416433610143211 
-0.024862753625789238 0.045653112579626363 0 -0.040365550445956556 
-0.024862753625789238 0.045653112579626363 0 -0.040365550445956556 
0.17451471272614921 -0.075990266473340284 -0.074655037148994616 -0.25087587630894281 
-0.024862753625789238 0.045653112579626363 0 -0.040365550445956556 
-0.13783123867886193 0.13021490039103331 -0.096499637630519053 -0.19613319822760267 
-0.024862753625789238 0.045653112579626363 0 -0.040365550445956556 
-0.024862753625789238 0.045653112579626363 0 -0.040365550445956556 
-0.024862753625789238 0.045653112579626363 0 -0.040365550445956556 
-0.024862753625789238 0.045653112579626363 0 -0.040365550445956556 
0 -0.47389945327152866 -0.043326579401312564 0.32622074068116191 
0 -0.47389945327152866 -0.043326579401312564 0.32622074068116191 
0 -0.47389945327152866 -0.043326579401312564 0.32622074068116191 
0 0.17052990946364988 -0.10851120997678403 -0.035049995518419225 
-0.079154197577181604 0.044180848682836157 -0.10067319301625478 -0.017875266472937718 
0 0.037102067531011085 -0.026304348472521707 0 
0 0.037102067531011085 -0.026304348472521707 0 
0 0.037102067531011085 -0.026304348472521707 0 
0 -0.052342589211901984 0.11594076756991707 -0.11384173655347966 
0 0.037102067531011085 -0.026304348472521707 0 
0 0.037102067531011085 -0.026304348472521707 0 
-0.044697668705285805 0.13114085055694835 -0.076256515354363952 0.12293444557750993 
0 0.037102067531011085 -0.026304348472521707 0 
0 0.037102067531011085 -0.026304348472521707 0 
-0.020606595900327481 -0.29627732283106689 0.166277425250453 0.23105429662728794 
0.14646361634861696 -0.058875117636964826 0 0 
0.35434239929937233 -0.1520878679058385 -0.13139593002106653 -0.18444815923394284 
-0.18283447939439312 -0.044902905312643446 0.12035491622377403 0.14531614501786719 
0.42750545818229924 -0.27963933344752667 -0.075076185716363431 0 
0.14646361634861696 -0.058875117636964826 0 0 
-0.21366158986225212 0.21610705503858404 0 0 
-0.21366158986225212 0.21610705503858404 0 -0.027727192261715754 
-0.019966858986123819 0.033542156820669716 0.15405196907025695 -0.31239235085230982 
-0.21366158986225212 0.27768917761519329 0 0 
0.091603045206920294 -0.048853555782282697 -0.21566529924195038 0.0051440425122385109 
-0.29367970519264419 0.32429379553801918 0 0 
-0.21366158986225212 0.21610705503858404 0 0 
0 0.047778232415468927 0 0 
0 0.047778232415468927 0 0 
0 0.047778232415468927 0 0 
0.014612991244374107 0.037061710372807477 0.16360859984926562 0.043616807594180247 
0 0.047778232415468927 0 0 
-0.051223304957692228 0.2473069574479998 -0.21860380348135325 -0.047664545118890553 
-0.10093122748067199 0.19959768130972039 -0.18526084751230851 -0.24619495075126097 
-0.087623919877396872 0.12786733874147213 -0.074631949802167141 -0.19669650426473645 
0 0.047778232415468927 0 0 
0.28662243071129734 -0.11052437657644174 -0.12440432300214552 -0.31567075371307951 
-0.084467769077585533 0.35558167226510673 -0.18383598586473643 -0.35862073384906179 
-0.048018768424556296 0.16198442984825631 -0.0037720778038388553 -0.060074182145646679 
0 0 0 0 
0 0 0 0 
0 0 0 0 
-1.7347234759768071e-18 -0.024683801524036073 0.10928730855799758 -0.053028423341339753 
0 0 0 0 
0.13401956576515103 0.12710795879107081 -0.23568521749257065 0.054147111684586594 
0 0 0 0 
-0.26319122146513757 0.37376899683689951 -0.10085660721969787 -0.11583243354105534 
0 0.014518825489709597 0 -0.014256854215672413 
0 0.014518825489709597 0 -0.014256854215672413 
0 0.014518825489709597 0 -0.014256854215672413 
-0.19340532134071917 0.016258712917076326 -0.18100392819599315 0.058512497351178111 
0 0.014518825489709597 0 -0.014256854215672413 
-0.36970604538253549 0.21662452773243049 -0.01344264977224529 0.26529871934315929 
0 0.014518825489709597 0 -0.014256854215672413 
0 0.014518825489709597 0 -0.014256854215672413 
-0.46616164415749939 0.44010984817303689 0.067769776130297291 -0.014256854215672413 
0 0.014518825489709597 0 -0.014256854215672413 
-0.12168894961478588 -0.080405230206203743 0 0.20517532313417633 
-0.082926306741959402 -0.23380341505146818 -0.045778513186313902 0.42141607897488947 
-0.23030676656164115 0.36550467242708196 -0.21628956827431203 0.038873321259247182 
0.027975657289641631 -0.11064604441361102 -0.043406965410462885 0.066938731254912689 
-0.12168894961478588 -0.080405230206203743 0 0.20517532313417633 
-0.17428055985125421 -0.23638311473586152 -0.13658276867774707 0.36996636060843002 
-0.08126802221353352 -0.081676545865324704 0.10965521926517006 0.039113694008118052 
-0.1540654368965679 -0.20669772571805176 0 0.44652526875927623 
-0.12168894961478588 -0.080405230206203743 0 0.20517532313417633 
-0.012571632893232805 0.093152266853796559 0 -0.10694061575673096 
-0.033416823099113105 0.20493416902080552 -0.022758118965675655 -0.13462679337277247 
-0.012571632893232805 0.093152266853796559 0 -0.10694061575673096 
-0.012571632893232805 0.093152266853796559 0 -0.10694061575673096 
-0.32897161635593708 0.47538422239125089 -0.16164096166170994 -0.30774188834380672 
-0.0008280324872519838 -0.22280243329292282 -0.44667454421318575 0.31522215642276163 
-0.012571632893232805 0.093152266853796559 0 -0.10694061575673096 
-0.012571632893232805 0.093152266853796559 0 -0.10694061575673096 
0 0.22028516767834594 -0.034282579140200303 -0.06023110728555045 
-0.10792062084078169 0.14224952551371078 -0.45662533307798209 0.0059155913910558062 
0 0.14619323031416936 -0.034282579140200303 -0.0010824419484979188 
0.20504590181141202 -0.13309410999522447 0.16272159585916895 -0.13389307064738443 
0 -0.074462134188208517 -0.084546246150121365 0.27320349673625138 
0 0.14619323031416936 -0.034282579140200303 -0.0010824419484979188 
0.030933531398269515 -0.097474810282529425 -0.079723897552785139 0.057190721568263117 
-0.34133244724505257 0.1808833661792574 0.030622708435320677 0.047141415115126012 
0 -0.10215095772628321 0.23485841238885086 -0.0010824419484979197 
-0.36513716717582029 0.24842868693384085 0.45026862237696569 -0.28337170763295538 
0.19024528568113289 0.14756256491675324 0.03221259537054029 -0.083417200012427251 
0 0.074239948594726782 0.096904188820754716 -0.0010824419484979171 
0.10787523633902721 -0.047144203858903541 -0.035937548628689336 0.06159360409800517 
0.012079830909816708 -0.031678621834256807 0 0 
0.31973891505929986 0.10115131371948347 -0.13914686377932009 -0.29756895397149902 
0.016958111187030542 -0.32812981407421193 -0.0070975791928109778 0.26896287845012307 
0.012079830909816708 -0.031678621834256807 0 0 
0.0023533000364841109 0.084830776659361562 -0.050289660599996386 -0.14311861826130617 
0.012079830909816708 -0.031678621834256807 0 0 
0.060330403886338049 -0.074581324364833487 0 -0.098808903980978538 
-0.20571939811159767 0.34433399636982787 0.11310410634795211 -0.32806307011039737 
0.060330403886338063 -0.074581324364833501 0 0 
-0.21118368708079852 -0.074581324364833501 0.25987455016469957 0 
0.060330403886338063 -0.074581324364833501 0 0 
0.25651590529115642 -0.22589522212796487 0.02643522997756817 -0.3835718071967249 
-0.14363276380107784 0 -0.0030108369652411386 0.17744532095279206 
-0.14363276380107784 1.0408340855860843e-17 -0.0030108369652411386 0.082435528395289615 
-0.043773533976032508 -0.057184481091661306 -0.0070352068709245014 0.13602452481615113 
-0.14363276380107784 0 -0.0030108369652411386 0.17744532095279206 
-0.14363276380107784 0 -0.0030108369652411386 0.17744532095279206 
-0.14363276380107784 0 -0.0030108369652411386 0.17744532095279206 
-0.14363276380107784 0 -0.0030108369652411386 0.17744532095279206 
0 0.028698567602226686 -0.023369514693482422 -0.075566369511038817 
-0.54843452129439652 -0.25406193399671695 0.47151656290773647 -0.27223775122367094 
-0.081451174151189132 0.29120879057454824 -0.17908383297940023 0.13513732291044175 
-0.18079261150031156 0.61121162849161714 -0.56922328924288323 -0.27633622645267214 
-0.14553873016018934 0.17506785520634077 -0.079170813033201393 -0.056532818437936158 
-0.024851985837594646 0.019437268724147343 -0.015232229780914781 -0.053775097798593414 
0 0.0014740094505259602 0 -0.047385963604695283 
0 0.0014740094505259602 0 -0.047385963604695283 
0.17599894561909646 -0.0081716852375415122 -0.14181970217831133 -0.2417584261224322 
0 0.0014740094505259602 0 -0.047385963604695283 
-0.056593131867478337 0.31330003378496579 -0.022072976306226767 -0.17585494491509426 
-0.13390013550069194 -0.11011823520247796 0.14248902038737543 0.020481802502879932 
-0.056593131867478337 0.31330003378496579 -0.022072976306226767 -0.17585494491509426 
-0.056593131867478337 0.31330003378496579 -0.022072976306226767 -0.17585494491509426 
0.12038345693277308 -0.12952372411650245 0 -0.035392190610911888 
0.12038345693277308 -0.12952372411650245 0 -0.035392190610911888 
0.29705168077973076 -0.09867614432272151 -0.029271495462617016 -0.18938884600939399 
0.12038345693277308 -0.12952372411650245 0 -0.035392190610911888 
0.12038345693277308 -0.12952372411650245 0 -0.035392190610911888 
0.12038345693277308 -0.12952372411650245 0 -0.035392190610911888 
-0.0096822027459362095 0.060181987910430543 0 -0.033060596893233457 
0.020765642379280847 -0.16238868907493903 0.18216748430792964 -0.0058359869586772934 
0.072825542974744223 0.01254100030525907 -0.013883610922670084 -0.29332999700363399 
0 0 0 0 
0.042659175702254803 0.13220802605020093 -0.013841794358902471 -0.07128683898997687 
0.30974250629535727 -0.49997363830413999 0.19234843654164968 -0.037933377652894014 
0.45737966167673222 -0.35056670590288186 -0.066174442173089376 -0.20324133365637512 
0.09114129460632274 -0.07138968347220534 -0.0014687112298191246 -0.031806274572200068 
0.18978222466035943 -0.077258574010318992 -0.058542182018471292 -0.1368133749875583 
0 0 0 0 
0 0 0 0 
0 0 0 0 
0 0 0 0 
0.20689751105437049 -0.085783442975301799 -5.4210108624275222e-19 -0.053057958852065386 
0.031647400446670484 0.068825563726759409 -0.045809105655193735 -0.11294655569862869 
0 0 0 0 
0 0 0 0 
0 0 0 0 
0 0 0 0 
-0.018261603597707933 -0.0093267156107509283 0.42403032265607715 -0.36722937730375388 
0.19012342809445337 -0.18136292675631288 0 -0.017563331945395007 
0.19012342809445337 -0.18136292675631288 -0.031378592265014014 -0.01756333194539501 
0.19012342809445337 -0.18136292675631288 0 -0.017563331945395007 
0.19012342809445337 -0.18136292675631288 0 -0.017563331945395007 
0.55626872851211651 -0.29993429588144577 -0.023284176270699172 -0.30857064257931649 
0.13574340864389278 -0.18136292675631288 0 0.092736117931393275 
0.19012342809445337 -0.18136292675631288 0 -0.017563331945395007 
0.10409545949209874 -0.12960479273777817 0 -0.0053785244133401468 
0.10409545949209874 -0.12960479273777817 0 -0.0053785244133401468 
0.10409545949209875 0.10892535111085816 -0.12053957953011993 -0.19015594838559319 
0.10409545949209874 -0.12960479273777817 0 -0.0053785244133401468 
0.10409545949209874 -0.12960479273777817 0 -0.0053785244133401468 
0.10409545949209874 -0.12960479273777817 0 -0.0053785244133401468 
0.10409545949209874 -0.12960479273777817 0 -0.0053785244133401468 
0.10409545949209874 -0.12960479273777817 0 -0.0053785244133401468 
-0.0041105211237492806 0.13119619495405896 0 -0.0057611687897517186 
-0.18272881563420187 0.22551886705297075 0.018877777571678356 0.026932187479024049 
-0.0041105211237492806 0.13119619495405896 0 -0.0057611687897517186 
-0.0041105211237492806 0.13119619495405896 0 -0.0057611687897517186 
-0.65607118942838671 0.013119498731681238 0.15158517773030927 0.06746983325439726 
0.011208559414532325 0.082677148836327263 -0.34548716823688935 0.18522018255970116 
-0.0041105211237492806 0.13119619495405896 0 -0.0057611687897517186 
-0.021234149020088491 0.19407997477426478 -0.027798780859316339 -0.09290525600525 
-0.20631459517161166 0.071244987126877046 0.13994098562799118 -0.047900661991212672 
0.33111517263187978 -0.015951442502762418 -0.16450734381576321 -0.089340383210971541 
0.13382645087609077 -0.58093254371697145 0.044152748118746268 -0.0089480221758729203 
-0.0041105211237492806 0.13119619495405896 0 -0.0057611687897517186 
0.012266502849840115 -0.16616094422957986 -0.10669923684231378 -0.075583318259714496 
-0.0041105211237492806 0.13119619495405896 0 -0.0057611687897517186 
-0.0041105211237492806 0.13119619495405896 0 -0.0057611687897517186 
-0.12437010596440068 0.20434010307834799 0 -0.041891711179056448 
-0.010382117959322312 0.19357816557850652 -0.040403507857187874 -0.041891711179056448 
-0.2610750507522564 0.10812335220049431 0 0.052936210806951906 
-0.12437010596440068 0.20434010307834799 0 -0.041891711179056448 
-0.63748017882310137 -0.011967843389028884 0.34243806220869061 0.12473023727346068 
-0.12437010596440068 0.20434010307834799 0 -0.041891711179056448 
0.088917315625594157 0.10911640936622836 -0.028712481947126247 -0.063809602642496285 
-0.12437010596440068 0.20434010307834799 0 -0.041891711179056448 
-0.12437010596440068 0.20434010307834799 0 -0.041891711179056448 
0 -0.07016045635215494 0.054909505402983699 0 
0 -0.34444264016238035 0.2899253857984514 -0.20618750811717348 
0.26286860833249398 -0.27849659047175457 0.054909505402983699 0 
0.2188808454675937 -0.2017441878037905 0.054909505402983699 0 
0 -0.07016045635215494 0.054909505402983699 0 
0 -0.07016045635215494 0.054909505402983699 0 
0 -0.07016045635215494 0.054909505402983699 0 
0 -0.07016045635215494 0.054909505402983699 0 
-0.0028406953585225808 -0.27036418005351548 -0.23887522510330203 0.51989843502246202 
0 -0.14168912848252843 -0.23887522510330203 0.33004021937727318 
0 -0.1032102764927304 -0.1071010486537026 0.1115145906894871 
-0.20982875817139379 0.0060827883976009942 0.33346174910810078 0.082282364938890254 
0 -0.14168912848252843 -0.23887522510330203 0.33004021937727318 
-0.32548064529582615 -0.063592764691050352 0.44918682390943587 -0.26120998786008404 
0 -0.12403994504979481 0.13268504377459689 -0.029115589080400375 
0 -0.12403994504979481 0.13973242416282944 -0.029115589080400375 
0.13465559321273435 -0.17868442685034852 0.10934356763809594 -0.073116453647863483 
0 -0.12403994504979481 0.13973242416282944 -0.029115589080400375 
-0.093475900046657207 0.056495476067293812 0.13973242416282944 -0.029115589080400375 
0.14787066184792244 -0.049380848235802861 0.058111531409099929 -0.029115589080400368 
0 -0.12403994504979481 0.13973242416282944 -0.029115589080400375 
0 -0.12403994504979481 0.13973242416282944 -0.029115589080400375 
-0.0037554516651698562 0.010170014317564147 -0.13437396579195895 -0.03403744206525753 
0.091616125101803045 -0.18783185182393602 0.10947798077761424 0.18300412934979265 
-0.50644514646152605 -0.0059862512302299165 0.2104215258456606 -0.029270791070205811 
0.13814212986664867 -0.091878034498544037 -0.19351874337962122 -0.11473023749547688 
-0.0037554516651698475 0.1376138859852534 -0.024242767218719524 0 
-0.53263231925458854 0.65604427152309841 -0.23040898095786866 -0.1706208856982222 
0.066188939278658251 0.13745637411906395 -0.11094041642866687 -0.064735935641540121 
-0.0037554516651698475 0.1376138859852534 -0.024242767218719524 0 
-0.0037554516651698475 0.1376138859852534 -0.024242767218719524 0 
0 -0.0042379344072005533 0 0.059748944894631555 
0 -0.025175524480377964 -0.012036795703133121 0.10981004912057551 
0 -0.0042379344072005533 0 0.059748944894631555 
-0.014082151921225923 -0.076008540739475619 0.10463636022264165 0.044225828780204618 
0 -0.0042379344072005533 0 0.059748944894631555 
0 -0.0042379344072005533 0 0.059748944894631555 
0 -0.0042379344072005533 0 0.059748944894631555 
0.026761876371734841 -0.13839933982072611 -0.21681602805421835 0.083948178766992454 
0.032818391659913695 0.20767318577352653 -0.15245768116750502 -0.20428694836824796 
-0.042480681106944633 -0.37474673790255386 0.066581475352855718 0.010482309169322161 
-0.029775697144723334 0.061148162373408504 -0.22471303369689496 0.19911637003612209 
0 0.30526538264708297 -0.17509821516695964 -0.079130228547398831 
0 0.30526538264708297 -0.17509821516695964 -0.079130228547398831 
-0.06373097535015447 -0.047084043630733374 -0.16871374576607132 -0.072885353210433837 
0 0.30526538264708297 -0.17509821516695964 -0.079130228547398831 
0.32294423498254288 -0.38535580812348458 -0.18390494601611809 0.093251477772782324 
-0.85041340364143347 -0.13433989419811024 0.76968196546692713 -0.15200883716899971 
-0.3296465567672468 0.10793512825149103 0.19273132984134028 0.13957043451308132 
-0.01308564162443257 0.068304234663947444 0 -0.024370816836062226 
0.13868093756693581 0.024770728587105162 0 -0.22224849185590442 
-0.01308564162443257 0.068304234663947444 0 -0.024370816836062226 
-0.01308564162443257 0.068304234663947444 0 -0.024370816836062226 
-0.01308564162443257 0.068304234663947444 0 -0.024370816836062226 
-0.01308564162443257 0.068304234663947444 0 -0.024370816836062226 
-0.01308564162443257 0.068304234663947444 0 -0.024370816836062226 
0.013075203473482117 0.092447009381005391 -0.12065216608799742 -0.03042065166276325 
0.12931275270296785 -0.045362807482478659 -0.10325495639428839 -0.068825269506351497 
-0.15494808370168836 0.29147466228979935 -0.019439763589122978 -0.092974273239706945 
-0.21699963657089658 0.14488215342639393 -0.15678698138680458 0.07579333978103385 
-0.042964129641940775 0.06776206165845082 0 -0.01177752919147061 
-0.042964129641940775 0.06776206165845082 0 -0.01177752919147061 
-0.042964129641940775 0.06776206165845082 0 -0.01177752919147061 
-0.042964129641940775 0.06776206165845082 0 -0.01177752919147061 
-0.042964129641940775 0.06776206165845082 0 -0.01177752919147061 
-0.027708511918141217 0.04690862642021653 0 0 
-0.058054391739335749 0.089150925850997834 0 0 
-0.074949791495137488 0.031602306600825476 0.28366772634797804 -0.16932351540899926 
-0.081132746898942884 -0.09887582575655901 0.29172587984905318 0.12636418536501448 
0.0057136471462748833 0.012563316131030351 -0.050641657672646889 -0.051088007788178263 
-0.058054391739335749 0.089150925850997834 0 0 
-0.085027871914167524 -0.13346334052229511 0.29288115986305668 -0.015497200023982641 
-0.31217722546157767 0.3547080519033019 0 0 
-0.31217722546157767 0.3547080519033019 0 0 
-0.19794099081386202 0.060159382587930223 -0.12293757373152792 -0.067136484823619669 
-0.31217722546157767 0.3547080519033019 0 0 
-0.31217722546157767 0.3547080519033019 0 0 
-0.23089725817720616 0.12115652036210491 0 0.30122540397583819 
-0.2078217954802174 -0.064285174946720675 0 0.44815262918344345 
-0.2078217954802174 -0.064285174946720675 0 0.44815262918344345 
-0.21308774991832041 0.079138023416653269 -0.013841794358902471 0.37686579019346678 
-0.2078217954802174 -0.064285174946720675 0 0.44815262918344345 
-0.39845646651373168 -0.025715052676679034 0.20753585242116726 0.23085305309279308 
0.3394643637287561 -0.17812527337966849 -0.34288514863548536 0.14021852266950813 
0.26065413953274913 0.058634909900341592 -0.4220331443595875 -0.56070363357614883 
-0.075245214259347701 0.0070660943921796934 0.093956782849158205 -0.15165039043620365 
0.17336530230691841 -0.38400166319285584 0.31640388189994728 -0.11902093803660045 
-0.020014714948022351 0.059240943502432281 0.10873064407075325 -0.044413252817246111 
-0.075245214259347701 -0.07787272965631134 0.19305837246981547 0 
-0.32005321345031623 -0.059715619414200519 0.56687492678896045 -0.19736422993770752 
-0.075245214259347701 -0.07787272965631134 0.19305837246981547 0 
-0.075245214259347701 -0.12762415974960953 0.28268125179597731 -0.11262451988040581 
-0.075245214259347701 -0.07787272965631134 0.19305837246981547 0 
-0.075245214259347701 -0.07787272965631134 0.19305837246981547 0 
-0.048299089230697118 0.050681237143582504 0 -0.016359887778800226 
-0.048299089230697118 0.050681237143582504 0 -0.016359887778800226 
-0.048299089230697118 0.050681237143582504 0 -0.016359887778800226 
0.23117486833956091 -0.10931820031424629 -0.11491659357308781 -0.030912776664603719 
-0.048299089230697118 0.050681237143582504 0 -0.016359887778800226 
-0.048299089230697118 0.050681237143582504 0 -0.016359887778800226 
-0.048299089230697118 0.050681237143582504 0 -0.016359887778800226 
-0.048299089230697118 0.050681237143582504 0 -0.016359887778800226 
-0.048299089230697118 0.050681237143582504 0 -0.016359887778800226 
0.23015163447028236 0.022814330778092459 -0.26881179186098275 -0.098477486520745131 
0.039340700305680529 -0.014832512475981271 -0.028280667093962028 -0.079005787079374487 
-0.33063186513038312 0.4847756167698955 0 -0.092624358910433358 
-0.20215005001214795 0.31017764962759681 0.10509059255098535 -0.057916843848956213 
-0.33063186513038312 0.4847756167698955 0 -0.092624358910433358 
0 -0.17008374825178785 -0.01700435227989051 0.21541380665982476 
0 -0.17008374825178785 -0.01700435227989051 0.21541380665982476 
0 -0.17008374825178785 -0.01700435227989051 0.21541380665982476 
0 -0.17008374825178785 -0.01700435227989051 0.21541380665982476 
-0.092658299377426021 -0.14453601977771463 -0.01700435227989051 0.21541380665982476 
0 -0.17008374825178785 -0.01700435227989051 0.21541380665982476 
-0.40563366803520573 0.22920190576300348 0.20890529332170446 0.11847527245123277 
0 -0.17008374825178785 -0.01700435227989051 0.21541380665982476 
-0.055885879695872769 -0.0032361092017604912 0.078723010410441899 -0.04899847736798553 
-0.42526436123932881 0.10868648635001549 -0.083813211498929341 0.2869684962764304 
-0.026869566151814323 0.034770363195157819 0 0 
-0.026869566151814323 0.034770363195157819 0 0 
-0.026869566151814323 0.034770363195157819 0 0 
-0.026869566151814323 0.034770363195157819 0 0 
-0.10082213108745515 0.17904939031211781 -0.023453823814148487 -0.078427767403970061 
0.10513000872229782 0.25527668120683566 -0.083465249574766989 -0.29606339514044339 
-0.026869566151814323 0.034770363195157819 0 0 
-0.026869566151814309 0.18487084853229135 0 -0.081008339607153548 
0.21132197272373321 -0.26850618849225383 -0.08605474780856523 0.10760541365414641 
-0.14336630989895605 -0.092346529941585043 -0.08605474780856523 0.23154390177223483 
-0.087221129530461822 -0.17552863056690426 -0.08605474780856523 0.2665033346829494 
-0.087221129530461822 -0.17552863056690426 -0.08605474780856523 0.2665033346829494 
-0.087221129530461822 -0.17552863056690426 -0.08605474780856523 0.2665033346829494 
-0.087221129530461822 -0.17552863056690426 -0.08605474780856523 0.2665033346829494 
0.093416651101216511 0 -0.069631978479719914 -0.038723718946706231 
-0.090785725656998939 -0.34858406593850577 0.57407551673438106 0.059679954354907604 
0.0094690914427009287 -0.024113839093094641 0.13260971447767944 -0.2892085415924418 
0.093416651101216511 0 -0.069631978479719914 -0.038723718946706231 
0.093416651101216511 0 -0.069631978479719914 -0.038723718946706231 
-0.30543694451695758 -0.1016419263156135 -0.34961153184064608 0.36656616800768743 
0.19252374459046998 -0.10092691924214674 0.032575322633470294 -0.19784311210110533 
0.025176857940235789 -0.02203936844618842 -0.15222317441867328 0.097019697015170853 
0.093416651101216511 0 -0.069631978479719914 -0.038723718946706231 
0.10346660953066504 -0.0084099221753251591 -0.069631978479719914 -0.048810413236809964 
0.093416651101216511 0 -0.069631978479719914 -0.038723718946706231 
-0.28659480763537515 0.16142497625386037 -0.017009858726363805 0.2577590674451577 
0.49513251226959254 -0.49253099846602855 -0.048338243611676449 -0.20736057626369137 
-0.46957494908787595 0.014719848018444361 0.24869895404804379 0.54635375680418874 
-0.10817954884555196 -0.087186270176783057 -0.012610860715434418 0.1984603310251746 
-0.10412027242062655 -0.22873924909754303 0.0098821490255796233 0.16289437220456515 
0.059597915642099306 -0.074592734749110171 -0.012610860715434418 0.079432036508987253 
-0.10817954884555196 -0.087186270176783057 -0.012610860715434418 0.1984603310251746 
-0.10817954884555196 -0.087186270176783057 -0.012610860715434418 0.1984603310251746 
-0.10817954884555196 -0.087186270176783057 -0.012610860715434418 0.1984603310251746 
-0.10817954884555196 -0.087186270176783057 -0.012610860715434418 0.1984603310251746 
-0.13155064031476715 0.1833081030404225 0 0 
-0.13155064031476715 0.1833081030404225 0 0 
-0.13155064031476715 0.1833081030404225 0 0 
0.13837941528361322 0.057879208632103579 -0.036223705648622775 -0.24485176247272647 
-0.13155064031476715 0.1833081030404225 0 0 
-0.014945672174795963 0.10216575269696462 -0.050560839643822374 -0.026885548733415573 
-0.17831068746281339 0.17996975512586549 0.077606677867682675 0.086239228689393738 
-0.13155064031476715 0.1833081030404225 0 0 
-0.13155064031476715 0.1833081030404225 0 0 
0 -0.18600692220137485 0 0.17294242283394043 
0 -0.18600692220137485 0 0.17294242283394043 
-0.084766687930594345 -0.13199193890151986 0.13715470540395827 -0.017422867160042106 
0 -0.18600692220137485 0 0.17294242283394043 
0 -0.18600692220137485 0 0.17294242283394043 
-0.13978877363562908 -0.025868759832656102 -0.11916856301572341 0.28439580690568922 
0.042229242568990646 -0.19751827334847152 -0.037461596380686128 0.17294242283394043 
-0.01654324377939307 0.0027411440599449562 -0.063560142216430637 -0.052277819248959023 
0 -0.18600692220137485 0 0.17294242283394043 
-0.24868144072488418 0.4228140395197526 -0.043081628492439766 -0.21984263167763524 
-0.24868144072488427 0.067304183090635447 -0.082230798627153046 0.063082340743234253 
-0.17988966864763437 0.14553460861441145 -0.020869036986145877 0.072359853620479656 
-0.039870210947483664 -0.069111477344200423 -0.056583478086008422 0.026894040171534503 
-0.19119450951408243 -0.061449964426757056 0.17282758893794892 0.0066370964692962307 
0 -0.28763002666729481 0 0.089255838141580876 
-0.19170152109664285 -0.062101819764090141 0 0.089255838141580862 
-0.39937798722696194 -0.051522646416071273 0.35064689054550113 0.050787065745417061 
0 -0.28763002666729481 0 0.089255838141580876 
0.12586310211811802 -0.08298658274292503 0 0.10554999543297122 
0.16545318055498531 -0.04991455249658739 0 -0.088591304773589785 
-0.025606272909279706 0.13122966390283997 0.13372813574102235 -0.12813114734015313 
0.14037439171541333 -0.36074887721913951 0.27824403384816293 0.0083105283298448157 
0.16545318055498531 -0.04991455249658739 0 -0.088591304773589785 
0.16545318055498531 -0.04991455249658739 0 -0.088591304773589785 
0.16545318055498531 -0.04991455249658739 0 -0.088591304773589785 
0.16545318055498531 -0.04991455249658739 0 -0.088591304773589785 
0.17321379972316794 -0.25146900875365841 0 -0.020394727941705396 
0.17321379972316794 -0.25146900875365841 0 -0.020394727941705396 
0.17321379972316794 -0.25146900875365841 0 -0.020394727941705396 
0.078312768695817436 -0.10907840240065443 -0.022758118965675655 -0.048080905557746953 
0.17321379972316794 -0.25146900875365841 0 -0.020394727941705396 
-0.087234194656511249 0.22649548687206431 -0.0044085033822312963 -0.11714281362855697 
0.049756199599893747 0.15269299941346304 -0.0044085033822312981 -0.19294614020537765 
-0.015101851227235502 0.0012729910813176395 -0.10355238666317389 -0.029163801890343025 
0.057753758932880442 0.27777410251775952 -0.0048767140239118628 -0.22878469348984187 
0.09583866793255412 -0.39277682505901329 0.21250018115981295 0.027401879880218409 
-0.1708549860510428 0.19823084227391591 -0.064480408653791621 0.016028885987935969 
-0.087234194656511249 0.15226340784181522 0.12268870977655234 -0.11714281362855697 
0.27422324526957143 -0.29421541254065853 -0.058218677312477554 0.10157615968636373 
-0.087234194656511249 0.22649548687206431 -0.0044085033822312963 -0.11714281362855697 
-0.10944123603624371 0.44852236484466756 -0.01357086121545837 -0.11714281362855693 
-0.43202868001118999 -0.018672635643180821 -0.27422380190736495 0.59461851265272703 
0.41894230278828076 -0.20671706666883294 -0.15719163231952249 -0.32695104595750657 
-0.039608679771963813 0.10830961486349858 -0.18979716274439701 0.045782789729201322 
0.089303670619068881 0.17133230800578073 -0.17117518797575551 -0.11095793901047994 
-0.093475900046657193 0.18053542111708862 0 0 
-0.093475900046657193 0.18053542111708862 0 0 
-0.093475900046657193 0.18053542111708862 0 0 
-0.098138945805176001 0.067954892730049177 0 0 
0.18109147082642707 0.12510187977258508 0.027521776847313294 -0.095431681639860405 
-0.098138945805176001 0.067954892730049177 0 0 
-0.098138945805176001 0.067954892730049177 0 0 
-0.098138945805176001 0.067954892730049177 0 0 
-0.098138945805176001 0.067954892730049177 0 0 
-0.098138945805176001 0.067954892730049177 0 0 
-0.098138945805176001 0.067954892730049177 0 0 
-0.098138945805176001 0.067954892730049177 0 0 
-0.098138945805176001 0.067954892730049177 0 0 
-0.19898548566973165 0.27957645178302037 -0.01445073049676333 0 
-0.19898548566973165 0.27957645178302037 -0.01445073049676333 0 
0.016988083718578892 -0.062911163552151927 -0.014450730496763332 0 
-0.19898548566973165 0.27957645178302037 -0.01445073049676333 0 
-0.19898548566973165 0.27957645178302037 -0.01445073049676333 0 
-0.18911643770271702 0.069637828663596357 -0.22363096242731761 0.072594971604919872 
-0.19898548566973165 0.27957645178302037 -0.01445073049676333 0 
-0.027399758067817501 0.11296452837800197 0 0 
-0.027399758067817501 0.11296452837800197 0 0 
-0.11262370765137994 0.14984568999330225 0 -0.023584006874821824 
-0.027399758067817501 0.11296452837800197 0 0 
-0.068477962195383463 0.13076335504299472 -0.02343911322282799 -0.1824349233535085 
-0.027399758067817501 0.11296452837800197 0 0 
-0.027399758067817501 0.11296452837800197 0 0 
0.023952867083442159 0.029043658801673075 -0.166018243242855 0.092988294488901863 
-0.046351699549795657 0.067735372684938011 0.13096443383209255 -0.021873902092319267 
0.18632805432501431 -0.37764831679989008 -0.56235087471247491 0.18296097657701954 
0.15817988119105994 -0.083973255585369985 0 -0.063668658757343302 
0.15817988119105994 -0.083973255585369985 0 -0.063668658757343302 
0.15817988119105994 -0.083973255585369985 0 -0.063668658757343302 
0.15817988119105994 -0.083973255585369985 0 -0.063668658757343302 
0.059967327938431077 -0.22567619729753555 0.069798120982957679 -0.032226821666371551 
0.39384368167308759 -0.33844629229086376 -0.011728350590189299 -0.068631015142620613 
0.097727057222029443 0 -0.011728350590189299 0 
-0.3098104472006119 -0.42387889831330816 0.70896075987227336 -0.4372745031455656 
0.097727057222029443 0 -0.011728350590189299 0 
-0.30124648738663506 -0.4587896628867999 0.49381209055485092 -0.42178583938001979 
0.24316014676751907 -0.090800413613296299 -0.011728350590189299 0 
0.097727057222029443 0 -0.011728350590189299 0 
0.097727057222029443 0 -0.011728350590189299 0 
0.33169389923940235 -0.3384462922908637 -0.06323542447356531 -0.070611709454687671 
-0.067891901702143195 0.0062753197896737792 -0.026069474432956961 -0.099290704457123652 
0.29611662445105807 -0.3384462922908637 0 -0.068631015142620613 
-0.060609865685408361 0.12889201509418999 0 -0.030438371625521744 
-0.060609865685408361 0.12889201509418999 0 -0.030438371625521744 
-0.15434214852658254 0.017618108724214453 -0.020238445729744585 0.10507278507839474 
0.11185552702137093 -0.06935652818504856 -0.034961159981926913 -0.076771646125646173 
-0.060609865685408361 0.12889201509418996 0 -0.030438371625521744 
-0.060609865685408361 0.12889201509418999 0 -0.030438371625521744 
-0.32430978263746474 -0.069509948188217568 0.035389012520500279 0.16552582074834449 
-0.060609865685408347 0.28196095753177008 -0.011179120459315855 -0.1680561096901087 
-0.060609865685408361 0.12889201509418999 0 -0.030438371625521744 
-0.060609865685408361 0.12889201509418999 0 -0.030438371625521744 
-0.060609865685408361 0.12889201509418999 0 -0.030438371625521744 
-0.060609865685408361 0.12889201509418999 0 -0.030438371625521744 
-0.049265845187006371 -0.085868895061896933 0.33699169431464121 0 
-0.049265845187006371 -0.085868895061896933 0.33699169431464121 0 
-0.049265845187006371 -0.085868895061896933 0.33699169431464121 0 
-0.049265845187006371 -0.085868895061896933 0.33699169431464121 0 
-0.049265845187006371 -0.085868895061896933 0.33699169431464121 0 
-0.049265845187006371 -0.085868895061896933 0.33699169431464121 0 
-0.049265845187006371 -0.085868895061896933 0.33699169431464121 0 
-0.037886011399796082 0.057466131492050876 -0.067030713306839768 -0.022377861800348148 
0.07921920275349377 -0.039701348554988421 -0.011329078579308264 0 
-0.011035676416255118 0.096080876750508637 -0.011329078579308267 -0.013370190771947992 
-0.034385849667122353 -0.080119166220119775 0.056246541632470982 0 
0 0.01179640474345813 -0.011329078579308264 0 
0.14913952175441905 -0.18545760400994218 -0.083475816481418788 0 
0 0.01179640474345813 -0.011329078579308264 0 
-0.45261566791713997 0.47001212370887835 0.19226514798157551 -0.14512248802683561 
0 0.01179640474345813 -0.011329078579308264 0 
0 0.01179640474345813 -0.011329078579308264 0 
-0.10709494940166023 -0.14776094580219606 0 0.1445954333175252 
-0.10709494940166023 -0.14776094580219606 0 0.1445954333175252 
-0.06177433992458161 -0.42417210225468727 0.031513252410660025 0.1763995908594613 
-0.10709494940166023 -0.14776094580219606 0 0.1445954333175252 
-0.30378616185687962 0.044561682535539868 -0.1861397879050202 0.21465534063831138 
-0.21766469623870804 0.1310136795897362 -0.067918463372317939 0.08641583133813667 
-0.10709494940166023 -0.14776094580219606 0 0.1445954333175252 
0.030610761030443204 -0.01316843552086517 0 0 
-0.02644377921514179 -0.24876221954042679 -0.33344617150622663 0.41841275768383102 
0.030610761030443204 0.096452856767711453 -0.020652783466166745 -0.11688007605734042 
-0.11038304265577301 0.036684640594190972 0.095435986586798943 -0.22079081625243241 
0.030610761030443204 -0.01316843552086517 0 0 
-0.036489184161812516 -0.16655126841682041 0 0.18167187184333139 
0.29585022807218048 -0.24830767862526576 -0.077732186245502682 -0.12664210777374474 
0.030610761030443204 -0.01316843552086517 0 0 
0.030610761030443204 -0.01316843552086517 0 0 
-0.0072224349610081826 -0.096582382420444285 -0.51848333308896821 0.18947005000817893 
0 0.17226405779739903 0 -0.079984860204050351 
0 0.045529623336841504 0 -0.079984860204050351 
0 0.045529623336841504 0 -0.079984860204050351 
0 0.045529623336841504 0 -0.079984860204050351 
0 0.045529623336841504 0 -0.079984860204050351 
0 0.045529623336841504 0 -0.079984860204050351 
