solver_type L2R_L2LOSS_SVC_DUAL
nr_class 4
label 0 3 1 2
nr_feature 90485
bias -1
w
0 -0.70957039819442491 0 0 
0 0.25207678990671462 0 0 
0.33958548105041725 -0.21107772030887698 0 0 
0 0 0 0 
-0.23924002578672471 0 0.32310366225482146 -0.020084907331656323 
-0.087414950554703108 0.75183824291352941 0 0 
0.12637359294330242 -0.2142731407741521 -0.076287498546374607 0 
0 0 0.44974034035863775 -0.21691703177026758 
0 0 0 -0.076020292823049757 
0.13136875905706785 0.26512011671893104 -0.34671270421514139 -0.25073824481778839 
0 0.069020452099540913 -0.0074653529907567403 -0.09954677298262847 
0 -0.19764943166878374 -0.04136364443855102 0.37329111594381459 
0 0 -0.69063421703455574 0.44333042215277862 
-0.1553192923208587 -0.53362656825376742 0.72545203500019873 -0.32214982815069093 
0.1211809705909704 -0.18969147191673413 -0.074181764636031183 -0.21930154954819198 
-0.00068455352389613358 0.07748035196755626 0 0 
-0.13354528547222944 0 -0.10328853751838471 0 
-0.34566053649823042 0.26614346317621707 -0.24916713628126222 -0.11911360008090867 
-1.4382157083395675 -0.072400180430869515 0.76352875087714334 0.15182263170235871 
0 0.16213637017688118 -0.39699525084270554 -0.019397532912659696 
0 0 0 0 
0 0 -0.15296554446616306 -0.032587747091040814 
0.31427678383946583 -0.39861509140331342 0.13158472998407397 0.12330690736413488 
0 0 0 0 
0.69538894699141685 0.63176418318105432 -0.59338127303901933 -1.493981989874924 
0 0.24596639466145581 0 -0.083088832899841272 
0 0 0 0 
0 0 0 0 
0 0 0 0 
0 0 0 0 
7.8062556418956319e-18 -8.2833045977892539e-17 -0.0477747419150506 -0.022903978933241666 
0 0 0 -0.18908177989181935 
-0.016017380447312182 0.22709331220950627 -0.101721944678863 -0.095478120095254637 
0.64281825909104662 -0.55658197437554824 0 0 
0 0.62873781641207116 0 -0.13791247714084534 
0 0.14970488552514996 0 0 
0.11580072894226053 0 -0.0033782634340676809 -0.29464936054961349 
0.31438307717557834 -0.35715778150465038 0 0 
0 0 0 0 
-0.011918500185385175 0 -0.0070565298677699589 0 
-0.24125593359120204 0 0 -0.29701060466492613 
0 0 0 0 
0 0 0 0 
0 0 0 0 
0 0 -0.0007577315745485564 0 
0 0 0 0 
0 0 0 0 
0 0 0 0 
0.2502175222790286 -0.1764586840768044 -0.093266309524747251 0.094047959693758038 
0.44408035760194581 -0.6042714353390175 0.078385724596739925 -0.13198354813867219 
0 0 0 0 
0 0.18626750770736275 0 -0.2034166859132584 
0 0.16568105463585839 0 -0.92639337546020073 
-5.2041704279304213e-18 0 -0.10060259460611859 -0.06454520446131784 
0 0 0 0 
0 0 0 0 
0 0 0 0 
0 0 0 0 
0.20840405197457212 0.1937406428601493 1.1926223897340549e-17 0.08854721624533253 
0.21790674886793815 -0.40517963276554569 0.31772092366819821 0 
0 0 0 0 
0 0 0 0 
0.7926433213856181 0 0 0 
-0.058291210679237052 0.20152780596522321 -0.21514810735421502 0 
0 0 0 0 
0.024122387039358477 0 0.309788049309138 -0.02632562700010297 
0 0 0 0 
-0.39993099353323919 0.19431328525342326 0.2943173406963277 0.02601609235472712 
-0.17351664673138256 0.31537583693239724 -0.17465057178574581 0.047333529000049612 
-0.023825611915866698 0.10584603772242393 -0.0074123762754711433 -0.03321415410710897 
0 0 0 0 
0 0 0 0 
0 0 0 0 
-0.06078499851976752 0.22726092179160765 -0.39734530995249351 0 
0 0 0 0 
-0.095935577391155255 1.7347234759768071e-18 0.2745633673539834 -1.7347234759768071e-18 
-0.014328070463715072 0 0 -0.05412386238204811 
0.20087412868757604 -0.15988605978480458 -0.32002030222216171 0.24327982116043284 
-0.017340130586391278 0.21894101994766005 -0.11306640719718145 -0.046927950381139179 
0.25821020527188976 0 -0.15997724047630449 0 
-0.1007801050513374 0.056487572764240601 -0.11506507238011618 0 
0 0 0 0 
0 0 0 0 
0 0 0 0 
0 0 0 0 
0 0 0 0 
0 0 0 0 
0 0.21549154706221216 -0.23061040597922144 0 
0.34695858705215321 -0.75307544069634702 -0.041841603416592724 0 
0 -0.14937049961694701 0.31131077225397885 0 
-1.3877787807814457e-17 0 0 0.29678250565107833 
0 0.019379547244979541 -0.014291406443432325 0 
0 0 0 0 
0 -0.32535293317122432 0.098909895455921867 0 
0 0 -0.16937993806798723 0.31969614738002078 
0 -0.0089774026731147 0 0.10787678070474208 
0 0 -0.21199087425766713 0 
0 0 -0.083506024421210634 0 
0 0 0 0 
0.14060076130517235 -0.38836634071665826 -0.29792077877350481 0.39245626633300418 
-0.17458829594356992 -0.16136916863056838 0.25520732382147859 -6.9388939039072284e-18 
0 0 0 0 
0.077601232476448428 -0.057829224737263249 -0.010842188785758858 -0.053214798452969399 
1.0070248442249135 -0.019785168845579126 -0.1828029963362203 -0.11011941981692283 
0 0 0 0 
0 -0.22333970875950221 -0.081424476922923872 0.20014130022854365 
0.1134403000453508 0.030671590552730971 -0.11286210270196646 0.14077144170061132 
0 0 0 0 
0 0.1373038948753405 0 -0.15677913461225021 
0 0.18360624236328213 0 -0.37498620232965746 
-0.11650379860089004 0.035780621668434487 -0.30646403486596302 0.41512662260775213 
0 0 1.0481352496644349 -0.11099487226969684 
0.29039823209623855 0.22731244950495527 0.28664680002329512 0.088655875353638988 
0 -0.48789889779605311 0.64555686355416153 0 
-0.22037550006382453 0 0 0 
0 -0.19548631955096293 0 0 
0 0 0 0 
0 0 0 0 
0 -0.1271562348880719 0 0 
0.25762922987247489 -0.13775727471420252 0 -0.041539642417146319 
0 0 0 0 
0.12851812666459958 -0.038800101099562057 0 -0.071208617608383373 
-0.02615177379308015 -0.18615532886100555 0.14860555908579526 0.18417673785475377 
0 0 0.31891601251915164 -0.32169254806998898 
-0.11768070074144939 0 0.1084116446973757 0 
-0.01506335356050548 -0.088378324289946131 -0.41925711020964357 0.47943386448263781 
0 0 0 0 
-0.76775410138686428 1.0834558339759648 -0.25640337265734636 -0.38197943615424451 
0 0 0 0 
0 0 0 0.12864484242121413 
0 0 -0.065791810080608276 0.29705605626161485 
-0.19694316586330324 0.2177871328322061 0 0 
0 0 0 0 
-0.023174014021484925 0.28592479067573534 -0.20930796611055105 -0.10089266971818781 
0 0 0 0 
0 0 -0.16217195511170268 0 
-0.19195754981646909 0.14950426969711161 0 0 
0.10172670202545986 0.34001321980946597 -0.17133195691625069 1.0842021724855044e-18 
0.27571757970376831 -0.47039644845748074 0 0 
0 0 0 0 
0.53223903587603227 0 -0.060539563260395224 0 
6.9388939039072284e-18 0.20704811813763735 0 -0.29845767560045883 
0 0 0 0 
0 0.17590053517770479 0 0 
-0.095773261394148282 0.052349124901373667 0 0 
-0.050284180891320474 -0.11627657013764217 -0.047937199576162298 0.18770279322899747 
0 0.40751755466191014 0 -0.37682485094942664 
0.30724038479305721 -0.27558533692367632 -0.27398491931744834 0.39850411707470151 
0.21010570393263595 -0.12956743465471152 -0.12322994166512363 -0.22355119327099793 
0 0 -0.29502190092834318 0.22167073334731524 
-0.11945502132803786 0.092847266059357933 -0.72436597809294767 0.12369854217908142 
0 0 0 0 
0 0 0 0 
0 0 0 0 
0.046704584364735187 -0.044277144719444134 0 0 
0 0 0 0 
0.15483858359976418 -0.23248813989431966 0 0 
0 0.38069531675088653 0 -0.27986252181372678 
0.10036543175128863 -0.39642264664391663 -0.37629830816013032 0.41690907930629306 
0 0 0 0 
-0.5768330835598785 0 0.59228335067828164 -0.10506626886420679 
0 0.16958254578838383 0 -0.43788743025856253 
-0.053082797844552498 0.43039595223156152 -0.16789887966771186 -0.097040300826844006 
0 0 0 0 
0 0 0 0 
0 0 0 0 
0 0 0 0 
0.18995978417060891 0 0 0 
-0.19432034626725164 0.18837290677411411 -0.039194907044355569 -0.083318057486525016 
0 0 0 0 
0 0 0 0.5010128470152343 
0.0032296160657564158 -0.57769674592143128 6.9388939039072284e-18 0.50381242943838389 
2.4286128663675299e-17 -0.035983104688156159 0 0 
0 0 0 0 
0 0 0 0 
0.30765884185323522 -0.083219267719762791 0.25360367259050864 -0.18969954120820101 
0 0 0 0 
0 0 0 0 
0 -0.6786337887603614 0.20011816820109993 0 
-0.046020006906565256 1.3877787807814457e-17 -0.23275482847265877 -0.13942035607411202 
-0.071396565338828502 0 0 0 
0 -1.0124574658314103 0 2.2551405187698492e-17 
0 0 0 0 
-0.31422496322571036 0.27092917680752671 -0.61656091718796013 -0.34279172983457717 
0 0 0 0 
0 0 0 0 
0 -0.13017322927954494 0.0095139396859127475 0 
-0.42854597451659088 0.13677188606111967 -0.18426913665871214 0 
0 0 0 0 
0 0 0 0 
0 0 0 0 
0 0 0 0 
0.50648156934646038 -0.60315888734966094 0 -0.019518216262361342 
0.029673731331994246 -0.66017880592429512 0.31609373184381329 -0.31435280662304027 
-0.42643539535084812 -0.29747793654204902 0.59803958624497544 0.084494039639853483 
-0.096064803167517296 0.079202639456769808 0 -0.091496329187519598 
0 0 0 0 
0.097354238583561153 -0.062699246727359603 3.4694469519536142e-18 -0.037753949740826846 
0 0 0 0 
0.6265256251099437 -0.22210195284797274 -0.029022784904311781 -0.011034684611726431 
0 0.70814594611747728 -0.20480010851999533 -0.14119462992591375 
-0.23079607863473953 0.37117056699332684 -0.38525247971211696 0.28994221842609891 
0 0 0 0 
0 0 -8.6736173798840355e-19 0 
0 0 0 -0.032157294219528523 
0 0 0 0 
0 0 0 0 
0.062408084273098491 -0.28447351338317561 0.11896845700595847 0 
0.34942460742184467 -0.23747108714199666 0 -0.034937753219795538 
0.31121464701486462 -0.88520843714930941 -0.023153656997450981 0.27747776861002083 
-0.090604500335043692 -0.053126146563345841 0.25989044013147716 0 
-0.33928139686434361 0.071924720205421719 0 0 
0 -0.043649273438245137 0 0 
0.090241777210518959 0 -0.17840615952254513 7.1557343384043293e-18 
0 0 0 0 
-0.55618407743321496 -0.58938793777826448 0.90307657055392099 -0.11323180263625236 
-0.024870687497131148 0.15130143939064014 -0.021881941577671815 0 
0 0 -0.64021332963367161 0 
0 0.15873092276339454 -0.20470765846735978 0 
0 0 0 0 
0 0 0 0.20032910048670985 
0 0 0 0 
0 0 0.073578745880195723 -0.0140714337090336 
-0.33494611760214366 0.28120155716216505 -0.078638452387130714 0.029880985677463889 
-0.078115537156544734 0.0020230908148870866 -0.2004998462954575 0.045750472970644628 
0 0 -3.2526065174565133e-17 0.18501330078955663 
0 0 0 0 
0 0 -0.42985202726739863 0.12368217717815048 
0 0 0 1.0587975414915087 
0.25029051214538334 -1.2047416363858421 -0.58842347695537023 1.0324816400399062 
-0.33824925372335291 -0.35183270328775551 0.59201613378355855 -0.15221671289435038 
-0.28584901643103594 -0.059084314651336983 1.0745118144434944 -0.50548853447657904 
-0.22296219895750105 0.093280347660832263 0.21012914889417045 -0.30426316782368745 
1.7536970139953034e-17 3.3068166260807885e-18 -0.52285970488302802 0.78337595989809117 
0.083844993117118446 0 -0.14782097624052709 0 
0 0 0 0 
-0.0097804252405194383 0 0 0.33061800283110226 
0 0 -0.14457610577039071 0.18926227788472869 
0.35729906310194087 -0.083360711850080371 0 -0.090957299822177429 
-0.17757593061635127 0.26212098542531759 0 -0.064402794917659476 
0 0 0 -0.038786401338820595 
0 0.021286951333432547 -0.3255145972747594 0.12379643446017785 
0 0 0 -0.17199500963883779 
0 0 0 0 
0 0 0 0 
0 0 0 -0.010691833224529974 
0 0 0 0 
0.5942435113984994 0 -0.040642928939753159 -0.13298818164443177 
-0.062880853241512352 -0.99366383236600853 0.18607593849553744 0.194799638763863 
0 0 0 0 
-0.20517189314293352 0.15212943039309298 0 0 
1.8298285060635509 -1.9727088842854092 -3.2959746043559335e-17 3.4694469519536142e-18 
0 0 0 -0.46503470119093793 
-0.049248327861100949 0.062555584334677214 -0.050313987098853735 -0.056857639556793418 
0 0 0 0 
0.149765443854143 4.3368086899420177e-19 0 0 
0 0 0 0 
0 0.64562190340983017 -0.42851428953566473 0 
0 0 0 0 
-0.052709745095326388 0.071773040322005072 -0.081393353634222745 -0.20899485601313117 
0 0 0.099985884071000453 0 
-0.036028401332165436 -0.599022914324435 0.64863284043339708 -0.10332277138421748 
0 0 0 0 
0 0 -0.17793042539567461 0.1745108792130815 
0 0 0 0 
-0.017741023325753402 -1.7347234759768071e-18 0 0 
0 0 0 0 
-0.1258589393340751 0.26315681503642818 -0.05124592435939946 0 
0 0 0 0 
-0.029982655966829943 -0.051555585758872952 0 0.068758354336000804 
-0.33483854174918443 0.85612856895827671 -0.36555736565938224 -0.31116965538238361 
0 0 0 0.45563299807914759 
0 0 -0.40648365491252392 0 
0.12249108027097026 -0.62396724467692233 0 0 
0 0 0 0 
0 0 0 0 
0.26245607024043677 -0.17892845527060203 -0.056583596667846174 -0.06823038995211031 
0 0 0 0 
-0.40195522612026879 0.28287985753752176 0.39916718070919122 -0.14132845887540618 
0 0.062368510156190819 0 0 
-0.24704247815535707 0.36502044449472931 -0.459162247848315 -0.32438815493808559 
0 0 0 0 
0 0 0 -0.19430397842742769 
-0.28874545374660254 1.1872256426295746 -0.30664809641027857 -0.4489224473499519 
0 0 0 0 
-0.093265662909717051 -0.045789721053190617 0.14522464489299497 -0.20401014674201792 
-0.10965026032525151 0 0 0 
0 0 0 0 
0 0 0.36037727026760225 -0.092491167255369711 
0 0 0 0 
0 -0.079559413203477286 0 0 
0.0039745082252854828 0 -0.11352181909587937 -0.032666405315553072 
-0.50434175059649944 0 0.40464433674978317 0 
0 0 0 0.044508864967794375 
-0.091177140589876166 -0.050050151473056095 0.093543380489594513 -0.043842248030355829 
0 -0.11982491583873627 -0.0042051628046412617 0.41017989497970603 
0 0 -0.67930153108969782 0.24577749255871023 
0 0 0 0 
0 0 0 -0.08628272614322989 
0 0 0 0 
0 0 0 0 
0 0 0 0 
-0.22026668057339938 -0.21099819903048078 0 0.31438985835524746 
0 0 0 0 
0 0 0 0 
-0.027790309319201949 0 -0.096940466454297311 0.020378337834517268 
0 0.26081042659055492 0 -0.076545753434898958 
0 0 0 0 
0 0 0 0 
0 0 0 0 
0 0.5812135482637073 0 -0.19213539766398152 
-0.084784627252793787 -0.39434581050451784 -0.032379753981744842 0.40830016421553605 
0 0 -0.15189531232762482 0 
0.63265376567151543 -1.2918520204448962 0 0 
0 0 0.25587289919811601 -0.32927937485171244 
0.39599828394222963 0 -0.31977629232915988 -0.13493303328365591 
0.074090438229338723 0 0 -0.35046486757565876 
-0.042582442887318744 -0.41351391861169717 0.69226561809370168 1.5178830414797062e-18 
0 0 0 0 
0 0 0 0 
0 0 0 0 
0 0 0 0 
0 0 0 0 
0 0.24153270460348908 -0.19350845398065278 -0.21285590615291811 
0 0 -0.10673454146000774 0 
0 0 -0.31019227070399796 0.24530633155237555 
0.28782618779832597 -0.0095817627797125694 -0.32704021911014935 -0.28461941442390659 
0 0.24320309817601668 -0.1805571093668043 0 
0 0 0 0 
0 0 0 0 
0 0 0 0 
0 0 0 0 
-0.043999721204479626 0 -0.020696911668319273 0 
0 0 0 0 
0 0 0 0 
0 -3.4694469519536142e-18 0 -3.903127820947816e-18 
0.071794886934924806 -6.9388939039072284e-18 0 -0.21916038551727024 
0 0 0 0 
0 0 0 0 
0 0 -0.037070303475870148 0 
0 0 0 0 
-0.30334265427890267 0.16203532467699067 0 0 
0 0 0 0 
0 0 0 0 
0 0 0 0 
0 0 0 0 
-0.26585886067365078 0.35322834059483332 -0.17800106464554724 -0.4067303829136642 
-0.15981145353735568 0.13417185092658587 0 0 
0.15479353950975966 0 0 0 
0 -1.0281377806555483 0.61298348005497505 0 
-0.20006290789468878 1.3010426069826053e-18 0.077528959161433125 0.10407907352247195 
0 0 -0.0058199950206091451 0 
0 -0.54855293617755918 -0.27410745822249205 0.47356539106348372 
0 0 0 0 
0 -0.0060937446303812081 0 0 
-0.1364502372052202 0.24529306905839604 -0.39209746308546195 -0.25559433934499143 
-0.18302896351503228 0.24270324603216215 0.025729652689145462 -0.31983327990280452 
0 0 0 0.0089860802385420616 
-0.43811748691793007 0.65019960860665915 -0.040810748840768241 -0.020953051436045287 
0.16152374004860307 0 0 0 
0 0 0 0 
0 0 0 0 
-0.1284700586891262 0 0.34281289075693494 -0.55793816993047951 
-0.34749355532331266 0.7061886121258818 0.30796052796959134 -0.26534957626060529 
0 0 0 0 
-0.230382996209718 0 0.46959139342838169 -0.20120081161914438 
0 0 -0.17756349483866518 0.19289981039048371 
0 0.85657364530247715 0 0 
0 0 0 0 
0 0 0 0 
-0.059327685669128549 0.29034703107060439 0 0 
-0.46811958732752851 0.91886106614658425 -0.1349545880375792 -0.28473553447718025 
0 0 1.7347234759768071e-18 0 
-0.27202631023710272 0.7317036959259573 -0.10134317166041214 -0.4202527862675583 
0 0 0 0 
0.12914242893328409 0 3.4694469519536142e-18 -0.22231997945973239 
0 0 0 0 
-0.63870295021641754 0.9268429228603251 -0.21635720577002812 -0.27280845147050403 
-0.03136362176792018 -0.12699749242265096 0.22013493351784341 0 
0 0 0 0 
-0.49421871153061642 1.948235535551013 -0.33955474896450477 -1.9119642670567398 
0 0 -0.550037332894868 0 
0 0 0.26857606076640761 -0.26656352884926565 
-2.2619958059960954 -1.06466734008243 0.18618111685672634 1.612535396344944 
-0.17958705803256281 0 0 0 
-0.2679165237398306 0.30924575465949111 0.049447569601357114 -0.4297192040784078 
0 0.56234305556846653 0 -0.33890182621891818 
0 0 0 0 
0.28715208792533381 0 -0.47823303973436238 -0.15430839102602883 
0.0071785921432480845 -0.017485425906957557 -0.21051617920915922 -0.019905710255970013 
0 0 0 0 
0 0 0 0 
0.036420708600042956 -0.37849063021109419 0 0 
0 0 0 0 
0 0 0 0 
0.19194974278879687 -0.60279808351077846 0 0 
0 0.32790364319934351 -0.29185430940427171 0 
0 0 0 0 
0 0 0 0 
0 0 0 0 
-0.26700809919492591 0.19578825975988884 0 0 
0.53375572970062479 -1.0160541542000867 0 0 
0.41133171477885161 -0.40504343140133198 0 0 
-0.65676861449229673 0 -0.49862043873902234 0.45663303102266517 
0 0 9.540979117872439e-18 0 
0 0 0 0 
0.49343114670501076 -0.37182621060792909 0 0 
0 0 -0.1142797473044897 0 
-0.2820524842823407 -0.038292003770873988 0 0.53863033664018589 
0 -0.28826027318302572 0 0 
0 0 0 0 
0 0 0 0 
0 0 0 0 
0.39007925217118672 -0.88632768041136545 0.11373724712020357 0.46494628806072102 
0.61072579266149785 -0.4462914013617485 -0.32704021911014935 0.054276240011107306 
0.21580466027950015 -0.31778481506882267 -0.22208046162403411 -0.059008491674251651 
0 0 0 0 
0 0 0 0 
0.22216524659511952 0 -0.16571155535909698 -0.066874671543360145 
-0.013318343540271211 -0.24119161142044943 -0.046366553799091229 0.25120084145855937 
-5.2041704279304213e-18 0 0 0 
0 0 0 0 
0 0.11747080713526512 -0.24721407587501149 0 
0 0 0 0 
0 0 0 0 
0.33597248183114548 -0.62156457664817255 -0.015642357814098146 -0.06799026541788146 
0.09160786536113269 0.40262293512854885 0 -0.11737853816429557 
0.24017233579635594 0 -0.40462017018100538 -0.063588863663404618 
0 0 0 0 
-0.00015451327985810371 0.033162960033840921 -0.12548770375435025 -0.089468642915646074 
-0.22905237782608839 0.36323931083776251 -0.18699757209618145 0 
0 0 0 -0.092530590921080097 
0 0 0 0 
0 0 0 0 
-0.073235265016348236 0 0 0.16387789216960674 
0 -1.6534083130403943e-17 0 6.9388939039072284e-18 
0 0 0 0 
0 0.36569357443342959 0 -0.0090853687551092112 
0 0 0 0 
-0.24360216566673054 0.30057765362682481 -0.040762993905913321 0 
-0.24931617570395945 0.44514012878768733 -0.097125654004104792 -0.14244836222671264 
-0.10935990561360438 0.027347437417786558 -0.072054465489646308 -1.3877787807814457e-17 
0 0 0 0 
0 0 0 0 
0 0 0 0 
0 0 0 0 
0.060026670563500868 -0.52351918368880657 -0.43624949806382846 0.42042980604607955 
-0.26085464169855571 0.61098172692037966 0 0 
0 0 0 0 
-1.463672932855431e-17 -1.9081958235744878e-17 0 0 
0 0 0 0 
0 0 0 0 
-0.0066364007940603624 0 0 0 
-0.048087606676169958 0.33276727028219505 -0.065584759433548259 -0.13076609609912704 
1.0938857470659245 -0.013957679205723139 0 0 
0 0 0 0 
-0.22717444887940275 0.082424796203784845 -0.03736786989154002 1.3877787807814457e-17 
0 0 0 0 
0 -0.45923185142485184 0 0 
0 0 0.34093389241690819 0 
0 0 -0.236757583035695 0.094421617884583697 
0.37285705878348407 -0.2586873676459579 0.13450530495945445 -0.094835279742445808 
-0.038560289441838647 -0.26572263017365583 -0.027674305426914902 0.25488576194899432 
0.95298439383609035 -0.14308892298179882 0.01959104292878696 -0.95495871048314096 
0 0 0 0 
0 0 0 0.16597664761197933 
0 0 0 0 
0.50217859888198446 -1.1935512225342411 0.13687050969759454 -0.027558060608473822 
0 0 0 0 
-0.035835640863170953 0 0.049570184515793966 -0.038379167567548368 
0 -0.07156372293626527 0.45713440332019484 -0.039889000658005068 
0 0 -0.076512874926742414 0 
0 0 0 -0.012479483715309991 
0 0 0 0 
0.12487609033356804 -0.22303307206151943 -0.12623942844242553 1.7347234759768071e-18 
0 0 0 0 
0 0 0 0 
0 0 0 0 
0.12260458001155275 0 0 -0.28713197642513549 
0 0 0 0 
0 0 0 0 
-0.23276344305664709 0 -2.7755575615628914e-17 0 
-0.18977304829977851 0.15455973494071412 -0.0076090929716522314 0 
0 0 0 0 
0 0 0 -0.032157294219528523 
0 0 0 0 
0 0 0 0 
-0.36434294100024167 0.57419135025574197 -0.15157575149524852 -0.12237231647721197 
-0.0077903437448907376 -0.22819420859293599 0.33922400499887495 0 
0 0 0 0 
0 0 0 0 
0 0 0.40891332559694338 -0.25772148772712739 
-0.086352079380693211 0 0.29467671881851643 0 
0 0 -0.13921715398377615 0 
0 0 0 0 
0 0 0 0 
0 0 0 0 
0 0 0 0 
0 -0.10673448574889075 0 0.14129949308954201 
0 0 0 0 
0 0 0.10261984963639605 -0.1075910243952234 
-0.19080744244144304 0.26038593733886672 -0.089817266888614938 0.41461842192456422 
0 -0.13970448995342286 -0.091399540113543926 0 
0.23216765213904508 -0.15488715025098732 -0.063890684221641778 -0.060921294787119808 
6.0715321659188248e-18 1.7347234759768071e-18 6.9388939039072284e-18 0 
-0.107415952864489 0.0023069363372553646 0.17860261516883966 -0.69276060911997828 
0 0 0.040563500522548181 0 
0 0 0 0 
0 0 0 0 
-0.5186892568644812 -0.12300307751199688 -0.11830544016459116 0.15498193297666607 
0 0 0 0 
0 0 0 -0.010691833224529974 
-0.012430721086401329 0 -0.34931359633595305 0.84345162031920184 
0 0 -0.016778142342172717 0.1361272623264376 
-0.33730853580431064 0.32976880460689961 -0.30925637549918611 -0.031184852136865275 
0 0 0 0 
0 0 0 0 
-0.25432564726748447 -0.10128573758744926 0.28484642799023735 0 
0 0 0 0 
0 0 0 0 
-0.097754274053484441 0.099338792610541765 -0.030233930253665553 -4.3368086899420177e-18 
0 0 -0.26746389556516714 0 
-0.022097694465507953 -0.59969348752887242 0.51394656608457823 -0.10885174118504913 
0 0 0.21016292383540469 -0.27519931883643789 
0.86642568989231339 0 -1.0164573971952791 -0.65602500985317302 
0 0 0 0 
0.25024826111959597 0.2660123913342417 0 -7.3725747729014302e-18 
0 0 0 0.41378360059635294 
0 0 0 0 
0 0 0 0 
0 0 0 0 
0 0 0 0 
-0.035268840311702632 0.95878183657628135 -0.045888420139670698 -0.085892640174490109 
0 0 0 0 
0.15823716946154689 -0.17557652844576621 -0.35907750083559886 0.098575428027116802 
-0.025302502942679876 0.19208439714985609 0 0 
0 0 0 0 
-0.11573871010889925 0 0 0.0055628967273400705 
0 0 0 0 
-1.0408340855860843e-17 0.34754567017251931 0.57500226220284811 -0.81043704647598924 
0 0 0 0 
0 0 0.13457793676759611 0 
0.12798157752683145 -0.11745571339129651 -0.11217895776102783 0 
-0.14642786040981304 0 0 0.15711239109124753 
-0.10809722007392256 0.11793777715789255 0 -0.38024151424475205 
2.8295764401147223 -3.4694469519536142e-18 3.4694469519536142e-18 -1.7537171077310576 
0 0 0 0 
0 0 0 0 
0 0 0 -0.030189348249741368 
0 0 0 0 
0 0 0 -0.24396027121970948 
0 0 0 0 
-0.1777122359401283 0 -0.4074301884914448 0 
0 0 0 0 
-0.2822980406906791 0 0.45096010795892327 0 
0 0 0 0 
-0.1519174105962518 0.24540775114239438 -0.016732830385160966 -0.10251075321245266 
0 0 0 0 
0 0 0 0 
-0.38034555018116134 0.082714285464255577 0 0 
0 0 0 0 
0 0 0 0 
-0.27476542612498639 -0.45974745387356297 0.081437709210889206 0.19819070917897191 
0 0 0 -0.076905281470355649 
0 0 0.12765589620244455 -0.11637673878529951 
0 -3.4694469519536142e-18 0 0 
0 0 0 0 
0.29144351073695773 0.15174927619064821 -0.046780382472141009 -0.052063759426133678 
0.95113815400810497 -0.54207119423324612 -0.77574548174026847 -0.47572048153436858 
0 0 -0.2138471505968568 0 
0 0 0 0.027317908679467869 
-0.5412993962317213 0.43168490479316862 0 -0.09386462021837684 
0 0 0 0 
0 0.062673386501660322 0 -0.10719639013238225 
0 0 0 0 
0 0 0 0 
0 0 0 0 
0 0.24363330895825577 0 -0.32297798850141851 
1.254808473101793 -0.84255676236731691 -3.4694469519536142e-18 -0.14449776918700205 
-0.18215346210018063 -0.10181990017891067 -0.089502025356786266 0.43481104176698199 
0 0 0 0 
0 -0.49759715130653626 0 0.27606387246727992 
0 0 0 0 
0.79257734234474631 -0.71598969754482211 -0.16583805638622645 -0.27074232500275919 
0.20208499566215005 -0.14150484213258449 0 0 
6.9388939039072284e-18 0 0 0 
-0.87430527618793363 0.52094018803520514 0.33661652088574795 -0.028760192028133083 
0 -0.089500087661987443 0 -1.3877787807814457e-17 
0 0 0 0 
-0.23826868320533384 -0.45580088165297922 -0.2670639191896782 0.27368364668730122 
-0.01345110791377048 0 -0.026897822250288091 0 
0 0 0 0 
0 -0.18918312791840503 0 0 
0 0 0 0 
0 0 0 0 
-0.5244484668359719 0 0.40692733895984323 0.12408536298683674 
0 0 0 0 
0 0 0 0 
0 0 0 0 
0 -0.38402605075012503 0 0 
0 0 0 0 
0 0 0 0 
0.48977641892473167 1.0260156489446395 -0.16573597970695311 -0.42969318718617883 
0 0.24769647029331271 -0.18904099366464827 -0.26485731966444365 
0 0 0 0 
0 0 0 0 
-1.8721101062723087 -0.016682918009257953 -1.2000212896080598 2.6340113371370584 
0 0 0 0 
0 0 0 0 
0 0 0 0 
-0.14270317071466726 0 0 0 
0 -0.081368444715584284 0 -0.043652250258328563 
0 0 0 0 
0 0 0 0 
0 0 -0.064949058317609068 0.035366224970742113 
-0.80770063748053389 0 0.77925284062999167 0 
0 0 0 0 
0 -0.090992548153297659 0 0.0052715484889727 
0 -0.53001306747007082 0.02045043656246065 0 
-0.37514534807261718 1.6552487387763093 0 -1.0977442520334975 
0 0 0 0 
0 0 0 0 
-0.59151789402508081 0.21751533380666288 -0.03839980641912813 0.04272255282512212 
0 -0.44882628282094089 0.15170322571683137 0.0099453841047881519 
0 0.75886975333043249 0 -0.34626597307923312 
6.0715321659188248e-18 0.27105807461518078 -0.25174464047968231 -2.0816681711721685e-17 
-0.21685686999588077 0.27029203757958381 6.9388939039072284e-18 -0.13668194102028694 
0 0 -0.023013673545245871 0 
0 0 0 0 
0.19446745147741296 -0.16244281051504636 -0.14549114761316725 0 
0 0 0.24450380043460113 -1.7347234759768071e-18 
0 0 0 0 
0 0 -0.16585653753438695 0.0064414865990576053 
-0.19411495128661527 0.13588724973986305 0 -0.20350611321924786 
0 -0.042745608223752354 0.034376344985869611 0 
0 -0.22173968918180101 0 0.22291224703702897 
-0.062604069132427512 -0.5554852358031378 0 0.41692353524938924 
0.034048258856111915 -4.8572257327350599e-17 -0.072494928096496533 0.26019077540111751 
0 0 0 0 
-0.12426416609177229 0.32820374355401905 -0.066979677577737984 -0.056510289591273764 
0.031493692262661202 -0.10700395267937018 -0.12639092400943469 0 
0 0 0 0 
-0.049332597734459825 0.16770472991525337 6.9388939039072284e-18 -0.060197044675973865 
-0.021726875841408241 0.17991213338212977 -0.77807087188593071 0 
0 0 0 0 
0.015661422912298009 0 2.6020852139652106e-18 0 
0 0 0 0 
-0.38197892212163875 0 0 0.28061821231672801 
0 0 0 0 
0 0 0 0 
-0.30085522327848591 -0.084889226437754692 1.3010426069826053e-18 0.80335312407130055 
0 0 0 0 
0 0.062673386501660322 0 -0.23477337487066985 
0 0 0 0 
0 0 -0.00350669754221805 0 
0.20630974774477312 -0.086800133545222452 -0.51453069759865933 0.39540461676777705 
0.12487288823655926 -0.4302593895902892 1.153575796829825 -0.2512982538110573 
0 0 0 -0.11157745756872377 
0 0 0 0 
0.2868015439011391 -0.030968653027250107 -0.035434384475218648 0.34376844930750983 
0.52444340286371971 0 0 -0.60912768223552582 
0 0 0 0.1879678675437414 
0 0 -0.025555240225711543 0 
0 0 -0.25509093892762996 0 
0 -0.50364751006579045 -0.0069716027243209109 -0.081490392867987718 
-0.11606509291069798 0.15260901229651425 -0.053886791759812348 0 
-0.1202499086664142 0 0.18132490604526241 0 
-0.09333764692267113 0.031981280998043649 -0.046682285391683245 -0.07366229931575273 
0 0 0 0 
0 0 -0.24265001833193139 -0.17940231965660261 
0 0 0 0 
0.12322944515585639 0 -0.065702281382288188 0 
0 0 0 0 
0.53994206869710615 -0.27595803162351157 0 -0.21648714758114682 
-2.0816681711721685e-17 0.10469413938768196 0 -0.01097982931024105 
0 0 0 0 
1.1926223897340549e-17 -0.33117186298437828 0.72245575296329712 -0.17203997073960639 
-0.19711882040255824 0.37329959173294236 -0.051148284562882118 -0.24418219778337258 
-0.15098738248716834 0.012614689375401158 -0.087216411435502614 0 
-7.3725747729014302e-18 0 -0.0054741732388051585 0 
0 0 0 0 
0 0 0 0 
0 0.28017797694257446 -0.32620479023400983 -0.1032397265408479 
0 0 0 0 
0 1.0408340855860843e-17 0 6.9388939039072284e-18 
0 0 0 0 
-0.095602277997982515 -0.20911191636406359 0 0.38197554471968825 
0.29759674900851735 3.4694469519536142e-18 -0.042820891719402107 -3.4694469519536142e-18 
1.1474937245312902 -0.43955676762633022 0.0046420943302724858 -0.28172260925913195 
0.23072537840723439 8.6736173798840355e-18 0 0 
0.52121343454845825 0 -0.072529995255073268 -1.0724033424957318 
0 0 -0.30002288769817392 0.13861414662918697 
0 0 0 0 
0 0 0 0 
-0.061722196139746638 -0.15945358954566508 -0.029625336849607709 0.16741007483296894 
0 0.38666179598007699 0 -0.072422621448438904 
0 0 -0.2155491688240922 0.19940635210863311 
0 0.018450588522560159 -0.12726762260390725 -0.0088164177611922082 
0 0 0.40727338469372931 0 
-0.49883368041169934 0 1.0209607935558298 -2.1684043449710089e-19 
0 0 0 0 
0 0 0 0 
0 -0.12387330290590513 0 0 
0 0 0 0 
-0.014597283046704709 -0.43363248791435383 -0.1080889700689158 -0.013269334752035202 
-0.016772620425482773 -0.37912199291865734 -6.9388939039072284e-18 0.054876248280094082 
0.65611174361483127 -0.59375094489906921 -0.19858570740967332 -0.23070157398956356 
-0.071964688914050348 0.2326535261502074 0 0 
0 0 0 0.21533874476658371 
-0.22807547067976511 -0.49740060493060106 -0.064084868481261492 0.67202580085620767 
0 0 0 0 
0 0 0 0 
0 0 0 0 
-0.08855719639684112 0.10611751249261933 -0.13956102904240214 0 
0 0 0 0 
0 0 0 0 
-0.07079166459790931 0 0 0 
0.97360667552697699 -0.86279992859391785 0.038708611725784076 -0.1478484322788281 
0 0 0 0 
0 0 0 0 
-0.10594060878260077 0.37583036212674031 -0.16391828073496301 -0.057912504639656734 
0 0 0 0.11538094421293031 
0 0 0 0 
-0.1644394723827865 0.36203477417394947 -0.082270083825584775 0 
0 0.18352969007228925 -0.2927073145045378 0 
0 0.37159582924843443 -0.17072184027758594 0 
0 0 0 0 
0 0 0 0 
-0.38086223195601376 0.3541747750266005 -2.0816681711721685e-17 0.023416341740799484 
-0.1823535996478538 0 -0.060448223662910791 0.10363326402272517 
0 -0.44966538914738058 -0.24171507829272906 1.0035527331979501 
0 0 0 0 
0 0 0 0 
-0.11851756248982617 0.2685750449215652 0.45027674254910383 0.087198687820878501 
0 0 1.7347234759768071e-18 0 
-0.44031914112503123 -0.83857558189932535 -0.18393154797709804 1.0894191226518308 
0 0 0 0 
-0.58389023240556326 1.5636039715909893 0 -0.37279325640372218 
0 0 0 0 
0 0 0 0 
0 0.066439187118286766 0.075297497948673686 0 
1.5410907443926345 -0.16598425080751825 -0.6267877910833104 0 
-0.063991515211761857 0.14130944400953319 0 0 
0 0 0 0 
-0.074929063947305474 -0.62801012236965448 0.76097692948701967 0.072719208619040132 
0 0 0 0 
0.89032982740867728 -0.70715594265521808 0 -0.40038397308539891 
0 -0.55135374280917948 0 0.77737139726715521 
-0.40424871496292281 0.15692151621460862 -6.9388939039072284e-18 0 
0 -0.18239442923519297 0.28013436528931118 0 
0 0 0 0 
0 0 0 0 
0.26468866608329095 -0.045295270989809205 -0.18467343958723553 -0.033834331260661897 
0 0 0 0 
0.59201752709856681 -0.65046217984817944 0.25357139775516918 0.17120877857768829 
-0.16927339574131234 0.0051965979094052567 0 6.9388939039072284e-18 
0 0 0 0 
-0.090297985723219412 0 0.16143651719372504 0 
0 0 0 0 
-0.3783642677770101 0.44948030829815822 -0.35926447769369679 -0.39041818549088714 
1.1386569093465884 3.2959746043559335e-17 0 0 
0.1878776971224643 -0.20901506785898977 0 -0.073971927483252403 
0.13733901636973755 -0.027859078966310818 0 0 
0.13359294486258116 0.31372394201028775 -0.12337796479496692 -0.30295040433707854 
0 0 0 0 
0 0 0 0 
0 0 0 0 
-0.41720877178909321 -0.10707019643707985 -0.052036734488053391 0.43445041093193487 
-0.025739794381140754 0.28565552409870765 0 -0.2325369160201668 
0 0 0 0 
0.052637960833964194 0 0 -0.086874221695376785 
0 0 0 0 
0 0 0 0 
0 0 0 0 
0 0 0 0 
0 0 0 0 
0 0 0 0 
0 0 0 0 
0 0 -0.25186322771018371 0.38325390173313595 
0 0 0 0 
0 0 0 0 
0.25352943444494397 -0.49515176821573315 0.41085771383933006 -0.020896839769436723 
0 0 0 0 
0 0 0 0 
-0.23723184251744678 0.12791647252589849 -0.062842154302320458 0.10212467500862413 
0.16838082197925267 0 -0.22576639201617762 0 
0.10375864795403354 0 -0.18553501628238461 0 
-0.93197534071393828 0 0 0 
0 0 0 0 
0 0 0 0 
0 0 0 0 
0.056299019576457818 0 0 0 
0 0 0 0 
0 0.33771842542206237 0 0 
0 0 0 0 
-0.16301690728600024 0.43530513063673371 -0.12021040055108417 -0.083867183903953549 
0 0 -5.2041704279304213e-18 0 
0 0 0 0 
0.10634214210251047 -0.18000985876995318 0.031287431297906051 -0.011562677003598844 
0.35634872388874805 0 0 0 
0 0.49815478650575068 -0.29990371587657683 0 
-0.043182955911640362 0.44341938935557118 0.12138124461480199 -0.33891329912893736 
0 0 0 0 
1.1708451985351063 -0.53755551651571976 -0.21108463636259367 -0.18054969799878701 
-0.059083189989367492 0.26690373799586153 -0.025856672904553919 -0.15413754979341263 
1.7347234759768071e-18 0 -0.013342474593251542 -0.018817631778329132 
0 0 0 0 
-0.47208236333409759 0 0.51136580024946465 0 
0 0 0 0 
0 0 0 0 
0.63651033150125003 -0.79108521672118703 -0.0344434561766244 0 
0 0 -4.3368086899420177e-17 -0.11877838286517557 
-0.051946040675545098 0.058373531396246542 0 0 
0 0 -0.23577725848247202 0 
0 -0.363467139068959 0 0 
0.60201247848600925 -0.090877192990939312 -0.63823630568647294 0.054008317594600813 
-0.52780404903105582 0.1034738698558039 0.81111858380852631 -0.27333642977542288 
0 0 0 0 
0 0 0 0 
-0.47805870690648622 0.67944362312316353 0 -0.18488798024317982 
0 0 0 0 
0 0.44737791590111597 -0.64432936582804956 0 
0 -0.13825437845051367 0 0 
0.76551392170381793 -0.62479245257683325 -0.061322133112230844 -0.17960842293040183 
0 0 0 0 
0 0 0 0 
0 0 0 0 
0 0 0 0 
0 0 -0.010610369384553384 0 
0 0.57769973527241125 -0.78960370954923276 0 
0 0 0 0 
0 -0.12608842844023577 0 0.14347688681302931 
0 -0.45599102786005213 0 0.34374786829556137 
-5.2041704279304213e-18 0 0 0 
0.67600054576858248 -0.5609556542554508 0 0 
0 0 0 0 
0 0 0 0 
-0.88152965275331452 1.1080270615003769 -0.20483799968032534 0 
0.10747193778671951 0 -0.2662437387331727 0 
0 -4.87890977618477e-18 0 -0.0088990817779825687 
0 0 0 0 
0 0 0 0 
0.2408132142276064 0 0 0 
0 0 0 0 
0 0.22719771585132373 -0.13190487822759228 -0.012348933109780512 
0 0 0 0 
0 0 0 0 
-0.21664606968274558 -0.43325961344402464 -0.23516721175044894 0.92567601445619818 
-0.69796734993939191 -0.04879821003794034 0.051398480463723258 0.033977384551269113 
0 0.53042410693961128 -0.94182966195803663 -0.52930797802718921 
0 0 -0.11217895776102783 0 
0 -0.075518061385942956 0.15499646894151756 0 
-0.14238581583872784 -0.30765959344368377 0 0.16532988101329224 
-0.66942827799756355 1.0908718030885949 -0.25484400315902817 -0.15516101455208384 
0 0.03565966217732533 0 -0.066482902852611006 
-0.46088193316904125 -6.9388939039072284e-18 0.44234340114335602 0 
0 0 0 0 
-0.086700142361419208 0.1567998639869479 0.32166620969080112 -0.29880223940761019 
-0.4368701003012056 -0.28505168466518899 -0.46555706881100645 0.32484072643585193 
0 0 0 0 
0.73838768144722389 0 0 -0.08033228381423442 
0 0 0 0 
0 -6.9388939039072284e-18 0 0 
0 0.31108379778981271 5.2041704279304213e-18 8.6736173798840355e-18 
-0.056271204124917963 0.012155006117627558 -0.094766656928837595 -0.064349390763304967 
1.3877787807814457e-17 0 -0.077984662667204246 1.3877787807814457e-17 
0 0.42700942748626602 0 -0.2990201439055869 
0 0.083481678992376657 -0.15592133038969738 -0.087377424645895943 
0.027968270476735363 0 -0.23062574183764331 0 
-0.23972915368787043 -1.0408340855860843e-17 0.51659069321825646 0 
0 0 0 0 
0 0.43905390773095671 0 -0.15215119585731193 
-0.036234496695807375 -0.6707771084210653 0.72556460727661198 0 
0 0 0 0 
0 0 0 0 
0 0 0 0 
0.11405013442337041 -0.40264681209659126 0 0 
0 0.16574396405647923 -0.17408257097682053 0 
-0.64141718355372879 -0.44204900169265537 0.72032051716784418 -0.0055153523675926502 
-0.10835808027744287 -0.38897575628965508 1.0369789257451107 0 
-0.050145855660980503 0 -0.06584809157891415 0 
0 -0.0035541922502429087 0 0 
0.71908148343586109 -0.20428950880775498 -0.42020260729433767 -0.12362213250681342 
0 0 0 0 
1.2668273262586183 -0.92566588428459107 0.16485523423866907 -0.02235305852187263 
0 0 0 0 
0 0 0 0 
-0.046591941858394534 -0.050129923764245507 -0.12413061347053413 0.086392299912839532 
-0.032309700435137034 0.3439690412538185 -0.22462214032051389 0 
-0.56819551650463118 -0.34611972631276511 0.35233349699731886 0.19190618624779426 
0 -0.21647344162800619 0.53329297751622295 0.0050631827772690055 
0.15324646006478412 -0.14006694292275798 0 0 
0 -0.9800929453824776 0.97554294772958638 -0.071499266880809959 
-0.1191623218218411 -0.55699920756903953 -0.21240109945460378 0.4338551673138421 
0 0 0 0 
-1.0625181290357943e-17 -0.076736347384570885 -0.012348167542977271 0 
0.093059672442158042 0.28711740053910412 -0.077967731872812876 -0.35480655560728852 
0 0 0 0 
0 0 -0.0022170867005659421 0 
0.13638756272299324 0 0 -0.068919588097320225 
0 0.49626063988780444 0 -0.45445616112083048 
0.79952396544613558 -0.75881562947433667 -0.40762213515961321 0 
-0.14729753957608177 5.2041704279304213e-18 0 0.2012315630754539 
0 0 0 0 
0 0 0 0 
-0.41081253919505084 0.27269647565224797 0 0 
0.83153192800429487 -0.598962484378461 -0.53841308481091754 -0.093098804036784569 
-0.26806368408959003 0.26951169769902888 -0.048735827855882999 -0.040360616595908096 
0 0 0 0 
0 0 0 0 
0 0 0 0 
0 0 0 0 
-0.0040858888851632797 0 0 0 
0 0 0 0 
0.14053175698233819 -0.15677200111032744 -0.00051190709642705723 -0.10668119328667729 
-0.24181951727780909 0.71958885747180312 -0.047841718946834595 -0.85430731837291407 
0 0 0 0 
0.29108108922024778 -0.41632534255517767 0 0 
0.49677794103632822 0 -0.5485825892684737 0 
0 -0.12724465448630282 0.12035949230497887 0 
-0.034705338932030844 0 0 0 
-0.032458826872864111 0.19864205058774628 -0.20779926008017613 0 
-0.2188151416430025 0 0 0.32541332357325636 
0 0 0 0 
-0.059302465831792377 0 0 0 
0 0 -0.15185124353805973 0 
0 0 0 0 
0 0.52925771912912378 0 -0.032080676952238318 
-6.9388939039072284e-18 0 0 0 
-0.23046326985904095 0 -0.19845635636005676 0.4868496844497 
0 0.099024117802194611 0 0 
0.22288234893239547 -0.081272460936564067 0 -0.0020567219011500336 
-0.10077816532166153 0.056511554729910492 -0.13599479410283122 -0.11229778750671056 
0 0 0 0 
0.23370877227817763 -0.65483650620894085 -0.10159888333674351 0.045488135081433623 
0 0 0 0 
0 0 0 0 
0.99484333068874453 -0.67308929379213678 -0.17042381120187461 -0.40754644663215223 
-0.00081636773284495196 0 -0.095870206154210116 0.1643530654496396 
0 0 0 0 
0.47595474748318334 -0.28947745652461782 -0.061591733079293831 0.34372090561036661 
0 0 0 0 
-0.17151549172410041 0.33809472838313354 -0.25015791854604769 0 
0 0 0 0 
0 0 0 0 
0 0 0 0 
-0.066909186612038235 0 0 0 
-0.058989263773606374 0.22250855284716745 0 -0.18857635078648186 
0 0 0 0 
0 0 -1.005629357147573 0 
0 0 0 0.17756066747483967 
-0.16018241699140531 6.9388939039072284e-18 0.18275954615108397 0 
0 0 -0.037947937254025892 0 
0 0 -0.27908651500884168 0 
-0.154740083707151 0 0 0 
-0.091377483262511897 0.073489431885566045 0 0 
-0.55347381128735096 0.42007309338079413 0 -0.27299153746807592 
0.2673691784465656 -0.2511975636666598 -0.06541280637598787 0 
0 0 -0.2695181141285915 0 
-1.7347234759768071e-18 0.049248801291303074 -0.19497238687715795 3.4694469519536142e-18 
0.1282850684594323 -0.15652414885508859 -0.08317230105476392 -6.9388939039072284e-18 
0 -0.1855686112188033 0 0 
0 0 0 0 
-0.013714116488012601 0 0.25371092649779109 -0.077921591001526985 
0 0 0 0 
0 0 0 0 
0 0 0 0 
0 0 0 0 
0 0 -0.14136442935098079 0 
-0.18797024056369557 -0.11276023674077394 0 0.51171450354759318 
0 0 -0.024569114228670669 -0.022148642684258812 
-0.31328432013144564 0 0 0.32986039840346837 
-0.06458781487088873 -0.19892056222987509 0.020626018298043072 0.072883480974347076 
0 0 0 0 
0 0 0 0 
0.10932370366444197 0 0 0 
0.65468062842373742 -1.3146119089545141 -0.34941538413377937 -0.22668767884052635 
0 0 0 0 
-8.6736173798840355e-19 0 0 0 
-0.012867701789713361 -0.1367409414097964 0.27309875808335166 0 
0 0 0 0 
-0.26081944861855272 0.33121675280749785 0 0 
0.56119689851281229 -6.5485811218124468e-17 -0.20837460866854898 1.7347234759768071e-18 
0.29300688762442201 0 0 -0.10685836382513518 
-0.3317819063546113 2.7755575615628914e-17 -0.056832911023081294 0 
0.1973105270163559 -0.77359105764772218 -0.17403719539090542 0.42260632251723096 
0 0 0 0.035920139788327955 
0 0 1.4485547434911279 -0.51393726937230266 
-0.16648749218877296 0.12884999571620676 -0.28330152428160915 0.008841298657005536 
0 0 0 0 
6.9388939039072284e-18 0 0 8.6736173798840355e-18 
0 0 0 0 
-0.30170281606954341 -0.84813822730258615 -0.1133663986777908 0.80608332410164196 
0 0 0 0 
0 0 0 0 
0.12576774864711998 -1.2406762350476197 -0.13950231311209332 1.1933408954625075 
0 -0.62019965276223465 0.36946945394480762 0 
0 0 0 0 
0 -0.35057910367346956 1.0512965935732272 -0.29230143785342028 
-0.18363978737632461 -0.48640556520392336 0.75444802542795641 0.86625896573559225 
0 0 0 0 
1.0531743506919189 0 -0.091902375508464113 -0.60130591942382261 
0 -4.3368086899420177e-18 0 0 
0.021539645797378409 -0.066721626279139995 0 0.017322912907573294 
0.57279630293367634 -0.3834212279257066 -0.019011827460861157 0.3117751049140986 
0 0 0 0 
-0.38471476551367012 0.32446356954416955 -0.34683753141019713 0.65539606356123437 
0.24423997418033921 -0.10574961978626778 0.15552641183759941 -0.16958520269777402 
0 -0.023093365499729998 0.55529351917832093 -0.30666458359759846 
-0.27096217428493535 -0.049049254634535883 0 0.15641388867891437 
-0.45511400149114711 0.36509114307711643 0 -0.14330056085244969 
0 -0.22042523058944244 0 -1.7347234759768071e-18 
0 0 0 0 
-0.22286314856875084 0.14051120176992485 0.016066240334515126 -0.091345473867105731 
-0.23011240362205787 0.63481545316436216 0 -0.10132634345239688 
-0.63915993226789991 0 0 0.095501427599222907 
0 -0.94717477078043 0 0.96857355972757309 
0 0 0 -0.0060786652568928078 
0 -0.055155628340805604 0.012537531368620368 0 
-0.2219641781803916 0 0 0.30405826923039248 
0 -0.19471689757978741 0.22825484380261532 -6.9388939039072284e-18 
-0.030859606146889734 0 -0.41235195664451857 0.32372037512359947 
0 0 0 0 
0 -0.19532582786101127 0 0 
0 0 0.29466691591334004 3.903127820947816e-18 
1.1937675526860769 -0.59081792230072849 -0.34424251837272535 0.10990128255632915 
0 1.3877787807814457e-17 0.86134948485087559 0 
-0.55899102735587025 0 0 0.39724676714677037 
-0.31121443596108861 -0.083203316964696322 -0.27213701199268758 0.22727040507077689 
-0.36821730888777121 0.63767050810084491 0.31728565902473288 -0.29559150528942912 
0 0 0 0 
-0.15604954669508622 0 0.40321677203365297 -0.13316728689863158 
0 0 0 0 
0 -0.087972755889600296 0 0 
0 0 0.36863968195549929 -0.056854392454417382 
-0.23868432228518249 0 0 0.12259636810343488 
0 0 0 0 
0 0 0 0 
-0.23835074208309437 0.19000469728551012 0 0 
0.10084210699700197 -0.072391265676524541 -1.7347234759768071e-17 -0.20811671378629587 
0 0 0 0 
-0.3684438813707096 0.74533501225961218 0 -0.091617954355816475 
0 0 0 0 
0 0 0 0 
-0.40208114601417622 0.3031089510561239 3.4694469519536142e-17 -0.055722941628742875 
0 0 0 0 
0.28602454066204741 -0.52518643517376429 0.2281402361786482 0.07958336945134066 
0 0 -0.27008318962066424 0.077851911214977518 
0.44548318953769872 -0.2798309089475004 -0.60190049700944037 -0.33099096361596575 
-0.1278289849608108 0.21324583825828095 -0.0062028652011557259 -0.13558426530029946 
-2.1684043449710089e-19 0 0 0 
0 0 0 -0.11157745756872377 
0 0 0 0 
0 0 0 0 
0 0 0 -0.1129493113595665 
0 0 0 0 
-0.91134529291151956 0 0.16996835561039841 0 
-0.7479264916122238 0.51242650835915571 0 0 
0 0.92256295509439668 0 -0.51818001076586528 
0 0 0 0 
-0.12358215414316925 -0.28101703639417924 0.48575138449934491 -0.019616871738190569 
-0.19069807371513164 -0.11656798009765164 0.018506173530126638 -0.13332453962106883 
-0.059884999102385122 -0.31600587230732308 0 0.24718717968855919 
0 0 -0.14201750844704353 0.040371639993811777 
-0.069515666104555285 0 0 0 
-0.085780021413779148 0 0 0 
0 0 0 0 
0 0 0 0 
0 0 0 -1.0408340855860843e-17 
0 0 0 0 
0 -0.071758903438486468 0.20986059520730668 0 
0 0 -0.29389587744245516 0 
0.017143907269374221 0 -0.099503331362616368 -0.14447339441804385 
-0.27278949029532695 -0.021169750969679841 0 4.3368086899420177e-17 
0 0 0 -0.16046413873141538 
0 0 0 0 
0 0 0 0 
0.17456398838887943 0.28793910832489611 -0.12457476729721832 -0.45840761724032741 
-0.14850668027702246 -1.3877787807814457e-17 0 0.10783094758104589 
0 -0.047408440282452932 -0.5445069094537196 0.57788197796904361 
0 -0.28858130017367634 0 0 
0 0 0 0 
0 -6.9388939039072284e-18 0.53318617993702555 0.028648009822059648 
0 0 0 0 
0 0.11935131910343894 -0.46700152139837325 0 
0 0 0 0 
0.28891669593448643 0 -0.01545631532554677 0 
0 0 0 0 
0 0 0 -0.15150809710642774 
0 0 0 0 
0 0 -0.3238696788748564 0 
0 0.067543374152781818 0 0 
0 0 0 0.10288669871577853 
0 0 0 0 
0 0 0 0 
-0.064407973384553521 -0.028823249625781307 -0.27971651691799676 0.70020704140223378 
0.039728347817433535 -0.1962285530031859 -0.040834106808853937 0.079679644810403502 
0 0 0 0 
0.48343403272923935 -0.95591411846423879 -0.063387588227118569 0 
0 -4.163336342344337e-17 -0.052304842583181133 -0.3888218831847462 
0 0 0 0 
0.6952916606511238 -1.2965969502899588 0.81002216593848753 -0.68223775021876143 
0 0 0 0 
-0.26380276675833203 0.24472485982334932 0 -0.012708184068541958 
0 0 0 0.74252999390122698 
-1.7347234759768071e-17 -0.14680058473693477 -2.6020852139652106e-18 -0.13804483289942293 
0 0.060900252844513177 -0.18074420481773021 -0.18299751424338337 
0 0 0 0 
1.2371228518888686 -1.4449542207404162 0.033155040942831907 -0.14389677939344264 
0 0 0 0.38716673338214802 
-0.64309370811050226 0.022067740754185241 0.072556040937325997 0.14858342975439395 
0.15829162275238795 0 0 -0.12485276327076057 
0 0 0 0 
0 0 0 0 
6.9388939039072284e-18 0 0.67429778807201401 0 
-0.058291210679237052 0.36635966650966933 -0.21514810735421502 -0.43580591464367258 
-0.58921971208756818 -0.028181490526689036 0.29392346079658405 0.0044027466177186374 
0 0 0 -0.31823620337889158 
0 0 0 0 
0.23355190555853791 -0.25051710042896119 -0.10888885762221061 -0.06681670859698044 
0 0 -0.31812807501892959 0 
-0.17022511905900278 0 -3.7947076036992655e-18 0.24933417312018402 
-0.3638899025933241 1.6606775508081224 0 -0.16850694229566229 
0 0 0 0 
0 0 0 0 
0 0 0 0 
0.21283701377664607 -0.20761933619688078 -0.031720943477483846 0 
0 -0.18763226257948321 0 0 
0 0 0 0 
-0.62622714368304 0.59992178424661624 -0.56746104571208833 -0.22575375833065445 
0 0 0 0 
0 0 0 0 
0 0 0 0 
-0.65578504731598575 0 0.31240934472074944 0 
-0.077408607345608643 -0.024999553153495731 -0.085615591968409996 -0.19534664069327845 
0.048354281567013165 -0.29805752126092283 -0.20272563707765728 0.23417936245840479 
0 0.28843401115496259 0 -0.56380241136850617 
-0.15880653585423476 -0.25164194236208304 0.51928933989092241 -0.18715016025908165 
0 0 0 0 
-0.04317211162150808 0.19579906034264011 0.11578781985134716 -0.39080761082436594 
-0.26471983478899586 -0.018679195881560091 -0.39981870467955871 0.77112760388380908 
-0.51021477413452543 0 0.33816521106483333 0 
0 0.86124171915702918 -0.83687709122769904 0 
0.17100767767285446 -0.10170084578538165 0 0 
-0.04136949328500901 -0.4035063832250842 0 0.63093353739429758 
0 -0.59180401347029132 0 0.2441519319660134 
-0.22011047482113935 -0.42741489710132169 -0.0717272688435866 0.60224607208921632 
0.041380324667158817 0 -3.4694469519536142e-18 -0.1493168142950792 
0 0 0 0 
0 0 0 0 
-2.0816681711721685e-17 0 -0.547109763965128 0 
0 0 0 0 
-0.081994949885332569 0.16835907000042066 0 -0.083168115901660525 
0.0079303104691674561 -0.010235991503111207 -0.033471238812314445 -0.056656340674700267 
0 0 0 0 
-0.5892197120875684 0 0 0.0044027466177186374 
0 0 0 0 
0 0 0 0 
0 0 0 0 
0 0 0 0 
0 0 0 0 
-0.12415790823594386 -0.39592819216815045 -0.016005086741229923 0.39918627077717245 
-0.080063077313004327 -0.24244182043468174 0 0.36925816745328993 
0 0 0 0 
0 0 -0.022951010880318364 0 
-0.095192131629947566 -0.40724406329901142 4.3368086899420177e-19 0.19700986501970974 
-0.04766914356740496 0.35163094644421089 0 -0.10826481014992706 
0 0.15873092276339454 -0.20470765846735978 0 
0 0 0 0 
-0.30039358218216244 0.36006766441909133 -0.29013280921176399 0 
0 0 -0.043503658083077969 0 
0 0 0.065820049387234222 -1.7347234759768071e-18 
0 0 -0.3797118964644241 0 
0 0 0 0 
0 0 0 0 
0 0 -0.013130611200976023 0 
-0.51937865142536421 0.80693515856526976 0.45008868201098789 -0.18044212006555671 
-0.098257283843553797 -0.22127127333568541 -0.0032571071285037788 0.38107367306188566 
0 0 0.1065336567640371 -0.12064665632081539 
0 0.059317506000072774 -0.072078220691619843 0 
0 0 0 0 
-0.13900442821064046 -0.24369412471299473 0.44438080775128863 -1.3877787807814457e-17 
0 0 0 0 
0 0.077037968345338811 0 0 
-0.04777643145690421 0 -0.074971592832838108 0.40825415959728406 
0 0.33667083043860874 0 -0.16320929161698808 
-0.27220928079379786 0 0 0 
-0.5911964564157951 0.50085390644116456 -0.079267303091856658 0.1443638293006759 
0 0 0 0 
-0.85959145832076 0.572763495348526 0.16978115801274163 0.038683558765817666 
0 0.49260625239868688 -0.18601328237030273 -0.19039106738627357 
0.3888630526435467 0 -0.052545656827152634 0 
-0.2353219227952455 -0.87288047296167137 -0.052788110200790363 0.89614937694574337 
0 0 -0.057818626423761017 0 
0.52049579296909243 0 0 -0.31739805095547657 
0.26245607024043677 -0.17892845527060203 -0.056583596667846174 0 
0.20489903547707969 -0.081128700019718461 -0.063851350759027245 -0.078105128280699779 
0 0 0 0 
-0.30941879207341105 0 0 0.094806469883145478 
0 0 0 0 
0 0.27473367375779018 -0.1390965611865623 -0.40734787462071725 
0 -0.92878563402119418 -0.065273914725231988 0.93655395117622586 
0 1.5612511283791264e-17 1.7347234759768071e-18 0.075555043782053383 
0 0 0 0 
-0.26463713292322033 -0.01021284688308895 -0.26782867864627502 0.42235583689065581 
-0.15271170112475552 8.6736173798840355e-18 0 0 
0 0 0 0 
0 0 0 0 
0 0 6.1907944048922303e-17 0 
-0.40915686919594435 0.016376390119540729 -0.091660458834218722 0 
-0.25726537665982269 0.17032448644702877 -0.26887599537542606 -0.032847425717679048 
0 0 -0.2357313558063964 0 
0 0.44152817394987931 -0.12204602834166516 -0.29219580643250137 
0 0 -0.10776236952599211 0.10889433679365229 
0 0 -0.42782258550295071 0 
-0.3823721356865129 -0.057563744164172308 0.073134789887415216 -0.17499418387774662 
0 0 0 0 
0.095452184956964281 -0.49572459789867951 0 0 
0 0 0 0 
0 0 0 0 
0 0 0 0 
-0.26578979546094528 0.76850272202185599 -0.34512578338484429 -0.46095623179928524 
0 -0.040572720352814139 0 0 
-0.31970326163254587 0.22567531449045961 -0.14992047269205205 -0.11074993403343018 
-0.27656013595145035 0.34345352137955804 -0.12434754567444561 -0.39518808880028783 
0 0 0 0 
0.6563020956418546 -0.44139164352212107 0.3282163795460743 0.045218494954455124 
-0.055095558350610044 0 0 0 
0.11400297110269536 -0.15142925148525188 -0.0016428669335515201 0.1012983961147403 
0 0 0 0 
0 0 0 0 
0 0 -0.090494225234261802 0 
0.29593155272878335 0 -0.26229074731927832 0 
-0.006975322823955566 0.17471064332030814 -0.29113172535728449 0.13300211932523931 
-0.207592352050051 1.3877787807814457e-17 -0.065145047470535108 0.017614849553192556 
0 0 0 0 
-0.30547965251685705 0.49156801278088474 0 -1.0408340855860843e-17 
-0.032424690619047354 0.32449252925397193 0 -0.10649988954573088 
0 0.4137717731007961 0 -0.36215520718442051 
-0.84045802661990443 0.18877362511732934 0.33628259004862748 0.33643970540233492 
0.15160736304300038 -0.31578309427432943 0 0 
-0.010194976719491062 0 0 0 
0 0 0 0 
-0.17405958330507662 0.62091882654036357 -0.061456353418761635 0 
-0.094517058695130385 1.7347234759768071e-18 0 0 
0 0 0 0 
0 0 0 0 
0 0 0 0 
0 0.22822973583151698 0 -0.019262048657526846 
0 0 0 0 
0 0 0.2088574179799004 -0.095079606411554121 
0 0 0 0 
0 0 0 0 
-0.086226165260366819 -0.029119841913486103 0.068041765393583017 0 
0.28130683669384443 -1.0873881220994284 0.40142344736800301 -0.014551431526641668 
0 0 0 0 
0 0 0 0 
0 0 -0.10767926147514387 0 
-2.7755575615628914e-17 0 -0.0011878847993055416 0.27872597948798905 
0 0 0 0 
0 0 0 0 
3.4694469519536142e-18 -0.10175435170408574 -0.081906913763960046 0.33336076040203849 
0 -0.24954974251251974 0 0.10018743060964663 
0 0 0 0 
0 0 -0.11467705532431124 0 
0 0.056464627639327337 0 -0.076457705293442257 
0 0 0 0 
0.14682698307765601 -0.17060492633736643 0 0 
0 0 -0.056391804334128506 0 
0.15479353950975966 1.1931077492057103 0.80846238931515679 -0.82337076920381469 
0 0 0 0 
0 0 0 0 
0 0 0 0 
0 0 0 0 
0 0 0 0 
-0.040952452554761522 -0.26331610020791435 1.1645506915031765 -0.49516778362995345 
-0.26412283110931595 0.32318954122197024 0 6.9388939039072284e-18 
0 0 -0.090243803809734249 0.10071114044765322 
-0.036234496695807375 -0.6707771084210653 0.72556460727661198 0 
0 0 0 0 
0 0 0 -0.16817786276816044 
0 0 0 0 
0 -0.17087990337634287 0.27813892077008762 -0.23639808824292488 
0.12322944515585639 0 -0.065702281382288188 0 
0 -0.028311838446841632 -0.023013673545245868 0.14826019321046144 
0.18734592990230042 0 0 -0.33835553869030333 
-0.05412922814587981 0.31511054183545578 -3.6429192995512949e-17 0 
0.4242753579938236 -0.16031483501685789 0.096389951193519521 0.26033013899206964 
-0.026017184506839184 -0.10952414769162221 0.18524818848062186 0 
-0.061076660957628134 -0.11656358270839909 0.067101805044533724 0 
-0.13986966879568105 0 0 0.04895644953306301 
1.1729837077907199 0 0 -0.93586676478988029 
0 0 -0.2196455655643241 0.58641446828543098 
0.40360259155878186 0 0 -0.18368073944177732 
0.15452104259721308 0 0 -0.044521501143319112 
2.7755575615628914e-17 -0.11989607326766893 -0.028787636346832506 6.8575787409708155e-18 
0 0 0 0 
-0.068383657514257887 0 0 0 
0 0 0 0 
0 0 0 0 
0 0 0 0 
0 0 0 0 
0 0 0 0 
0 0 0 0 
0 2.8189256484623115e-17 1.1879008046980748 -0.77128853740812864 
0.061388809746274149 -0.96139160711699778 -0.28636711605732168 -0.036432524874577543 
0 0 0 0 
-0.037344607672472649 -0.1444515671404881 -0.13558048695684294 0.21958273513541834 
0 0 0 0 
-1.0572221259344583 -0.69604638896114779 2.2647073667361117 -1.2388056617937606 
-0.12726740401647763 -0.32800978128278646 0.40808762746650135 0 
0 0 0 0 
0 0 0 0 
0 -0.39270262294940789 0 0.32735467657634226 
1.7347234759768071e-18 -3.4694469519536142e-18 8.6736173798840355e-19 0.026049217279870508 
0 0 0 0 
0.42981510996340061 -0.33241255954441762 -0.10673268075442104 -0.11666142296232604 
0 0 0 0 
0 0 0 0 
0 0 0 0 
0.28687192881001217 -0.25944199894347197 -0.13959429488071598 0 
0.33596091950411033 0 0 -0.40951288378978412 
0 -0.15866616858745328 0.54257740166157364 0 
0 -0.46891398639418908 0.14473898470365279 0.033620507110618952 
0 0 0 -0.074846683144354914 
0 0 0 0 
-0.42188993294966515 0.24033083887704215 0.21950555694717688 0.36603405949601542 
0 0 0 0 
0.14781995307705337 0.29149076173713373 -0.23148913047334152 0.16896906009532267 
0.39264764093368865 0 -0.16328619751189552 0 
0 9.1072982488782372e-18 0 0.49817075529573468 
-0.34689103380315406 -0.01421124386509285 0.024744220030115432 -3.4694469519536142e-18 
0 -0.028880902299042683 -0.51384535580441204 0 
-0.15418767621043386 -1.7780915628762273e-17 0 0 
0 0 -0.6253869903824939 0 
0.39531573393729141 -0.32925952650958179 0 -0.083047389707512131 
0 0 0.50305106769524732 -0.73702530216788742 
0 0 0 0 
0 0 0 0 
0 0 0 0 
-0.17660371676669279 0.6090306153488525 0 -0.0037464479586921786 
0.24148144066855004 0.040215295397298879 -0.1534724854588469 -0.24032112507377748 
0.26248951218110134 -0.56406240121908202 -0.40425750907556512 0.36257321508297036 
0 0 0 0 
0 0 0 0 
0 0 0 0 
-0.56742983234791944 -0.26474483925415537 0.13654422487020196 -0.039703224538935399 
0 -0.017228050340715503 0.20263243294182184 -0.21128949543752987 
0 0 0 0 
0 0 0 0 
-0.03959443177980957 0 0 -0.018034541329038249 
-1.0552168321561746 0.93695629939655856 0 0 
0 0 0 0 
0 0 0 0 
-0.27695927433535489 0.30741452489724092 -0.20917631607932202 -0.13085541685063776 
0 0 0 0 
0 0 0 0 
-6.0715321659188248e-18 0.18382486447789648 -0.047062014058816187 -0.12803791493369673 
0 0 0 0 
0.083993293829846549 0.097804880162371668 -0.11331677674656503 0 
0.72941201102182551 0 -0.62483392600811549 0 
0 -0.29447341008227412 0.37905530894337869 0 
0 -0.54700397806681855 0.18114416097195629 0 
0 0 0 0 
-0.25598085530818876 -0.41371844732374641 0.45360232109649135 0.0079367820003147516 
0 0 0 0 
0 0 0 0 
0 0 0 0 
-0.21687470718875762 -0.00022984012725421008 0.86134948485087559 0.053889726455212061 
0.24470268903313155 -0.14213191955180404 -0.10819783713783171 -0.12815668450354717 
0 0 0 0 
-0.62001846523250692 0.61835717093699871 -0.10836388528213226 -0.18921236410438946 
0.11954772388412975 0 0 0 
0 0 0 0 
0.010922001590946076 -0.32453851571550979 0 0.34343840880137511 
0.64281825909104662 -0.55658197437554824 0 0 
-0.9789926423756361 0 0 0 
0.20501973368730217 -0.012673973812990343 0 -0.057938239607040108 
-0.067045424696844255 0.13359953420542739 -0.073003857365775901 -0.088720173161830201 
0 0 0 -0.058921680897679379 
0.0044118106693869031 0 0 -0.93095787211590586 
0 -0.43292235213973956 0 0.69864998185901539 
0 1.3877787807814457e-17 0.10490671910991055 0.23254372854187674 
0.19854489431153743 0.17792162386942548 -0.43383854922916509 -0.77889607721317944 
0 0 0 0 
0 -0.24101455281115261 0.17370819481939834 -0.020067257242176513 
0 0 0 0 
-0.10146885662894232 0.086984267870700585 3.4694469519536142e-18 -0.012949521394704316 
0 0 0 0 
-0.33772313086281514 0.3803522758975782 0.024103515375167469 -0.18763903475001814 
1.74924674774939 -0.2226014720746852 0 0 
0 0 0.11128992982172459 -0.56530966282081929 
1.5067112941792054 -1.3349427708606323 0.10029366185480329 -0.29534153618717174 
0 0.026984962967195193 -0.14119340467646113 0.25318226437535019 
0 0 0 0 
0.56292620478045818 -0.50019956522012299 0 -0.43714548575359119 
0 0.0228233468363747 -0.13309681324050177 -0.11368680315077072 
0.12237812781530949 -0.25933554247539548 -0.085974764685110922 -0.023588231658797247 
-0.74196160040613224 0 0.020875709792896477 0.66943465196922936 
-0.36912518128554261 0.69563885363961697 0 -0.050725121374537857 
-0.090320940788707837 -0.10722827120142694 0.38350454403620982 0 
0 0 0 0 
0 0 0 0 
0 -0.68410145235544428 -0.22518390924832216 0.74995447060264253 
-0.11323131025295187 0.048373086281397956 0 0 
0 0 1.3877787807814457e-17 0 
-0.26446770751522813 0.58838102108319634 -0.042421280201445061 -0.20467892227138879 
0 0 0 0 
0 0 0 0 
-0.21006994887306291 -0.02740958818665996 0.17148855415839187 0 
-0.22862612460398221 -0.87770254056912467 -0.067522260278655835 1.2371200059172485 
-0.083027153759628505 -0.73329019326074718 0 0.67369144867050978 
0 0 0 0 
-0.41323450175175125 -8.6736173798840355e-19 0 0.29422423009752469 
-0.64752745710959214 -0.30473789044860544 0 0.71476747917798433 
0 0 0 0 
0 -0.20214038491646993 0 -1.7347234759768071e-18 
-0.17825581833077159 0.53367395640287851 0.11565959537456892 -0.069002621694196492 
0.20367292453720975 -0.041757205021082572 -0.077901141519923528 0 
0.59657558525611598 -0.26843407096883259 -0.02452709364979512 -0.062694135770586856 
3.4694469519536142e-18 1.7347234759768071e-18 0.36950063489023938 0 
0 0 0 0 
0 0 0 0 
-0.7824224314672823 -0.1806984848957833 -0.22591382066681889 0.30325777496853262 
0 0 0 0.10550016692143309 
0 0 0 0 
0.71053420260958722 -0.52766426749205331 -0.059173347109277824 -0.30138085400775477 
-0.16251938437066538 0.44165510143931064 -0.30791756746555238 -0.3985423735569919 
0.15980934075251779 0 -0.34771075176056188 3.0357660829594124e-18 
0.47982274841285683 -0.48906999184008632 -0.039057666577364161 -0.074775855768164937 
0 0 0 0 
0 0 0 0 
0.37406966929728025 -5.4210108624275222e-18 -3.4694469519536142e-18 -0.33387586022355947 
0 -0.15810609333284631 0.44862703288223826 0 
0 0 0 0 
0 0 0 0 
0 0 0.36915626790556505 0 
-0.24275339672644361 0.054162905289063021 0.051181039621079338 0.30469049825350109 
-0.82770837631687844 2.1704848691125105 -0.78910566535768001 -0.393079967995483 
-0.0050381444871772174 0 0.24610777912309134 0 
0.46616124136131043 -0.3834557265220635 -0.18348614836960453 -0.16924021995518912 
-0.046826338066662067 -0.56414384877233303 0 0.7931533736174301 
0 0 3.4694469519536142e-18 0 
0 0 0 0 
0.21898310709111476 -0.18707354053593994 -0.031353668615006956 -0.055312643071260027 
0 0 0 0 
0 0 0 3.4694469519536142e-18 
2.2551405187698492e-17 0.32415427859224211 -0.064043647638976992 -0.091669344653796725 
0 0 -0.015166477831922851 0 
0 0 0 0 
0.1505137599725479 -0.53178330316319289 0.68095970694058661 0.60462448699584681 
-0.051591591615557139 -0.17345409660144051 0.10600928163422019 0 
0 0.11056839853887201 0 0 
-0.21043237403140377 -0.20110595958874752 0.43782461158009695 -0.097729294234969288 
0 0 0 0 
0 0 0 0 
0 0 0 0 
-0.047427503797186403 -0.11144714769243382 -0.034348992824244258 0.55656808925958934 
0 0 0 0 
0 -0.058840930726484282 0 0 
0 0 0 0 
0 0 0 0 
0 -0.4133807431708395 0.25152003675854545 0 
0 0 0 0 
-0.1124549967435918 0.081122949657942686 -0.2918615279452495 -0.4114413192510068 
-0.33491418447699256 0.65591148669413613 -0.67293717230042416 0 
-0.55507781847313187 0.47863685939937523 -0.19944827337101129 -0.10374730562041298 
0 -0.097101591710411939 -0.060123243058904263 0.26871778942869406 
0.32451896011254705 -0.25602361836981558 -0.32441823432038674 0 
0 0 0 0 
0 0 0 -0.44992475299827633 
0 -0.24564942200823117 -0.1442703233499445 0.37666384935146274 
0.91044485086714055 -0.56048309123511908 0.63311838412817789 -0.71389110513586562 
-0.1274397519214506 0 0.31785924088408851 0 
0 0 0 0 
0 0 0 0 
0 0 0 0 
0.077684530078495934 0 0 0 
0 0 0 0 
0 0 0 0 
0 0 -0.52983789974025264 0 
-0.063310530505096177 0.33515867556577589 -0.11758886789193254 -0.10552983756799977 
-0.034184613833731239 0 -0.0034449434937057133 0.093894202933048537 
0 0 0 0 
0.50852522967189484 -0.28356070601366956 0.39533530253456911 -0.76440131917968845 
0 0 0 0 
0 0 0 0 
4.3368086899420177e-18 -0.77256226812211226 0.56461442517666671 -1.3010426069826053e-18 
0 0 0 0 
0.36839805255125269 -0.18183612522447845 0.18127759877780483 -0.021390451394027836 
0 0 -0.005421470435120394 0.1514018374304677 
0 0 0 0.0084008334805826951 
-0.10507593311916204 -0.07086497960692599 -0.20487180526440449 0.29935588277246167 
-0.28222916028507433 0.41748793547299839 -0.12261607754187775 0 
0 -0.10673448574889075 0 0.14129949308954204 
0.005236731753603719 -0.031231454394403804 0 0 
0 0 0 0 
0.76775747925720439 -0.78427313785834807 0 0 
-0.16298889699164903 0.49491004629716528 0 -3.4694469519536142e-18 
0 -2.8189256484623115e-17 -1.7347234759768071e-18 0 
0 -0.067487165913479766 0 0 
0.25802180195973812 0 -0.13516936462199478 0 
1.0896113521412971 -0.80262790103968484 -0.17869691925030295 -0.41551387438159904 
-0.27396834266816611 0 0.24175943108213599 4.163336342344337e-17 
0 0 0 0 
0 0 0 0 
-0.83746569029880447 0.97284436446731115 -0.13288491745441569 -0.25929410213778442 
0 0 0 0 
0 -1.3068921748719162 -0.01420390113206825 0.76243104678638918 
0 -0.0542391936521745 0 0 
0 0 0 0 
0 0 0 0 
0.02803671989669998 -0.63639826688466383 -0.083401145622455486 0.82853618215080849 
0.2394609604257078 -0.47903606582355751 0.14065941992352127 -0.045104119289898693 
0 -0.79335460375981459 1.2124997055290803 0 
0.21010570393263589 -0.12956743465471152 -0.12322994166512363 -0.085297596595777639 
0.35001951705846934 -0.11500825287009762 0 0 
-1.7347234759768071e-18 0 -0.047475388027130527 8.6736173798840355e-18 
0.44521467846022117 -0.46996883563962893 -0.078067164253123975 0 
-3.4694469519536142e-18 -0.41750934739237644 -3.4694469519536142e-18 0.06354928547449977 
-0.13727115344022836 -7.9580439460436025e-17 0 0 
0.3193937034010359 0.45610130517914699 0.0087867526104819516 -0.18684291637154507 
1.1159518361327807 -0.98733655869430414 -0.17880797515814162 0.012336176929771752 
0.18856392364769906 0.034482310187717524 -0.15033074337858354 -0.21622034657437397 
-0.11469575208694889 0.1464055047552601 -0.014617950908698794 -0.28189716506892804 
0 0 0 0 
0 0.23163098709299129 -0.52343847677919986 0 
8.6736173798840355e-19 1.0408340855860843e-17 -0.079591785228018769 0 
0 0 -8.6736173798840355e-19 0 
0 0 0 0 
0 0 0 0 
-0.029639309956966793 0.086325459529875428 0 0 
-0.11536797917857697 0 0 0 
0.25184637205953564 -0.17905116506737673 0 -0.30636932399067562 
1.1465603952448284 -0.35344074849348806 0 0 
-0.053989413108449215 0 0 0.76213933596667593 
0 -0.076214837843741459 0 -1.3877787807814457e-17 
0 -0.1113086666208712 0.13122205070518878 0 
0 0 0 0 
1.9949319973733282e-17 -1.0408340855860843e-17 0 0 
0 0 0 0 
-0.039329546439995318 -0.53535965831131826 -0.13469178406933363 0.54658328708850845 
0 0 0 0 
-0.1193416790499352 0.41670719714803062 -0.057265989846906389 -0.54958061129114477 
0 0 0 0 
-0.15967695186101835 -0.14301552108212884 -0.47587576954017718 0.50092450486114593 
0.19767989842453179 -0.20589661278125024 0 0 
-0.43847667684435981 0.46556418658329374 -0.037898235889860465 -0.083599677277676018 
0 0 0 0 
-0.19558528908697176 0.19918191581163699 -0.11178094662933016 -0.13632574373232459 
0 0.077809461436779401 0 -0.061005275619331362 
-0.088258354936851996 0 0 0 
-0.34594105041137074 0.085711139655065605 0.34083119093001174 0.2712388105637597 
-0.58776550295776164 0 0.79984475835299762 0 
1.0076133753348477 -0.92720222027589727 -0.65326183524956571 -5.0740661672321608e-17 
-0.28793484429505262 0.27282203667636962 0 -0.099308452253766638 
-0.088625859231048737 -0.18131973493295858 0 0.04597019921747196 
0 0 0 0 
-0.1675405179084995 -0.30999404501608085 0.22040251223350138 0.34060727239441346 
-0.40035145638804315 0 0 0 
0 0 0 0 
0 0 0 0 
-0.27703493987702343 1.1191546436271222 0 -0.52697952062613207 
0 0 0 0 
0 0 0 0 
0 0 -0.0041160790946592925 -1.3010426069826053e-18 
-0.097077089254846316 0 -0.33789336129024317 0.39483067009161121 
0 0 0 0 
0 0 0 0 
-0.31920273358021084 -0.13516099842100043 0.63915975386963264 0.15441723031488139 
0 0 0 0 
0 0.16483186054444521 0 -0.43580591464367258 
0.12846976933160992 -0.048205336711275623 -0.35651917550284778 0.24396131292721504 
-0.40433015537964129 0.46437194008185445 -0.24837544436477715 -0.3308422566494848 
0 0 0 0 
0 0 0 -0.12475349539619736 
0.50366364958874932 -0.65925212866112559 -0.026079327210330454 6.9388939039072284e-18 
-6.9388939039072284e-18 0 -0.050377044742185982 0 
0 0 0 0 
0 0 0 0 
0 0 0 0 
-0.10696729594579514 0.31421891982002176 -0.14061420765008661 -0.20165629741847987 
1.0943457224594793 -1.14698156155812 -0.84166374977240066 0.2789871162699975 
-1.3287998949476461 0.038538991236435796 0 0.62694452543381884 
0 0.055481583616085496 0 0 
0 0 0 0 
0 -0.22632258260644467 0 0.38749885564162184 
0 -0.016874959465072489 -0.057781343476562469 0.17143709029593426 
0 0 0 0 
0 0 0 0 
0 0 0 0 
0 0 0 0 
0.1084941500814969 0 -0.088446549016775414 0 
0 -0.29104815736131973 -1.0408340855860843e-17 0.050311434120063253 
0 0 0 0 
0 0 0 -0.020062180305761776 
0 0 0 2.7755575615628914e-17 
-0.11461370780707505 0.02556172630123827 0 0 
-0.12879051813861234 0.23337824921256758 0 -0.071698046381948211 
0 0 0 0.20060106538345113 
0 0 0 0 
-0.2695857642938651 0.14258199816329648 0.020363008180798503 -0.059593290704475603 
0 0 0 0 
0 0 0 0 
-0.046915581803770035 -0.37347842861059871 -0.10461344418681662 0.5865315049909966 
0.28752612280616008 -2.7755575615628914e-17 0 -0.11069245278724402 
0.38230020364114176 -0.078327921688244734 -0.42373820810632101 0 
0.39222717638626003 0 -0.28460019673877862 0 
-0.15706952092232684 0 0 0.020692930347813155 
-0.056429907388137544 -0.11875935719257755 0.044237052856300189 0.10341654151720034 
0 0 0.22090522774557736 0 
0 -0.068842229429236498 0 0 
0 0 0 0 
0 0 0 0 
0 0 0 0 
0 3.4694469519536142e-18 -0.38442914848608128 0 
-0.014486083513815886 0.60881670483999295 0.17811048730601425 -0.21277771634791576 
0 -0.2042942437816983 0.16570857984637494 0 
0 0 0 0 
0.0044118106693869031 0 0 -0.93095787211590586 
0 -0.20478618693940609 0.23672516548683775 0 
0 0 0 0 
-0.32403767669393624 0.42686588346579962 -0.21797916126752967 -0.42381280067840693 
-0.19816551618041614 -0.098992198691601724 0.39461923048232689 0 
0.42940742100627244 -0.23021488074211027 0.28097058199578084 -0.21817996149423005 
-0.4769493155467634 1.2298128604988503 -0.32003552405703184 0.2171650901810469 
0 0 0 0 
0 0 0 -0.21687028998036678 
0.34661500897417613 -0.077842349353077753 -0.35576830374547797 0 
0 0.5605391959718109 0 -0.049280551750062802 
0 0 0 0 
0 0 0 0 
0 -0.22241929876605382 -0.0925187762327844 0.10161668549837381 
0 0 0 0 
0 0 0 0 
0 0 -0.096770627555579192 0 
-0.22624624740186849 0.33364715465305012 -0.18985890354668791 0 
-0.11927062921487949 0.14110212203190881 -0.080687947242697081 -0.048179649629446292 
0 0 -0.062315651031083448 -0.19506446622391196 
0 0 0 0 
0 0 0 0 
0 0 0 0 
0.2075775226654476 -0.28861689588439365 0.26917113351395949 0 
-1.7347234759768071e-18 -0.054628563103731195 0.08340355104487171 0 
0 0 0 0 
0.40860873229449923 -0.26879161978410099 0 0 
0.037619174521935111 -0.21705492752912137 -0.16397817784458116 0 
-3.4694469519536142e-18 -3.4694469519536142e-18 0.36574845483129614 3.4694469519536142e-18 
0 0 -0.1933708467995312 0.33153468776520678 
0 0 -0.16245278263719479 0 
0 0 0 0 
-0.49149335497733559 0 0.44630983453659001 0 
0 0 0 0 
0 0 -0.29252788956255871 0 
0 0.0067698523136711097 -0.016747755966813167 0.38797469627943426 
0.11797755671778914 -0.1033853912661843 0 0 
0.046607306628529487 -0.09057786639010755 -0.15432173008970879 -0.17942341072020235 
0 0 -0.029313022631681358 0 
0 0 0 0 
0.13351090465808094 -0.16229883371254045 4.3368086899420177e-19 -0.015859753990834832 
-0.094820523084294936 0.13996936004607108 0 0 
-0.23890725057675524 0.087244118227976661 0 -0.020145595990558374 
0 0 0 0 
0 -0.28768897234977253 -0.23128706304089938 0 
0.046844875184531669 0.045542560428031426 -0.44762357843292161 -0.11513421773964355 
0.72930286713013692 -0.12389286066345347 -0.26060744383756396 0 
0 0 0 0 
0 0 0 0 
-0.56333399808971096 -0.19483651661964665 -0.16163106811582634 0.61383881340526525 
-0.1484749793098683 0.37559228364853181 -0.032114572443837336 -0.28447240597473156 
-0.58323205620877383 -0.92063445030179403 0.72307280724986644 0.46797305584400289 
0 0.40772147836248412 0 -0.2708131942755686 
0 0 0 0 
0 0 0 0 
-0.14155738901242462 0 0 -2.6020852139652106e-18 
0.24773231626301223 -0.75951934217902184 0 0.64508893504419496 
0 0 0 0 
-0.22153628824112925 0 0 0 
0.11751437184909634 -0.09926998010761301 -0.082446079250721602 1.7347234759768071e-18 
-0.527999421781012 0.65929549430823353 -0.32681118887404553 -0.4271108660208402 
0 0 0 0 
-0.38419308825214893 -0.091808943004028948 -0.029435050431748398 -0.090937093141260916 
0 0 0 0 
0 0 0 0 
0 0 0 0 
0 0 0 0 
0 0 0 0 
0.4393063965848481 -0.0055663253970090198 0 0 
0.64066400410682034 -0.40620711191529202 -0.058005483941755295 0 
-0.16636083273298549 -0.0060150624998811016 -0.028941480210907377 0.14694266239675158 
-0.11386552128546933 0.24682909799033365 -0.23511306160689305 -0.17253680094595711 
0.12529211907163493 -0.23078889931904079 0 0 
0 0 0 0 
0 0 0 0 
0 0 0 0 
0 0.87666743260464364 -0.13153175339802956 -0.34736093900846005 
0.2091819107230542 -0.27668458457800987 0 0 
0 0.10360773858343782 -0.10978810267675322 -0.082701579009704831 
0 0 0 0 
-0.14841800296825147 0.050611224181485857 0 -0.027988846691231316 
0 0 0 0 
0 0 0 0 
-0.025701111444697632 0.18963293709715032 0 -0.0071821501583502704 
0 0 0 0 
0.064845828700302449 0.089292208721396829 -0.36407218975339894 -0.7094261071327399 
0 0 0 0 
0 0 0 0 
0 0 0 0 
0 0 0 0 
0 0 0 0 
0 0.16332643072289069 -0.08745968700200131 0 
-0.20909056318560632 0 0 0 
0 0 8.6736173798840355e-19 0 
0.23637639674873831 -0.099818884736087715 -0.16487031289026507 -0.052221909388482292 
0 0 0 0 
0 0 0 0 
3.4694469519536142e-18 -0.61310645477318171 -0.083409824426359316 0 
0 0 0 0 
0 0.083858935641357185 0 -0.22837976803275797 
-0.37330940847253746 0 0.403012919343335 -3.903127820947816e-18 
0 -0.2017337476245144 0.079851153976590941 0 
0.42646113241664085 -0.23200595867793508 -0.12912649370831619 0 
0.025230049327527915 -0.10715928708849436 0.23218024539507673 -0.24926133822421345 
0 0 0 0 
0 0 0 0 
0.36249145268370009 0 0 -0.097068512050514186 
-0.044543281520412273 0 -0.081872051659605344 0.060028839801558619 
0 0 0 0 
0 -0.33396453215931748 0 0.071645686738473935 
-0.038976551347783821 0.16871625514001928 0 -0.056447057731663551 
0 -0.4255675818128995 0 0 
0.64723719050191564 -0.91013987371631255 0 -0.1212794649280494 
-0.023566238935382313 0 -0.13430788390504067 0 
-0.01464059648544808 -0.1910139210825027 -0.11418596168565975 0.22542309979555161 
-0.026181390939208966 0.24335600375708771 0.15027381082653599 -0.15896303744294119 
0 0 -0.33167380517413425 0 
-0.79095909127427655 0 -0.093934368069913177 0 
0.071150099272072193 -0.26762459806081823 -0.036916634075222915 0 
0.099085234813449163 0.07440534958697187 -0.10838173982326904 -0.29682304714490726 
0 -0.82603486295361694 0.44927801822236418 0 
0 0 0 0 
0 -0.38071250423986891 0 0 
0 0 0 0 
0 0 -0.86194918273469467 0.31387033424861926 
-0.040961033376136873 0.49593538959130962 0 -0.0050763509404665973 
-0.064894229873303275 0 0 0 
0.30149914144449819 -2.6020852139652106e-18 6.9388939039072284e-18 0.19011630614535274 
0 0.41897270514598645 0 0 
0 0 0 0 
0.30371243860431113 0 0 -0.20388939062551065 
-0.22717444887940275 0.082424796203784845 -0.03736786989154002 1.3877787807814457e-17 
0 0.058708275885785643 0 -0.1195101514897223 
-0.12594495620598417 0.17649432648268787 0 6.9388939039072284e-18 
0 -0.036471539065145421 -0.0091519621198785268 5.2041704279304213e-18 
-0.33752012353685268 -0.28067001265799585 0.45185228182152809 -0.031364601387157784 
0 0 0 0 
0 0.099564622114657803 0 -0.15137975687479993 
0 -0.020676705584291303 0 0 
0.3157680872627785 0 0 0 
0 0 0 0 
0 0 0 0 
0 0 0 0 
0 -0.19099332514450204 -0.021591758496429029 0 
0 0 0 0 
0 0 0 0 
-0.11589476473106435 0.059348263306691199 0 -0.099640555578171516 
-0.48218200608886691 0.7640721031195159 -0.082568415835401643 0 
0 0 0 0 
0 0 0 0 
-0.14142899409779397 0.559746327473014 0 0.51110694726101691 
0 0 0 0 
-0.18745817708449483 0 6.9388939039072284e-18 1.7347234759768071e-18 
0 0 8.6736173798840355e-19 -0.024841363408381952 
0 0 0 0 
0 0 0 0 
-0.085105246233249748 -0.18343323554277324 -0.0002766158932562716 0.28579117236008089 
0 1.3984336296123789 0 0 
-0.22870635290018956 0.0439677796284524 0 0 
0 0 0 0 
0.74027288302770178 -0.56492474138976267 -0.14907678431508492 -0.055123097851444883 
0 0 0.5978385682747156 -0.36493642262029352 
0 0 0 0 
-0.37296775807754795 -0.27344825810847018 -0.089110270285745197 0.39560940858456117 
5.2041704279304213e-18 0 -1.1401402674941772 0 
-0.0097249238134835859 -0.018573529131519474 0.17665988258827603 0 
0 0 0 0 
0 0 0 0 
-0.23351441195420986 -1.3877787807814457e-17 -3.4694469519536142e-18 -0.1600135979462784 
0 0 0 0 
-0.47572403078266395 -1.7310878221179684 2.2835368592362899 -1.9262391917029227 
0 0 0 0 
-0.086326845623660525 0.36546448968231537 -0.34110525244753365 -0.079832830017015299 
0 0 0 0 
-1.1810945670433777 1.0570226034555297 0 0 
0 0 0 0 
1.7347234759768071e-18 0 0 0.022093489528927732 
-0.28493659581650083 0.048792633320282698 0 0 
1.1236348536640342 0 0 -1.0209264706794079 
0.26731410858909821 -0.32936220470188038 0.46208023216097543 0.10401872571373462 
-0.10206493843892166 -0.054454454626519967 6.9388939039072284e-18 0.017186417754441616 
0.57093510655318525 -0.93969350743228119 -0.31739476058034088 0.28332853691526777 
0 -0.13002313375316149 0 0 
0 0 -0.0045350431725186165 0 
0 -0.22503460578047926 0 0 
0 0 0 0 
0 -0.066603475770370471 0 0.36313849147659127 
0.40940338366580092 -0.16651056419624746 0 -0.21354894909852204 
-0.21858915918611699 -0.43126778337403837 0 0.65038004228400281 
0 0 0 0 
-0.23046326985904095 0 -0.19845635636005676 0.4868496844497 
0 0 0 0 
-0.051988008428945867 0.10313146511596685 -0.49109421383888768 0.21180948063619023 
0 0 0 0 
-0.11842403713912172 0.2119759653201499 1.9081958235744878e-17 -0.21326348937582648 
0 0 0 0 
0 0 0 0 
0 0 0 0 
0 0 0 0 
-0.37623717293321107 -0.02710775956852193 0.21513360967796399 0 
-0.26008611341764287 0.26571385219854204 -0.043815104783309196 -0.015330010476630412 
-0.22915579674716352 0.15191246863876456 0.02122798794170699 -0.093722150684706101 
-0.0015649691678172946 0.049995907934955425 -0.15130175579267488 0 
0 0 0 0.48983681271058094 
0 0.28817227842418225 0 -0.47009764273756893 
0.14198957387077268 0.1777161547215993 0 -0.044503368514415644 
0.94502989409767602 -0.4063526985713426 0 -0.15237746671218372 
0 0 0 0 
0 0.29696487190230142 -0.18880619234951618 -0.042543185001738551 
-0.022654886979938126 0 0 0.10881930402028529 
0 0.36270447039015091 0 0 
-0.058133656926992884 -0.50894927045818128 0 0.68340970689200253 
0 0.49898689625137027 0 -0.49268565325100244 
-3.4694469519536142e-18 3.4694469519536142e-18 -0.028301043927386114 -0.070160157393637651 
0.11140936832794016 0.22386046312769917 -0.19204058242370203 -0.16030427383104662 
0.32977683442491112 -0.42053163287694989 0 0 
-0.12976573658891027 0.19242072763020618 -0.17873301139799669 -0.0043965039414371864 
0 0 0 0 
0 0 0 0 
0 0 -0.072149133745895336 0 
-0.034894730290761171 0.072724891707528841 -0.23499187847467456 -0.15896483176582962 
0 0 0 0 
0 0 0 0 
0 0 0 0 
0 -0.22367039149715481 0.11593293889032799 0 
0.17456398838887946 0 -0.12457476729721832 0 
1.0667554399901245 -1.314015999237043 -0.2485747135863384 -0.42878036030914102 
0 0 -0.0069337142159990222 0 
-0.15814002894570711 0 0 0 
-0.31820044035671313 -0.0057250361008992301 0 0.49141153950237476 
0 -0.1506491371721799 0 0 
0 0 0 0 
0 0 0 0 
0.46297655656892828 -0.78717336166278895 -0.24770045526780482 -0.085088825046282623 
0 -0.17630770491343786 0.37482376382920601 0 
0 0 0 0 
0 0 0 0 
0.22723018794639016 0 0 -0.13213773216296235 
-0.052177297961105984 -0.19714182953405429 -0.12903253040575915 0.1808381297051404 
0 0 0 0 
0 -0.057097622564248156 0 0.081570963179830189 
-0.017293677616821351 0 0 0 
0 0 0 0 
2.009847041882896 -0.75923439387484071 -0.56810504024288011 -0.71781101618872178 
-0.014349758610693035 0.0020814370638952699 0 0 
0 0 0 0 
0 0 0 0 
0.89071776213945797 -0.94331598569058794 0.18428965180491097 -0.54308900726857745 
0 -0.25838860596995783 0 0.1479540809466455 
0 -1.5524788682912258 1.4637468325319072 -0.18139364637136476 
-0.01464059648544808 -0.1910139210825027 -0.11418596168565975 0.22542309979555161 
-0.069126383395615887 0.20779908412429302 -0.15223197474145725 -0.23967885823620266 
-0.15526370154943939 0.40385812072804395 -0.043022550426573027 -0.11294931135956648 
0 0 0 0 
0.067264928444265737 0.31377942927250541 -0.16661068787338607 0.50833773649734393 
0 0 0 0 
1.0745902695639655 -0.61529477328368232 -0.59033517850102835 -0.28734286014438765 
0 0 0 0 
0 -0.065810003463582373 0.20653811875017442 0 
0 -0.044828943128161151 0.085004418981035168 -0.25033254805051058 
-6.9388939039072284e-18 -0.019894429081369208 -0.20849666933927483 -0.11768783102946388 
0.26627455754282203 -0.40353990878706208 0 -0.0094398271556080833 
-0.1421241389201304 0 -2.0816681711721685e-17 0.044145315691575739 
0 0 0 0 
0.023272602562691765 0.42801222045857146 0.27086142960271359 -0.048915617690769721 
0 0 0 0 
0 0 0 0 
0.2182874923190195 0.31042255476103697 -0.32190589664724539 0.25233699248216784 
0.60571441055281672 -0.59878483236333202 -0.032252734543146991 -0.05878759151801255 
3.4694469519536142e-18 0.44624434466044316 -0.094032149416051147 -0.055119362066103551 
0 -0.018923702079741048 0 0 
-0.013534400180444031 0.094509320351018181 0 0 
0.037236477461075085 -0.050210813146405603 0.091876303580586877 -0.11635800970450115 
0 0 0 0 
0.6071157629906978 -0.60044700357968894 0 0 
-0.1095890410958904 0.1095890410958904 -0.1095890410958904 -0.1095890410958904 
0 0 0 0 
0 0 -0.0083973572214686015 -0.11774720325960381 
0.015293619410300068 -0.15013302807842249 0.12822865047734394 0.13777443289857008 
0 -1.3877787807814457e-17 0 0 
0.19636254892618576 8.6736173798840355e-18 -0.038273183939838321 -0.13555149437304065 
-0.032094614344404158 0 0.083039226539237426 -0.010354849003650463 
-4.2500725161431774e-17 -0.16412307948089785 -0.022265521869049509 0.17432668994146372 
0 0 0 -0.089154898068603813 
0 0 0 0 
0 0.049450127158692944 0 0 
0 0 0 -0.068383265440248697 
0 0 0 0 
0 -0.067487165913479766 0 0 
-0.55093584374927707 -0.0060770423818682718 -0.094827297931764393 -0.23053104803890678 
0 0 0 0 
-0.10054960670188107 -0.25617607604224729 -0.0014312093470566032 0.53839618912617293 
-1.2605657756166386 -0.75816485285167812 -0.90777335290878125 1.5395380238996261 
0 -0.1071592870884943 0.3087303977013664 -0.24926133822421351 
0 0 0 0 
2.325613659981407e-17 0.44097043995181007 0 0 
0 0 0 0 
0 0 0 0 
0 0.12274183662822771 0 0 
0 0 -0.20564720565929021 0 
0 0 0 0 
-0.2923641118459771 0.26525621896726259 0 0 
0.66929350588612058 -0.76880059038042026 0 0 
0 0 0 0 
0 0 0 0 
0 0 0 0 
0.35342207371188333 0 0 0 
0 0 0 0 
-0.029745854210920148 -0.3229254781611598 0.080195425078924201 0 
-6.9388939039072284e-18 0 -8.6736173798840355e-19 5.4210108624275222e-18 
0 0 0 0 
-0.029251819100920923 0 0 0.0086084271336761241 
0 0.14496002663451613 0 0 
0 0 0 0 
-0.27148646019143297 0.15505760558859516 -0.027557240869264015 -0.18855594853444949 
0 0 0 0 
0 -0.046804250461965916 0.010949212203649843 0 
-0.045116303463501067 -0.16303677451632226 0 4.5536491244391186e-18 
0 0 0 0 
0 0 0 0.031449834442714347 
0 -0.11852177488039597 0 0.014304568144094056 
0 0 0 -1.7347234759768071e-18 
0 0 0 0 
-1.4021691573198871 0 1.7347234759768071e-18 0 
0 0 0 0.1558079090033106 
0 0 0 0 
-1.3843337008754493 -0.030666369172763677 0.26613476998807606 1.0442348039065126 
0 0 0.034744642826035559 0 
-0.11710075128524805 0 -0.11354666552073445 0.071042253280986012 
-0.24783368063767089 0.49609656711388606 0 -0.059907648597641742 
0 0 0 0 
1.3877787807814457e-17 0 3.4694469519536142e-18 0 
0 0 0 0 
0 0 0 0 
0 0 0 0 
-0.12847739833632232 0.17152362082720668 -0.0088731752115849688 -0.0096137412579677586 
0 0 0 -0.31823620337889158 
0.19767989842453179 -0.20589661278125024 0 0 
0 0 0 0 
0 0 0 0 
0 -0.00019374429969471943 0 0 
0.14867739654249762 -0.18045399010426474 -1.7347234759768071e-18 0 
0 0 1.7347234759768071e-18 0 
0 0 0 0 
0 -0.32901060084946609 0 0 
0 0.25300455393042243 -0.33485866068707232 -0.16541205673373394 
-0.16180825949768354 0.16969560357667751 0 -0.0035989989772958514 
-0.17019042583935001 -0.19170154080559107 -0.08291031907757232 0.3488485810725645 
0.13691315749190766 0 0 0 
0 0 0 0 
0 0 0 0 
-0.075045213172859809 0.16927506046633056 -0.058601480385963113 0 
0 0 0 0 
0 0.64834312607813915 0 -0.46683124687310096 
-0.1095890410958904 -0.1095890410958904 -0.1095890410958904 0.1095890410958904 
0 0 0 0 
-1.0408340855860843e-17 -6.9388939039072284e-18 0 0 
0 0.1662045172213116 0 -0.068908213542725319 
0 0 0 0 
0.18734592990230042 0 0 -0.33835553869030333 
-0.17025666222826985 0 0 0 
0 0.48008049638081762 -0.31075381152766979 0.19092732413277916 
-0.060427552621602307 0 0 0 
0.4218323342525892 -0.29662271064224516 0.11073893741714959 -0.17774960870807407 
0 0 0 0 
-0.13527762512526501 0.0013476556412133124 0 0 
0 -4.9114358413593351e-17 -1.0408340855860843e-17 0 
0.43260318260129826 -0.52495507109280459 0 -0.16402485091409735 
0 0 0 0 
0 -0.83890115811876342 0 0.83980832600952049 
0 0 0.76033748318728889 -0.38869128262862451 
-0.0021838162307213343 -0.10112827836405147 -0.50478614271316424 0.12316782645999656 
0 0 0 0 
0.31926258664573415 0.24140092187911869 0 -0.27247669361162513 
0.57033671213655968 -0.41796275770572183 0.043878185349196387 -0.50887824280036875 
0 0.24966672149500538 0 -0.51789877827796693 
0 -0.74914851450269782 0 0.5177137868464976 
-0.35875404823230295 0.40764251274613961 -0.18073977908346323 -0.11392236549031566 
0 0 0 0 
0 0 -0.28539107728059571 0.24572292634120393 
0 0 0 0 
0 0 0 0 
0 0 0 0 
-2.7321894746634712e-17 1.5395670849294163e-17 -0.011403390974327186 1.0191500421363742e-17 
0 0 0 0 
0.16838082197925267 0 -0.22576639201617762 0 
0 0 0 0 
0 0 0 0 
0.073114046409346198 -0.038241922345095311 0 -0.042078447167587643 
0 -0.089500087661987443 0 -1.3877787807814457e-17 
0 0 0 0 
-1.0842021724855044e-19 0 1.7347234759768071e-18 0 
0 -0.2390544160139895 0 0 
-0.07180632570153811 -0.097668045212980448 0.25188373552085597 -0.10614680818500684 
0 0 0 0 
0.37193175259607214 0.58494506290446302 -0.93162815687933975 -0.61963254601577267 
0 -0.19352019376469073 0 0 
-0.48218200608886691 0.7640721031195159 -0.082568415835401643 -1.0408340855860843e-17 
0 0 0 0 
0 0 0 0 
0 0 0 0 
0.14090865198696809 0.025429821481540799 -1.3650813780831175 -0.19889052401141122 
-0.16646313661521547 0.38738157730694373 0 0 
0.160789634915113 -0.00067306951673916891 -0.18023244765556687 -0.070328242855688755 
0 1.5897873720428761 -0.16778334809289175 -1.3877787807814457e-17 
0 0 0 0 
0 0 0 0 
-0.055934754315904708 -0.0039760172016787285 8.6736173798840355e-18 -0.036207322690423316 
-0.27353095623312162 0.38640731565000058 -0.091829901821789461 -0.066721901856210949 
0 0 0 0 
0 0 0 0 
0 0 0 0 
-0.13180184842225048 -0.1468031871464256 -0.26353678496943855 0.20954611793978478 
0 0 0 0 
0.084442328653312942 0 -0.047830269283106207 -0.06504961561493941 
0.31788543829404103 -0.12266113407953227 -0.081178670889422461 0 
-0.14267455793892875 -0.55596563675354704 -0.13770177740821449 0.80253857641826709 
0 0 0 0 
-0.05311493082616188 0.30261788821342722 -0.1790166218527805 0.052829606042796566 
0 0 -0.089201320165369385 -0.31282780665313525 
-0.016226812016752058 -0.43588189613719286 -0.14548155696668252 0.65607678599541974 
-0.37373929947443529 -0.65870532629586231 0 0.83974348302761059 
-0.06171517696587811 0.23512600022970959 -0.0092240265404970375 -0.22146121605031419 
0 -0.10494176675098571 0 0.14100058351664058 
-0.043185222064487758 0.024302525743491486 -0.13754239994765721 -0.009188287626362231 
0 0.48114049431411299 0 -0.36811804900727269 
-0.15202753496065924 0.1404138825751248 -0.22073242130123139 -0.30925811822001392 
1.7171927618690728 -1.2863624827444915 -0.40497760504797964 -0.26755550391204197 
0.3443924071406419 0.36330665991042216 0.13227762388395914 -0.1994834197073711 
0 0 8.6736173798840355e-19 0 
0 0 0 0 
3.4694469519536142e-18 0.0048351338746731171 -6.5052130349130266e-18 0 
-0.32051265086196223 -0.042950454392612622 0.60818953081972649 0 
0 0 0 0 
0.06884249597584341 -0.054772527639936987 -0.018822555461522689 -0.0045111528514544729 
0 0 0 0 
0.27950654699451916 -0.32981743322663881 0 0 
-0.43921743919503609 -0.8930038708050374 1.3462360330232199 -0.2883345959114299 
-0.15323608085318602 0.13328393006825001 -0.46335348828861578 0.13253036986850386 
0 0 0 0 
0.22195172454318357 -0.1240103695317052 -0.026718544212945235 -0.080244236138774988 
0 0 0 0 
0 0 0 0 
0 -0.11199094091248321 0 0 
0.21424093024801741 -0.08719709510317071 -0.29216650423491702 0.10278335341614833 
0 0 0 0 
-0.26674521250829453 0 0 0.48038662440364888 
1.4499925871452406 -1.2827287975952673 -0.17899012461787994 0.050022253691291665 
0 0 0 0 
0 -0.040643030795778676 0 0.36966301121120304 
0 0 0 0 
-0.22807547067976511 -0.24990595441481689 -0.064084868481261492 0.48057515272818152 
-0.23031467288025009 0.54633819923724813 0 -0.3482566183424235 
-0.24228266513401486 1.3877787807814457e-17 -0.0077671655745353329 0 
0 0 0 0 
0 0 0 0 
0 0.69146965269104466 0 -0.015816153707359552 
0 0.47890202688813355 0 0 
0 0 0 0 
0 0 0 0 
-0.4195401953894124 0.59875351461345949 -0.38969305494608808 0 
0 0 0 0 
0 0 -0.14684424666234874 -0.041415911951469139 
-0.12219486392141982 -0.0043797800116549762 0 0.48846015742908111 
0 0 0 0 
0 0 0 0 
-0.23552809012412859 -0.071668737919235032 0.15552641183759938 0 
-0.16250527997978978 0 0 0 
-0.010836778059721138 0.053811166072993903 -0.19700540581133263 -0.13360499882476598 
0 0 0 0 
0 -0.077079861992138579 0.21513786843877195 0 
0.26036036794086737 -0.21387047263533676 0 0 
-0.075835727061291727 0.46558417316559836 0.043089186719417263 -0.51302486795088198 
-0.078915612421964015 0.24165386928109248 -0.09638984198161886 -0.020345595299040332 
0 0 0 0 
0 -7.8062556418956319e-18 0 0 
0 0.4144770287532562 0 -0.42826397115533521 
-0.60040424395312242 0 0 0 
0.4293219634172839 -0.052901237904695066 -0.23827561261620284 -0.59409113761638466 
0.2450978081658238 -0.2943753394222805 0 0 
0 0 0 0 
0.098523934094109825 -0.2228439553609522 0.13394892137631231 0 
-0.33259542254691238 -0.39081081418195457 0.019175630737445395 0.16112982041151244 
-0.11557718940899644 0.35097184408612375 0.1705073151854157 -0.22400324219780118 
0 0 -0.20812450521408746 -0.018334550566402669 
0 0 0 0 
-0.072145465288684818 0 0.076635909994565252 -0.14669440332099665 
0.12925682621361617 -0.096560909089052141 -0.031147918793166269 -0.041205297731328881 
-0.040784645019381241 0.070737330175066629 -8.6736173798840355e-18 -0.079050688630005542 
0 2.5045070184415152e-17 0 -6.7220534694101275e-18 
0 0 0 0 
-0.009075221253906026 0 0 0 
0 0 0 0 
0 0 0 -0.67896925838952726 
0.52678385033598607 0 -0.44468615534883932 0 
0 0 0 0 
0.19871489881455945 0.48803397499040163 -0.69025280442737313 -0.61999264585406366 
0 -0.2970357224852585 0.17934968558275463 0 
-0.18757319077639029 0.37412446434052593 -0.094001224246951218 -0.09154507659704679 
0 0 0 0 
0 0 0 0 
0 0 0 0 
0 0 0 0 
0.022223315936857217 -0.0010440178968744345 -0.090359667318780215 -0.035942786631509932 
0.27859689034167456 -1.061552012080853 0.17137075712956543 0.036322973785175031 
0 0 0 0 
0 -0.27281133992162865 0 0.25391385416304202 
-0.31148278570712912 0 0 0.081563848755219534 
-1.078414188703922 -0.19168025730977073 0 1.1129669342787449 
0 0 0 0 
-0.19356109187575174 0.5685297251354039 -0.27884717051498564 8.2399365108898337e-18 
0 0 0 0 
0 0 0 0 
-0.31317942768971485 0.95200977304215106 -0.82867687359086128 0.39427997778351459 
0.10036543175128865 0 -0.37629830816013032 -0.10812082571232115 
0 0 0 0 
0 0 0 -0.010691833224529974 
0.54656038449940647 0 0 -0.38931041478730466 
-2.7755575615628914e-17 -0.033026849782425295 -0.23340632701086558 0.31265318284993188 
-0.41404120624235574 0.54577155040284087 -0.0016472964511419573 -0.085026884341787123 
0.67852362247133924 -0.54593113049242359 -0.073319512194668229 -0.22677747193808148 
0.18004861830105076 -0.28011376280602579 -0.18609268987434263 -0.10149470050947154 
0 0 0 0 
-0.008193327749104494 -0.26572263017365583 -0.027674305426914906 0.15806648994602326 
0.50785050068828752 -0.57212729430562048 0 0 
0 0 0.065075529982899297 0 
0.18900678123017639 0 -0.28663009785604515 0 
0.43456703569670319 -0.035983104688156048 -0.019924634077236499 -1.7347234759768071e-18 
0 0 0 0 
-0.58008301208556623 0.61568195061802466 -0.45853088056313968 -0.28238361807865925 
0 0 0 -0.0097229036188290659 
-0.0001974870412761469 -0.1903389612327154 -0.38140809761847921 0.9133570180166739 
0 0 0 0 
0 0 0 0 
0.063171256370923051 -0.13686085942232531 0.16495188207916117 -0.33798310410857774 
0.07377171626328044 -0.081747947164474075 -0.011853102332806282 0 
0 0 0 0 
-0.15791893363641152 0.28291421704199926 -0.17126810486827657 -0.20903193810771162 
0 0 0 0.038033231742649783 
0 0 0 0 
2.4286128663675299e-17 -0.035983104688156159 0 0 
0 0.47922787887009188 0 -0.43590046000370158 
0 -0.15370183230485798 -0.035684805374242567 -0.033270864451458798 
-0.52662475116496132 -0.16834691845499711 0 0.81756651966809724 
0 0 0 0 
0 0 0 0 
0.0091612070057066342 0.045204360593171976 -0.21032850542636689 0 
0 0 0 0 
-2.7755575615628914e-17 -0.031493427403500196 0.22227946367051346 0.25039362683034477 
0 0.1373038948753405 0 -0.15677913461225021 
-0.51081400870075733 0.68107756564995037 -0.15447273892714744 -0.38263611892967303 
0.58438611545419605 -0.22618527780605532 0 -0.23916836138715969 
0 0 0.10486055785089123 0 
-0.094828056447995121 0.073753949219775822 0 0 
0.33140932668300715 -0.22318007111228697 0 -0.020274403920392287 
-0.096326405039814225 0.37409858873354451 -0.2541924020098007 0 
0.15192624128755608 0 -0.25613986438955572 0 
0 0 -0.14523912234122871 0 
0 0.23722898073784582 0 -0.24200465315030467 
-0.28598912670166887 -0.052037690351101659 0.52708645768236173 -0.11294079365541024 
0 0 0 0 
0.34461662714786623 -0.34452270945989549 0 0 
0 1.4932874065299606 0 -1.4525933222637735 
0.0092806608833581137 -3.2959746043559335e-17 -1.5612511283791264e-17 4.3368086899420177e-19 
-0.12667808106052569 0 0 -0.029435248420929563 
-0.344119755142203 0.36609988686467182 0.42878798993839584 -0.42735787293405963 
-0.29549361914811689 0.080885869275909794 3.4694469519536142e-18 0 
0 0 -0.0256192734709874 0 
0.023696619278064848 0 -0.27616705816735754 -0.054383304763857027 
0 0 0 0 
0 -0.15547767960251652 0.17546915117479905 0 
-0.1644394723827865 0.36203477417394947 -0.082270083825584775 0 
0 0 0 0 
-1.0952500133286471 0.7292448318732454 -0.49669634376963057 -0.20988039218331606 
0.28758304182116046 -0.1583871611159528 0 0 
-0.5830549525601314 6.9388939039072284e-18 -0.051555160115619156 0 
0.012208133017379864 -0.052337220469784437 0 0 
-0.27095448126178351 0 0 0 
0 0 0 0 
0 0 0 0 
0 0 -0.037898876797798652 0 
0 -0.14445551773807197 0 0 
-0.9714012112903031 1.1937038079936459 0 -0.31721600689006535 
0.32452761919795226 -0.24883181166358617 -0.1460244048131242 -0.25076299822917664 
0 0 0 0 
-0.21354111430197431 0.34586320868197196 -0.22703764257845246 -0.056683987399269012 
0 0 0 0 
0 0 0 0 
0 0 0 0 
-0.1863358511878439 0.54421355051785902 0 -0.16925341389859705 
0 0 0 0 
-0.31065242064808651 0 0 -0.21109760014887513 
0 0 0 0 
0 0 0.099985884071000453 0 
0 0 0 0 
0.61066832390005232 -0.29120223655904093 -0.029624398029392211 -0.21657148036015675 
0 0 0 0 
0 0 0 0 
0.067949460033257997 -0.027745533407705802 -0.26229074731927832 -8.6736173798840355e-19 
0 0 0 0 
0 0 0 0 
0 0 0 0 
0 0 0 0 
0 0 0 0 
0.13392388704750235 0 -0.079989021997707035 0.057390787007338198 
-0.21667414361891707 -0.56078097557255013 0 0.54256563890055709 
0 0 0 0 
0 0 0 0 
-0.34792857691535761 0.27992268316090474 -0.27840801691476236 0.11405724438720863 
3.4694469519536142e-18 0 0 0 
-0.055260321641190491 -0.34898030554167531 -0.040402415781020204 0.3543046371499759 
0 -0.095148638523187765 0.22885861426451296 -6.9388939039072284e-18 
0.40006848416045787 0.084212019380018321 -0.26728772093244829 -0.3195722369192866 
0 0 0 0 
-0.25219071541774829 0.39226836619909222 -0.28742801302005594 -0.32053659630954345 
0.28602454066204741 0 -0.25075259343700612 0 
-0.1863358511878439 -0.29318171626017936 -0.19746423878781391 -0.16529235294445993 
0 -0.034647031313967916 0 0 
0 0 0 0 
0 0 0 0 
0 0 0 0 
-0.35137025761206875 0.18999753000552183 0.24236343167124097 0.035796037552848291 
0 0 0 0 
-0.16505985961260133 0.076388061569123436 0 0 
0.63254280959869558 0 0 0 
-0.14629862445004582 0.36056091168064164 -0.13280225338717419 -0.38991388167440771 
0.10484526752889683 -0.12308769530528901 0 0 
0.12666555353627426 -0.052398203961292612 0 0 
0 0 0 0 
-0.086226165260366819 -0.029119841913486103 0.068041765393583017 0 
-0.93543371682691512 0.86003003804329869 0 -0.17541932195589854 
-0.52947745817099146 -0.16902901858260078 0.61700566780965549 -0.41586777289064475 
0.17848478476129676 -0.072416716483927765 -0.12574471844730575 0 
-0.38778627087218631 -2.1684043449710089e-18 0.0016861147595514147 -0.035140203465078401 
0 0 -0.047418056483396809 -0.0037760915708875344 
4.3368086899420177e-19 0.0075241238565864916 0 1.7347234759768071e-18 
0 -0.24530616346774184 0 0.46924461672507922 
0 0 0 0 
-0.15360508860523742 0.25411249638253025 0 -0.0038778588203437084 
0 -0.042069675269592606 0 0 
0 0 0 0 
0 0 -0.2555488542471176 0 
0.33057147085651323 0 0 -0.41732331010591089 
0 0 0.38235498690312025 -0.06941930293454146 
0 -0.16524182676801075 0.096272537415884624 0 
-0.15488596105623387 0.3222376674821068 -0.22199611419493104 -0.21758535289599429 
0.05789005976078232 -5.4210108624275222e-20 -0.15094936234067308 -0.54777672365685914 
0 0 0 0 
0 0 0 0 
-0.047323975796475098 0.76028490115623293 0 -0.24645120409486454 
0 0 0 0 
-0.38062420591398133 0.74077817669509272 -0.16137292027108158 -0.41598439717102387 
-0.036943052636294327 0.72235150834572515 0 -0.15543604770135402 
0.90520792809431649 -0.36089001328313836 -0.040234648653345327 -0.22596320161977929 
0 -6.9388939039072284e-18 0 -6.9388939039072284e-18 
0 0 0 0 
-0.25758015490849501 -0.10127018572758816 -0.14803002959474809 0.69935040949308047 
0 0 0 0 
0 -0.28320062451874273 -0.087459687002001268 0.40539090824308049 
0 -0.12593141617167108 0 0 
-0.15404268633962817 -0.27594788185867264 0 0.5953807202984962 
0 0.61741901548156508 0 -0.11039905308105806 
0 0 -0.034787701117267505 0 
-0.12137698984629705 0.23891013568368763 -0.30269269863160003 -0.20236299049377351 
0 -0.26481947548761969 0 0.17997227070157973 
0 -3.4694469519536142e-18 0 0 
0 0 0 -0.11327084004126749 
0 0 0 0 
0 0 0.088004709088514682 6.9388939039072284e-18 
0.077830367045639962 0 -0.53162025045991024 0 
0 0 0 0 
0 0.063587031545410386 0 -0.092113517663332978 
0 0 0 -0.357054276300655 
0 -0.23403221430823909 0.054004898354824117 -0.026264480824867785 
-0.58694529009208529 0.77428601192956958 -0.27563457431265764 -0.056231187724583617 
-0.71996027931557727 0.92399923780178184 -0.18237881946608353 -0.11980471727749724 
0.15932909146068414 -0.10344426728672894 0 0 
0 0.075774378375962376 -0.034834199782244502 0 
0 0 0 0 
-0.060512508960804914 0.10563320266818242 0 0 
0 0 0 0 
0 -0.42609577281738725 0.15004926435237798 0 
0 0 0 0 
0 -0.58055392397421701 -0.12747740218297746 0.60868629894942028 
-0.22126448011422578 0.30249835769695382 -0.2446513741268756 -0.19861741501113619 
0 0 0 0 
-0.24783368063767089 0.49609656711388606 0 -0.059907648597641742 
0 0 0 0 
-0.11964233611160963 -0.33051725288642608 0.53084887824486016 -0.078339943108588231 
0 0 0 0 
0 0 0 0 
-0.18468746159814417 0 0 0.24577209391308141 
0 0 0 0 
0 0 0.046248458721532458 -0.017921172550412503 
0.1070828676270754 -0.10177331821306047 -0.07912908843825027 -0.037664867023943956 
-0.050457691968500154 -0.60942454603840501 -0.15712101670643169 0.66687867985209492 
0 0 0 0 
-0.64974912286777253 0.21693446229671162 -0.060587535589911243 0 
-0.007670756671298796 0 -0.18961547843183924 0.17432399410648122 
0.14982973796570359 0 -0.30743069825311953 0 
0 0 0 -0.32501067247265758 
0 0 0 0 
-0.11074041588447091 -0.37826852159413815 0.30261840845616128 -0.087557603919633964 
-0.011442476942641196 0 0 0.16928789634999131 
0.038169355337267112 0 -0.1215702969990702 0 
0 0 0 0 
0 -0.13744427353104288 -0.0026737298121225178 0.13848569331497795 
0.26993141221107925 -0.1601497704133778 0 -0.25288628277979541 
0 -0.27310830773639067 0.096664663530147063 0 
0 0 -0.17343997066245348 0 
0.47301379149242628 -0.4125645326214214 0 -0.033359106271234472 
0 0 0 0 
0 0.5417150540432657 0 -0.25656099980730612 
-0.085105246233249748 -0.18343323554277324 -0.0002766158932562716 0.28579117236008089 
0 0 0 0.053010101708086649 
-4.3368086899420177e-19 0 0 0 
0.37151666798195088 -0.21931708124762445 0.081579442237092903 -0.28970170244367321 
0 0 0 0 
-0.1181292184648086 0.36920925186083886 -0.019469739316332592 -0.42826397115533521 
0 0 0 0 
0 0 0 0 
0 0 0 0 
0 0 0 0.23250310489966988 
0.2278406337794929 0.20018990826070338 -0.51723598700201878 0.24514861342487121 
0 0 0 0 
0 0.21669624976958599 -0.29973742475553167 0 
0 0 0 0 
0 0 0 0 
0 0 0 0 
0 0 0 0 
-0.28320434853797277 0.29648522349483075 0.61816254679111171 -0.43452730183582616 
0 0 0 0 
0 0 4.3368086899420177e-18 0 
-1.7347234759768071e-17 0 -0.22021684174908543 0 
0.28881178459342527 -0.22262672484082646 -1.474514954580286e-17 -0.052721753586756764 
0 -0.43510559338814497 0 0.44337689444569783 
1.3877787807814457e-17 0.27924759555635958 0 -0.2156067811129358 
0 0 0 0 
-0.25490118904574582 0.81947756718644649 0 -0.35353326380127781 
0 0 0 0 
0 0.095511856974313164 0 -0.17498368249940707 
0 0 0 0 
0.34823485157528716 0 -4.3368086899420177e-19 3.4694469519536142e-18 
0 0 0 0 
0 0 0 0 
-0.15472228945782995 0.26537493729559725 -0.15593503225974165 0 
2.3852447794681098e-18 -6.0715321659188248e-18 -3.4694469519536142e-18 -0.097195863313773501 
0.067506832154846527 0.19342683798366714 -0.23769003308525216 -4.8572257327350599e-17 
-0.80236261924544006 0.87904993220982619 -0.77285332051444389 -0.44655626970468998 
0 0 0 0 
0 0 -0.0022313446406677841 0 
