solver_type L2R_L2LOSS_SVC_DUAL
nr_class 4
label 0 1 2 3
nr_feature 77912
bias -1
w
-0.069233218123493201 0 0 0 
0 0 -0.10905835693030423 0 
0.88671475586441695 0 0 0 
0 -0.033449619509663173 0 0 
-0.10315352738768975 -0.31301240053719342 0.49556575269839398 0.032219892194581067 
0 -0.63119838929754724 0 0 
-0.15067730044530123 0 0 0 
0.15504571291023528 -0.041138403346492818 0 -0.16988480946539419 
0.13530394548105093 3.8163916471489756e-17 0 0.10441055914872209 
-0.16580879075348307 0.40268952081062204 -0.06271975754595796 -0.10048916705430629 
-0.24312031618002633 0 0.03997014537877492 0 
-0.13881060257190284 -0.12435211537214494 -0.12406396698372016 0.15988154162352192 
-0.23023707625494197 0.27006994719151611 -0.35273776735076495 0.25992931430613098 
0 0 0 0 
0 0 0 -0.18548280152699267 
0 -0.013294873762588607 0.39673208467479931 -1.7347234759768071e-18 
0 -0.020118586319373404 -0.10751407016960453 0.30870617857644672 
0 0 0 0 
0 -0.14669612890788564 0 0 
-0.79884758420293078 1.1016466740389319 -0.020056111322502998 0 
0 0 0 0 
0 -0.19502873495249259 0 0 
-0.27638797221895006 -0.55525001367629967 0.022514360340160158 0.72952492151179449 
0 0 0 0 
-0.14116750400965772 -0.082352027673845599 0.1987947052495353 -0.033598656952212758 
0.025724108596673151 0 0 -5.2041704279304213e-18 
0 0 -0.0075289092735298735 0 
0 0 0.29782608142925648 -0.66401653043529996 
0.32969202027805639 -0.26157376021222323 0 -0.080899403885709667 
0 0 0 0 
-0.041527675241647785 -0.20526268822301891 -0.12487610699059831 0.17845515084374242 
0 0 0 0.40476946624248478 
0 0 0 0 
2.1684043449710089e-18 0 0 0 
0 0 0 0 
0 -0.46538302050270258 -0.21996793468619438 0.39545899295202214 
0 0 0 0 
0.22558601852096211 -0.3471720388720827 0.24757249111341612 -1.7347234759768071e-18 
-0.052092206763555353 0.15294349968711823 -0.020547115825176734 -0.12498800934351112 
-4.4452289071905682e-18 -2.7755575615628914e-17 0.12517823614339244 3.4694469519536142e-18 
0.81186191028836985 -1.0612411004278848 0 0 
-0.15280919035313434 0.27939653066480657 0 -0.020151568753439722 
0 -0.48760822109871893 0 0 
0.0068670005289092305 0.31495736211454661 -0.049090319134541947 -0.29361229404259787 
0 0 0 0 
0 0 0 -0.014565624756244112 
-0.09809860329670686 0.050029708074455996 -3.903127820947816e-18 0 
0.21543767227632457 -0.20065062315376678 0 0 
-0.43528102966576487 6.9388939039072284e-18 0.05398676639876851 0 
0 -0.051016623368649483 0 0 
-0.11946444802545921 0 0 0 
0 -0.23298617753074805 0.028343537096541561 0 
0 0 0 0 
0 -0.0012552859868508342 0 5.2041704279304213e-18 
0 -0.10355253307548556 0 0 
0 0 0 0 
0 0 0 0 
0 0 0 0 
-0.023244213914630538 0 0 0 
-0.13922122225082095 0 0 0 
-0.034765906785828526 0.13331692642788892 -1.6263032587282567e-19 -0.38983071225449833 
-0.035913084877631 0 0 0 
0 0 0 0 
-0.047454242746264419 -0.15912946721662355 0 0.39940929120186047 
0 -0.019132607029166523 0 0.10072430818447102 
0 0 0 -0.15682080449196123 
0 -0.10811856709228627 0 0.011111114058287385 
-0.22542255373270587 0.084418250553807112 -0.065298271777909991 -0.55335449058128294 
-0.088345958755633627 0.05790954853551112 0.034905024092672383 0.040199672400085013 
0.060745386615260057 0 -0.012955760460543125 -0.0030821413435160737 
0.53165172310152431 -0.28632699474440493 0 0 
0 0 0 0 
0 0 0 0 
-0.28448923626941641 0.34591728733743188 -0.19386406540568177 -0.21858862667117254 
0 0 0 0 
-0.33666094858416218 0.29472603509100426 -0.23509891818270201 -0.61994585140042879 
0 0.057058912559396338 -0.22270508593737218 0 
0 0 0 0 
0 0 -0.16982723786560242 0.022822076150704598 
-0.22691276665799986 -0.22319777736583218 -0.21582799704128602 0.44714902763954406 
0 0 0 0 
-0.016062754744565321 -0.4108080509169405 8.3266726846886741e-17 0.3264876217193281 
0.084152337327496135 -0.062579573646102823 -0.13926397361642018 0 
0 0.20966562980106768 -0.50915291383037009 0 
-0.2243176484278315 0.21087145155318515 0 0 
0 0 0 0 
0.080530198029890587 -0.090797450373982985 -0.71758484450720339 0.24442598942698895 
0 0 0 0 
-0.56333461644229177 0.64035996752460833 -0.39033591738535917 -0.43419543413803346 
0 0 0 0 
0 0 0 0 
0 0 0.30393197873294325 0 
0 0 0 0 
0 0 0 0 
0 0 0 0 
-1.0616588957919522 1.6042353823080411 -0.50757105321962981 -0.096902328954752162 
-0.042706399061773509 8.6736173798840355e-19 0 -0.037088974737817131 
-0.14397346117652832 0 0 0 
-0.20365584791978084 0.18482301762027667 -0.025885466520555473 -0.029338775968563713 
0 -0.50961579180926053 0 0 
-0.18557946748200671 -0.22575790597557358 0.64177544991565316 0 
0.49404087092333826 -0.32085762462194195 -0.21030344503399853 -0.22685975478954723 
1.5139114816059096 -1.2489771221636838 0 -0.1998272268171418 
0 -0.4966184094342298 0 0.70717254662264917 
-0.048748115923033131 0.2319490849309272 0 -0.21556086348129644 
-0.13101100244965158 -0.27798505242333965 0.50346694692545757 -0.0092766564229688174 
0 0.032521605254494795 0 0 
-0.09245039120614984 0.19558854426713154 -0.46033156832215355 0.053633402017366369 
-0.1436387498183137 0 0.34662758855263709 -0.20093051248566063 
-0.27089002432404774 -0.02245285647077469 0.53652498375773905 -0.0034040317526460055 
0 0 0 0 
-1.1755486182818828 -1.4101721826286437 -0.7586158518138113 2.0231250489804049 
0 0 0 0 
0 0 0 0 
-0.037553888640111457 0.019843045119581466 -0.056108635328839376 0 
0 0 -4.3368086899420177e-18 0 
0.038313352849174302 0 -0.14675646531808725 0 
0 -0.11918073515946569 -0.19426243038137808 0.29276994826618397 
-0.017488045259179706 0.013465119660477544 -0.10071661843369203 0 
0 0 0 0 
0 0 0 -0.039356935650812379 
0.072495971161669406 -0.18367717453544546 0 0.058905477892224577 
0.2514441202547299 -0.94925892744404927 0.72812462170747183 -0.041688540204376998 
0.15176547944611091 -0.24596221024621195 0 -7.8062556418956319e-18 
6.9388939039072284e-18 0.3260305227945296 -0.48786119294534908 0.031277216474093983 
-0.52369552017804843 0.64972871240998997 -0.002589963987775265 -1.3877787807814457e-17 
-0.081523299819264178 0.090322067828183264 -0.043689854449956836 -0.022714262210372514 
0.23225374646954114 -0.070695373854075816 -0.21772987569172131 -0.14088998715743964 
0.61907935574391426 -0.32086821359179063 -0.30272728948472705 -0.039435084098846038 
0.42435159774647363 -0.90551820559055984 0.23096230469663898 0.12900047546636681 
0 0 0.46741288858049435 0 
0 0 0 0 
0 0 0 0 
0 0 0 0 
-0.08228806613898032 0 0 0.18110344386220659 
-1.3557133885018782 0.53482635882345919 0 0 
0 0 -0.12574027540767896 0 
0 0 0 0 
0.061255558731331768 -0.023368625420580161 -0.08608012391927769 -0.1409129958832506 
0 0 0 0 
0 0 0 0 
-0.19158631485562755 0.099591827119134307 0.12545639129503705 -0.2406729038197348 
0 0 0 0 
0.69942190564389128 -0.54108062737277307 0 0 
0 0 0 0 
0.30383909920815055 0.15231526289313355 -0.97571615589897909 -0.18387749484916943 
0 0 0 0 
0 0 0 0 
0 0 0 0 
0.1007152927038603 -0.073695755516344358 -0.35515567469544135 -0.15059882493841253 
0 0 0 0 
0 0 0 0 
0 0 0 0 
0 0.34400572553566783 -0.041290284111270885 -0.32876190720041287 
-0.17399500406282956 0.32239192827433699 0 -0.17165319207944985 
-0.13237755488485609 0.61859190532976249 -0.12385239811299896 -0.2277627277551928 
-0.4458331271626727 -0.060095263426057088 0 0.25476564447006178 
-0.23647236478330555 0 -0.20468787711651107 0.53785923446017048 
0.26140812364384813 -0.20078234564008712 -0.0040983965029790523 0 
-0.13690346223055697 0.12752551170029708 3.4694469519536142e-18 0 
0 -0.073553215683125117 0.32497363347843139 -0.10036073463492494 
-0.082498128452516792 0.1540202082193402 -0.22481858485784342 0.30697819183822977 
0.9616872659374649 -0.44349279914863915 -1.9949319973733282e-17 -0.060619435056590586 
0 0.47711364629325936 -0.24326864616483779 -0.051717055434441078 
0 -0.29320407119374042 0 0 
0.55304615503331711 0 -1.1003469825695937 0 
0.075023081776339526 -0.074730618275973409 -0.054994641888015769 0 
0 0 0 0 
0.056007227176228754 3.6998399136067839e-18 -0.15222384044736686 0 
0 -0.03788380391123039 0 0 
0 0 0 0 
-0.38465213332502801 1.0408340855860843e-17 0.41359581541432794 0 
-0.091697208861986762 0.25927948793770922 -0.09115290893141266 0 
0 0 0 0 
0 0 0 0 
-0.25291796166748098 0.3376460358344488 0 -0.14320545062234474 
0 0 0 0 
0 0 0 0 
-0.6118128188707691 0.48888358371232232 0 -0.17234142444845293 
0 0 0 0 
-0.033838195360678079 -0.4450634740467137 0.39724752551902059 0 
6.5052130349130266e-18 -0.40590770612391602 0 0.221689353700952 
0 -1.7347234759768071e-18 0 0 
0 0 0 0 
0 0 0 0 
-1.3877787807814457e-17 -0.83276977970443533 0.51310495500699949 0.23379546910044433 
0 0 0 0 
0 0 0 0 
-0.61195352583615081 0 -0.021196150376108669 0.25278615740476162 
-0.1099087663922623 0.090356488024516984 0 -0.0028208560688421647 
0 -2.45029690981724e-17 0 1.7347234759768071e-18 
0.57936235671101965 -0.31076161779881595 0 -0.20346051907008988 
0 0 -0.019734971390013546 0 
-0.15166546722957974 0 0.24799551877545875 -0.050171790724967816 
0.014445152986943878 -0.11985280199859666 0 0 
0 0 0 0 
0 0 0 0 
0 0 0 0 
0 0 0 0 
0 -0.090988029161997469 0.25263271982245689 0 
-0.34656087363613031 0.65249255455251109 -1.2307896632649822 0 
0.086334260334519949 -0.1295665725104522 0 0 
6.9388939039072284e-18 0 0 0 
0 4.4235448637408581e-17 0 -0.35508854871278062 
-0.29011485838039502 0 0.26033696389285343 0 
0 0 0 0 
0 0 0 0 
-0.018601918015213416 0.08382067851241469 -0.0050430606287706304 -0.030284794329416411 
0 -3.4694469519536142e-18 0 -0.026883623835262251 
0.45162956328182996 -0.29449270637543568 -0.056630471422518938 0 
-0.29599972279525461 0 -0.23618445823271814 0.55259602413255782 
0 -0.42481903989889908 0.39413195376482202 0 
0 0 0 0 
-0.15129527808588122 -0.092572712625819925 -0.22700177406922181 -0.29537300325313004 
-0.12745004134623789 0 0 0 
0.13829661395513693 -0.27962068826863645 0.14735334976320946 -0.43823928136246948 
0 0.12583936146890265 -0.082708434816983784 -0.031906893192878885 
0 0 0 0 
-0.27672915260789216 0 0.0603533088393573 0 
0 0 0 0 
-0.1100723603931682 0.3741808052693591 -1.7347234759768071e-18 -0.24443416341256455 
0 0.45659789461500083 -0.15599835934926518 0 
0 0 0 0.067700794436869979 
0 0 0 0 
-0.075382858508025827 -0.2844939199788169 0.94722827145503818 -0.055974663312126374 
0.2418609472840684 0 0.46388995841944353 -0.23927233528215125 
-0.093463159731324047 0.35058744678182263 -0.32316564365054673 -0.24005284705927959 
0 0 0 0 
0.92814847865644323 -1.0137728824567653 -0.43841949759633742 -0.042890045500028222 
-0.10978911459384565 0.34254881137528276 -0.079187593816227184 -0.11575535183443901 
0 -0.09899481542241341 0.39542826753969984 0 
0 0 0 0 
0 0.28720473979947719 -0.47396272288419999 -0.22943675988680762 
0 0 0 0 
0 0 0 -0.31828455224881791 
0 0 0 0 
-0.36879175170969125 0.58301671821902834 -0.21638051927585777 -0.56181163895674024 
0 -0.54937829599770938 0.53321213851068694 -0.015560037509924254 
0 0 0 0 
1.1886348557899191 -1.3625360573908516 -0.35649896452872387 -0.73729223907670638 
-0.13496830326232798 -0.39566594945064981 -0.028703740177126531 0.38842876437200519 
0 0 0 0 
0.17264785784299116 0 -0.097089229985138248 -0.14629652916456742 
0 0 0 0 
0 0 0 0 
0.91716689765105852 -0.47749674680330512 -0.032660026060134573 -0.21555116446002429 
0.70325526248107617 -0.54376380793601986 -1.7347234759768071e-17 0 
-0.14886283921159874 0.37366109493109451 -0.11523536558322663 0 
0 0 0 0 
0.0093236207573489122 -0.12105616050848797 -0.10434694105804319 0 
-0.092718591099870615 0.067719639658621572 0 0 
0.19905921801220849 -0.24243409355986517 0.059303341044140714 -0.1865618535583744 
0 0 0 0 
-0.33123836437023257 0 0 0.13777442765072376 
-0.16538150165907903 0 0.32666541317714587 -0.033893768494461268 
0 -0.71821254383361333 0 0.80539229818518676 
-0.083314353559646878 0.11215377570444932 -0.082762173541553324 0.026577067585335408 
0 0 0 0 
8.6736173798840355e-19 -0.23819499982220949 0.82948314037948068 -0.47145079998460021 
0.18071243844796636 0 0 -0.12722413771462082 
0 -0.24339883814404559 0 0.45295944501733426 
0 -0.092875471129346035 0.026816139500895113 -0.22011997523805377 
0 0 0 0.051004069654690523 
0.039740108336886688 -0.11205194994655476 0 0 
0 0 0 0 
-0.028986296593832218 0.06986843792069905 -0.1580136822198156 0 
0 -5.5511151231257827e-17 -0.27834999706326774 -0.60225518858555993 
0 0 -0.13664141191830315 0 
0 0 -0.049241358014011256 0 
0 0.17480100303710894 -0.13118276771204318 -0.061741358368913493 
3.4694469519536142e-18 0 0 -4.3368086899420177e-18 
0.15199157766985918 0 -0.11458781231124024 0 
0 -3.4694469519536142e-18 0.0070477862575888481 1.7347234759768071e-18 
0.13256543904195814 0.063696054312766676 -0.3582886150418288 -0.11998467783839906 
0 0 0 0 
0 0 -0.038438236887455735 -0.11890884342489001 
1.7347234759768071e-18 -0.062316168507707936 0.20054279484798362 -0.11684940805013641 
0 0 0 0 
0 -0.025031381851432437 -0.036245786385724968 0.21284258799943651 
0 -0.29954374293278951 0 0 
0.4835614628879536 -0.36926178695825473 0 0 
0.62863159375216426 -0.58454694233304305 0 0 
-0.44117539310956072 0.24555183116802709 -0.0086439648692386503 0.15416654741882999 
0 0 0 0 
-0.48488278438749449 0 0.63416473697960518 0.042449483988020245 
0.56850969167847842 0 0 -0.4933409144059312 
0.073273095624954709 -0.17815667501850296 0.2034545553297242 0 
0 -0.75309519411829573 0.57606808869304105 0 
0 0 -3.4694469519536142e-18 0 
0 0.42082490038942821 -0.23613228191870445 0 
0 0 0 0 
0 -8.6736173798840355e-19 0 -1.7347234759768071e-18 
0 0 0 0 
0 0 0 0 
0 0.092653063030850039 -0.37837241036905922 5.2041704279304213e-18 
-0.0048429859251014297 -0.15193200675203672 0.0069947790125493813 0.099398755981891379 
0.37340895151818715 0.17131897907443991 -0.0098598297742941172 -0.89097158813558153 
-0.4493826969256362 0.13153856812787601 0.04028884926864304 -0.090422266009776361 
0.0077912423213707671 -0.21373787110869766 0 0 
0.024091009656171402 -0.06518496635202016 -0.017837942793949124 -0.093919464681942635 
0 -0.12995143292471911 0 0 
0 0 0 0 
-0.051801483912791067 0 0.45098978507481335 0 
-0.0077877175419573544 0 0 0 
-0.096356561711845076 0.33217146714138934 -0.084138269286415907 0 
0 0 0 0 
-0.1060880117578276 0.095660751784393469 -0.23537891303827824 0.53705496370715222 
0 0 0 0 
0 0 0 0 
-0.093635000929416165 0.61333818997737521 -0.36750060338802637 3.4694469519536142e-18 
0 0.8034388276316391 0 -0.099947952085799471 
0.12031777497723622 -0.53887541840251574 0.3926346709120635 -0.50157556581064477 
-0.047222197931123436 0 0 0.31031096480504777 
0 -0.11972336481181685 0 0.89383964469619603 
0 0.87889102403970509 0 -0.93945950712851645 
0 -6.9388939039072284e-18 0 -1.7347234759768071e-18 
0 0 0 0 
-0.12900523239800332 0.54658810804263469 -0.45544034941474315 -0.64545177815335109 
-0.36759917992266078 -0.091147267626491835 0.14764656189387332 -0.33849420561246535 
0 0 4.6729113634125241e-17 1.5178830414797062e-18 
0 -3.903127820947816e-18 0 0 
-0.27011166660156816 -0.075869028958846799 0.42047479426352424 -0.36403365653087061 
-0.29995776626626652 0.53135500798770696 -0.010855482424163164 0 
0 0 0 0 
0 -0.024779870759177668 0.061098107160221751 -0.018973846979563776 
-0.12571574670186345 0 0 0 
0 0.079556916659637586 0 -0.070470197545370039 
0 0 0 0 
-0.47096974104327904 -0.20221796978572071 0.77689963509822724 0 
0 0 0 -0.14412628476643291 
0 0 0 0 
0 0 0 0 
-0.1370073865606754 0.046435310056729427 0.09577816338648712 0.061675996064947725 
0 0.06597872980963225 0 0 
0 0 0 0 
0 -0.27125015728661661 0 -0.057092085585538348 
-6.0715321659188248e-18 -0.22874639183379097 0.06701049004031219 0.18691052882218584 
0 0 0 0 
0 0 0 -0.039193088180608321 
0.37694484201826711 -0.20944257126617721 0.42788003008609937 -0.46010575326270392 
-0.39923687494624399 0.35492434341373735 0.11225658243868522 -0.12428801896502591 
0 0 0 0 
-0.53704707485811265 0 -0.24694383852007612 0.42270642700200206 
-0.11938807065509828 0.78524828290382798 1.2872853199470282 -1.1163649480650486 
-0.37511835864623971 -0.44478839942499249 0.34605731559730413 0.048038887811624187 
-1.0842021724855044e-17 0.37515819190254895 0 -0.36798906604956338 
0 0 0 0 
0 0 -0.066251097074563295 0.0093103849930708648 
-0.064251124658041933 0.55989264324969468 -0.060394251587167005 -0.24703782397229085 
-0.10890350606646335 0.31311562811467192 -0.0083579381046789917 0 
0 6.9388939039072284e-18 -8.1714863197242618e-05 0 
0 0 -3.0357660829594124e-18 0 
0.0041913698668752074 -0.2496663985155049 0 -0.013011901801943648 
0 0.50534897285503166 6.9388939039072284e-18 0 
-0.25250695479781565 0 0.27283983916213805 0 
0 0 -0.087536704236109875 0 
0 0.1576175417757481 0 -0.14710581329518721 
-0.54600417432105275 -0.052933746234786208 0.31985157570558076 -0.22010404329320224 
0 0 0 0 
-0.17050538288279901 0.66609797364103507 0 -0.50736871188803334 
-0.22212746058554877 0.45170471638699733 0 0 
-0.17042515811585326 -0.044506546167781991 0 0.33075300564477578 
0 0 0 0 
-0.10981019950733625 0.066551108372399775 0 0 
-0.063994759539756335 0 0 0.30297200334721613 
0 0 0 0 
0 0 0 0 
-0.15826559798248305 0 0.15236258794721624 0 
-0.07399917100762797 0.058822527738548201 0 -0.058927010639940131 
0.24770718526157834 -0.29521703472019789 -0.047741159545312391 -0.16604788519078525 
-0.092514978808364359 0.10568949229771399 -3.4694469519536142e-18 -1.3078188705606397e-18 
0 -0.2227980410368702 0 0.20064379792058867 
0 0 0 0 
0 -0.70137201323997012 0.001025548416863298 0 
-0.031414429322612306 -0.19276423882025087 0.29290776323773532 0 
-0.30381274768955346 -0.51848012334816129 0.89752357922551762 0.033103107492540258 
0 0 -0.181956317910933 0 
0.02772533413288529 -0.20507638277243773 0 0 
-0.13552860571573874 0 0 0.1513151659744329 
-0.13521043018057619 0 0.11207917199783757 0 
0.17226545966677301 -0.026476093874844592 -0.1447584651929586 -0.1210985175706128 
0.57701807804068594 0 -0.024133151275297766 -0.3406265569431241 
-0.024567100089672646 -0.10655630467436214 0 0.27840042339413945 
0 0 0 0 
-0.096297017457678089 -0.046016130734853389 0.5896932357535033 0 
0 0.0014948589280649443 -0.13709805085632171 0 
0 0 0 0 
0 0 0 0 
0.18962007315301121 0.45972857656955912 0.29173398523610561 -0.48842490498026425 
0 0 0 0.22740085505139382 
0.18035141965165027 -0.31771093396482741 0 -0.096601821994184447 
0.24727052613891154 -0.18375995429011946 -0.08702040389773176 -0.10247520145340311 
0 0 0 0 
1.0979918851858459 -0.12130806249967542 0 -3.4694469519536142e-18 
0 -0.028877648776996862 0 0 
0.093108328834449763 -0.19114529612356904 0 0 
0 0 0 0 
0 0 0 0 
-0.3832370328833079 0 0 0 
0 0 0 0 
0.21876160343243656 0 0 -0.074892993367351016 
-0.026660511120498904 -0.40188810255600993 0.12756673132570148 -0.12653705697277073 
0 -0.17751299386367447 0 0.058905477892224577 
0 -0.12457988083873038 0 0 
0 0 0 0 
0 0 0 0 
0 0 0.043296225491307065 0 
0 0 0 0 
-0.074776105559960337 0 0 0 
0 0.22597922276183183 -3.4694469519536142e-18 0 
-0.23398299204890535 1.06417242371368 -0.543714469676016 -0.19927946773110489 
-0.79452401764267366 1.1309327187049272 -0.10626152066991201 6.9388939039072284e-18 
0 0.54674462979579075 -0.2038500675159618 -0.25243055852631052 
-0.078826193473794576 0.39495592119111689 -1.0408340855860843e-17 -3.4694469519536142e-18 
-0.23913146649217193 0.022484518684078997 0.28183292243267016 -0.16591840004678024 
-0.046347560357364703 0 0 0 
0 0 0 0 
-1.1422244714233103 -1.0980290305331817 1.9923449644601183 0 
-0.15761480812412362 -0.031185112418161052 0.25872228024443611 0.14803785650053705 
-0.17089707972302526 0.35283596304842085 -0.1134360464817693 -0.0043070594557342787 
-0.01592029504774357 -0.032530519629046517 0 0.11671704204884542 
0 -0.083206419472899432 0 0 
-0.23182804207781166 0.24533552589761887 0 0 
0.021500345120210748 0.0076159949347631619 -0.034008946166930863 -0.23572962171266737 
0 -0.097667356732233881 0 0.17034585455629062 
0.44193722593698687 0 -0.77941535861782751 0 
0 0 0 -0.30762805014244626 
-0.41299251307561846 0.33465082994312934 0 -0.033585643058261797 
0.13554127655481274 0.033425159632330226 -0.19836693805696579 -0.58903257092762806 
0.1295486315288033 0 -0.14338951635905434 -0.07184715619833143 
0 0 0 0 
-0.086095026939324248 0.22814266771830899 0 0 
0 -0.35052204738843784 0 0 
0.34785939199211646 0 -0.21141318641936338 0 
-0.24739303222382214 0.96797982673243599 0 -0.10688572959164985 
0 0 0 0 
-0.26718131692335656 0.091747786388529262 0.40028463736183761 0.30189547189417182 
0 0 0 0 
0 -0.38824202492751114 0.1599756224693189 0 
0 0 0 0 
0.65826062631233118 -0.15447695863864472 -0.3190678538454626 0 
-0.15299204375852787 0.14057801937035849 -0.043028817041444178 -0.73328158626559714 
0 0.46871570629715187 0 -0.54081997022258144 
0 0 0 0 
0 -0.31247761506061938 0 0.12901764974102542 
-0.049307861242180361 0.440980023960033 -0.086432997162708733 -0.39580865230877188 
-0.58723789872400767 0.85083086204515979 -0.20957397123778934 -0.1957322722627769 
0 0 0 0 
-0.30256997129904306 0.037960273735449523 -6.9388939039072284e-18 3.4694469519536142e-18 
0 0 0 -0.45964468586404644 
0 0 0 -0.070191580818294019 
-0.22789110491537146 -0.22317303722712406 -2.1684043449710089e-17 0.35099623641212674 
-0.18703097826937126 0.34852479223216631 -0.19138341926818536 0 
0.25787062523387111 -0.27190314356714107 0 0 
-0.027747131863733721 0 0.29769356982648659 0 
0 -0.73480010410957275 0.55075641204208226 0 
-0.31551504705840461 0.50926481320868233 0 0 
0 -0.16855531864570544 0 0.3218421419659433 
0 0.11859179329812782 0 0 
-0.046723107703118716 0 -0.078380853147589788 0.56609673027932539 
-0.23125759678439725 0.31644824672922034 0 -0.32198969510511366 
0.015071500931151329 0 0 0 
0.45960486421392971 0.16201474262091778 -0.10095142844046859 1.7347234759768071e-17 
-0.11418177594183206 0.23812329037658836 0.025902866023211221 -0.026722427546556585 
0.62586282127333281 -0.33709392588585807 -0.13668697170873251 -0.60745877510832114 
2.7755575615628914e-17 -0.070439049456179986 -0.07420510481817498 0 
0 -0.46618060100013842 0.10108456367397355 0 
0 -0.39966684935464991 0 0.27395834227638355 
-0.046187254244086332 0.18700346910332089 0 0 
-0.22843203356645814 0.27025328914995234 -0.10057675629422569 -0.10023484332449217 
0.0013323608519415857 -2.1684043449710089e-17 6.9388939039072284e-18 -0.0072369070199228853 
-0.054743863253696609 -0.28627679715531301 0.041384208621144648 -0.051528930014943124 
0.031463529102660329 0 -0.0046558941268387893 -0.060310078200382415 
-0.66576543445109748 -0.2171626650194533 0.5757469698142611 0 
-0.066988254030246219 -1.1312505004194691 -0.3014943199341733 0.82330288323511602 
-0.11647962502152996 0.43449946879692442 -0.031014515609193969 0 
0 0 -0.14923743455690622 0 
0 0.12697737553811542 -0.33923143362309399 0 
0 0 0 0 
-1.0951831440509849 0.84837005576008306 0 0 
0 0 0 0 
-0.074746514235813813 -0.084006812941823203 -0.037350673037468064 0.13454692358017903 
-0.13925526910981392 -0.12574713048368807 -0.064065785661045413 0.28588798498938267 
-0.28768135834703057 0.33794651133442233 -0.20390646000861878 -0.22985568047101695 
0 0 0 -0.10172653880414052 
0 -0.090471815940382644 0 0 
-0.76069303976927538 -1.4357407336174526 1.5986936020046503 -0.20995680163037411 
3.4694469519536142e-18 -2.8622937353617317e-17 0 -0.080200576096242024 
0 0 0 0 
0 0.53811667105687688 0 -0.11041665339558981 
-0.010046959042437506 0.039410053000281907 -0.0012947182668880304 0 
0 0 0 0 
0 0 0 0 
0 -0.69627411568817321 0.90981916075414249 0 
0 0.1042698005908996 0 -0.048642835984028 
1.4311468676808659e-17 0.11255890231975149 4.0332320816460765e-17 -0.069122368972495532 
0 0 0 -0.94366887536365895 
0 0 -0.0043065335220964437 0.031473258211089948 
-0.066761137799032783 0.40529617649177185 -0.44071276571505841 -0.049509047808499428 
0 0 0 0 
-0.1071790982422802 -1.7347234759768071e-18 0.35770056646222992 -0.14103397928332134 
0 0 0 0 
0 0 0 0 
-0.32420103529285116 0.075012257071683006 0.081591445909037066 0.24444518797876802 
0 0 0 0 
0 0.17277604100021596 0 -0.19084675671764265 
0.018294601530246604 -0.24504042012391569 0 0 
0 0.14179815343145363 0 -0.14837297696607935 
0 0.11194053536081784 0 0 
0 0.13509419998738476 0 0 
0 0 0 0 
-0.10942353697916567 -0.18938639686761419 0 0.4322180194686191 
0 0 -0.083493532273985233 0 
1.12421615663601 0 0 0 
0 0.7159820405048718 -0.072751173836005101 -0.16144345017888351 
0 0 0 0 
0 0 -0.1202064209297824 0 
0 0 0 0 
0 -0.59134718252951368 0 0.066378581083627458 
0 0.64180859846565896 0 -0.50461627592638392 
0 0 0 0 
-0.30339866128153042 0.63312888156904601 0 0 
0 0 0 0 
-0.096297017457678089 -0.046016130734853389 0.5896932357535033 0 
0 0 0 -8.6736173798840355e-19 
-0.040408952204500179 0.10778635979847036 0 0 
0.18762269727861774 0 -0.29782900981288779 0 
0 0 0 0 
0 0 0 0 
-0.23591135949981976 0.061838114977084468 0 0 
-0.001383119181038625 -0.14214680987938955 0.07485658816411557 0 
-0.39071407305008388 0.83917895012484855 0 -0.072842222064515044 
0.047584934005790946 -0.034208656552070178 -0.14324073837522963 0.34388095058103424 
0.48200330767947269 -0.64360385156123479 -0.0731855784481375 0 
0.05700211661394243 -0.55172543860820233 0.26119258832749953 0.43485910170704006 
0 -0.4216871395894552 0 0.25643103285915131 
0 0 0 0 
-0.24076740723309448 0 0 0.034200107965437793 
0.34976768164558614 -0.28379169749254962 0 0 
-0.052643161375866512 -0.30899793044991919 -0.025938693763346916 0 
-0.076073571357127542 0.20361603622367871 -0.11612633510799851 0 
-9.7144514654701197e-17 0 0 -0.17144605630284915 
0.25503695994096653 -0.39238210092225406 0.018537677998976491 -0.31454317647155716 
-0.34106601993150248 0 -0.23670606204331329 1.1334687803033592 
0 0 -0.36764687906460181 0.050654398882693775 
0 -0.52008101764657511 -0.0079288952675148315 0.81104729600936198 
-0.28475032623425034 0.078976897469350688 0 -0.037430877839666879 
-0.063517901563695522 0.12701635586328819 0 -0.06816284306599453 
0 2.6020852139652106e-18 0 -2.4936649967166602e-18 
0 -0.014309423615199197 0 0.10937125737733412 
0 0 0 0 
0 0 0 0 
-0.1742236750140122 0.33906584325172401 -0.20043746869927051 -0.19065942894035948 
0.21993231290856091 0 -0.063261121920312913 -0.25200492316117867 
0 0 0 0 
0 0 0.75630316912081064 -0.19694060920376094 
0 0.38450307871503431 -0.054874615587477797 -0.15724550801245302 
0 -0.19802188669399057 0 0.45142986736393292 
0 0 0 0 
-0.15742161831979706 0.36234193582313978 -0.037077074720761584 -0.23461702763393094 
-0.086206796989625564 0.14671079683551164 -0.11076492227223467 -0.087766542782518192 
0 0 0 0 
0 0 0 0 
-0.14364265108930249 0 0 0 
-0.22410376622687667 0.32029211030581789 0.47510009925052205 -0.68248584778462029 
0 0 0 0 
-0.66850038439752857 -0.16901758571138681 0.52011060037300694 -0.039164435933699893 
-0.067452166630823568 0.12165597168764082 0.29559122972911589 0 
-0.28743768657363489 0.47029348303107538 -0.30218459075344073 0 
0 0 0 0 
0 0 0 0 
-0.10784200225460508 0 0.97816648933044925 0 
0.036287393623625756 0 -0.033040654460835948 -0.17169577758434315 
0 -0.063616861486392826 0.042413112680713336 -0.15676599889591467 
0 0 0 0 
1.5963628169101802 -0.27331042804097239 -0.35508654258168426 0 
0 0 0 0 
-0.20365584791978084 0.22695364905438889 0 -0.197695721567755 
0 -0.30383917231470536 0.37527628882156472 0 
0.25771540224262612 -0.10000262130699124 -0.011338174620922303 0 
0.32251401029609644 -0.44991646331102475 -0.22426500367585944 -0.015336005076013152 
-0.16459742928867879 0.30050324275349749 0 -0.23399108873521871 
0 -0.13565752199200243 -0.57977104711463423 1.8854591303021675 
0 0 0 0 
0.18018270499183056 0 0 -0.57671390319993143 
0 0.79124891051444057 -0.32051046518543502 0 
0.012246423189580823 -0.054348331889086811 0 0 
4.3368086899420177e-18 -0.15646572888662447 0 0.27042423676336008 
0 0 -0.22639855726890371 -0.062554179531300894 
-3.2092384305570931e-17 8.6736173798840355e-18 0.15962637408512875 -0.11917648299470528 
0 -0.46271840742277265 0.0047061698373840454 0 
-0.25914693928708055 0.13384769804061525 0.23902410024476964 -0.037465317173888138 
-0.0062230437780209022 0.52329665773137402 -0.58955499352904472 -9.540979117872439e-18 
0 2.6020852139652106e-18 -0.0014750083984816352 0.17067841451545018 
-0.43219603489352404 -0.72520656290133301 1.1271043856330241 -0.10359977327712327 
0.280540650190364 0.020039405209612657 -0.24344647479388359 0 
0 0.24235797882504284 -0.097733031867280717 -0.36797475858691403 
0 0 0 0 
-0.2284770689446555 2.1960803393790793 -1.159563131853294 -0.5135620778222858 
0 0 0 0 
0 0 0 0 
0 0 0 0 
0 0.14854324416226841 -0.079567916304923256 0 
0.19562329097875572 -0.13247218176849831 -0.064231139312328905 0 
0.1487472375347284 -0.1809276590417131 0 -0.038928787177377466 
0.29667353680545028 -0.02515093230122839 0 0 
0 0 0 0 
0 0 0 0 
0 0 0 0 
0 0 0 0 
-0.040998154961459435 0.33590050896846407 -0.3894020107014719 0 
-0.11728915161848483 0 0 0.25990205231953445 
0 0.035769921212284721 -0.43071695463165494 0 
-0.27952947510706089 -0.10183676942579332 0 0.4028387096458097 
-0.14432259000177453 0.52192698102696422 0 0 
0 0 0 0 
-0.26100730394123867 0.18288584337808636 0 -0.048153830527459182 
-0.152103302573913 0 -0.18163110709805488 0 
-0.49759299164923965 0 0.10572672512141702 0 
0.2466906446595076 0.13777588457548468 0.12792524771797273 -0.09984473891933808 
0.48404136862218894 -0.50249375516491457 0 -0.22889264465941964 
-0.23217808177574253 0.25798377596008426 0 -0.16518562208904974 
-0.76996152854347821 0 -0.0020438037249895491 0.51035641977787516 
0 0 0 0 
0 0 0 0 
0 0 0 0 
0 0 0 0 
0 -0.091856083806350367 0 0 
0.42662151272343718 -0.23010633798306587 0 0 
0 0 0 0 
0.38977603330991245 -0.2512762932503827 0 0 
0.46663749743191679 -0.11371704114717718 0 0 
0 -0.039638141367011492 0 0 
-0.36482393893937759 0 0 2.2036129717288144e-06 
-0.099299149818113983 0.065357949626166409 -0.029734128359457046 -0.10664411959108894 
0 0 0 0 
-0.21216681883534472 0.062869991632518718 -0.029296457501259188 -0.34933839263745486 
0.060636623601187323 -0.0041802367309648966 -0.1622422425559393 0 
0 0 0 0 
0 0 -0.29092447382508541 0 
0 0 0 0 
0 0 0 0 
0 -0.043005445967824359 0 0 
-0.2384472001224435 -0.14716717786781794 0.20444834002037937 0.043033177519108984 
0 0 0 0 
-0.72789327591010655 0.95399464054386951 -0.076307101701901373 0 
-0.38590558035242628 0.8630223128809611 -0.15876637621540704 -0.29803246176528458 
0 0 0 0 
0.30843382744810688 -0.0820935797446746 0 -0.013805688303727347 
0 0 0 0 
-0.095009777674428433 0.10372925732447102 0.17875566451073696 -0.29483222917343138 
0 -0.076841154775393938 0.065718277713145534 0 
0.047375505999063684 0 0 -0.032766323319472601 
-1.0198296991705833 -1.2334410722506099 1.6474013079378489 -0.32514222743748844 
-0.041147119335513842 -0.11010054723227279 -0.081443075819008434 0.1663595981690344 
0 0 0 0 
-0.17846902604708065 0.1542123745125448 0 0 
0 0 0 0 
0 0 0 0 
0 0 0 0 
0.36643350289633975 0.029882324115370673 -0.50090930357691155 0.010531499549399376 
0 0 0 -0.42077048405048195 
0 0 0 0 
-0.028765407051052235 0.37812453884969632 0 -0.10495009709632791 
0 0 0 0 
0.37097980118097978 -0.5039349320176244 0 -0.078008595028613875 
0 0 0 0 
0 0 1.3877787807814457e-17 0 
-0.18462488595644638 0.30915728699569478 -0.029847779878490976 0 
0 0 -0.27557399303143337 0.26392549646310859 
0 0 -0.215451023854453 -1.7347234759768071e-18 
0 0 0 0.20875112908918877 
0.4287406126502652 -0.15560701960461265 -0.071364995597684375 -0.64366439359170646 
-0.041544033893417098 0.073383546594817467 6.9388939039072284e-18 -0.018444781217547383 
-0.018601918015213416 0.08382067851241469 -0.0050430606287706304 -0.030284794329416411 
0.27404628873398296 0.068492431787147132 -0.046676208979226565 -0.061991532066269783 
0 0 0 0 
0 0 0 0 
0.044087516381184313 -1.7347234759768071e-18 -0.22485004694797167 -6.9388939039072284e-18 
-0.10594874410135806 -0.36366625876683634 -0.20130389165147766 0.67388672564495888 
0 -0.18799704395153971 0.45084492391728476 0 
0 0 0 0 
0.1392745195470316 -0.13393451430880063 0 -0.097188902039336 
-0.28443693627784516 0.017891835741310556 0 0 
0.25609152368552002 -0.55790266117199105 1.5829351718288365e-17 0.020895966493322059 
0 -0.39319023578840767 0.19833031074970811 0 
-0.47960777417022948 0.34081639392712282 -0.062831408353896237 -0.099993846814814616 
-0.17719670442661428 0.22277330147562172 -0.044490760564146151 0 
0 0 0 0 
0 0 0 0 
0 0 0 0 
1.0178199117815694 -0.96411872334403415 -0.12599558906706715 0 
0 0 -0.20640688167754412 0 
0 0 0 0 
0.39765806698994749 -0.35302089625649224 -0.16583617215110805 -0.026986280413245394 
0.29264245443988807 -0.10711069622448403 0 -0.26650149917009902 
-0.41908351762155821 0 0.05991194179444502 0 
0 0 0 0 
-1.3906643096821178 -0.63995114459015923 -0.0629505800012157 0.92618356131147972 
-0.067846283052560491 -0.33276955585795748 -0.092836092860515015 0.42885727042310595 
0 -0.04231479382705812 -0.17091143317292729 0.12945658561100856 
-0.13326572312663987 0.37413950769644044 0 -0.43304580148737815 
-0.11631477742236361 0.26600955023121631 -0.1140168539440356 0 
0 6.9388939039072284e-18 -0.0055579573593804903 0.10229167356093766 
0 0 0 0 
0 0 0 0 
-0.023795750750664073 0.094922331221756945 0 -0.1407867069797786 
0 0 0 0 
0 0 0 0 
0 0 0 -0.1069265506544711 
0 0 0 0 
0 0 0 0 
-0.1797487475884528 0.32618727791243363 -0.08197756308944254 -1.7347234759768071e-18 
0 0 0 0 
-0.30187903927875709 0 0 0.31911491681323267 
0 -0.10146095130000908 0 0.061243405774615144 
0 0 0 0 
0 0 0 0 
-0.11570597272400369 0.0035411364512824423 -0.02250775580770828 -0.55973568344087954 
5.5511151231257827e-17 -0.28423729104817841 0 0 
0 0 0 -0.39631652159654879 
-0.069660896236708306 0.91277998940265437 -0.49584135928586037 0 
-0.23414934648576516 -0.20418233783315659 0.26989467129448536 -0.047912027131914933 
-0.2084188573431412 -0.1293979860163095 0.24385167290928925 0.083451146534926315 
-0.29543753338947337 0 0.5441812702602038 -0.009528877617373659 
0 0 0 0 
-0.055214514854558319 0.6446928537696498 -0.49138013610962283 -0.27452470796896844 
0.089297104121851115 -0.10051182997916726 -0.8118145290203026 0.18326993449974022 
0 0.31460621446847037 -0.13332462320038557 -0.2830179518807866 
0 0 -0.28106473936607335 0 
0 0 0 0 
0 0 0 0 
-0.24080547387702364 -0.52417504841123563 1.8333833032319218 -1.1442794878000071 
0 0 0 0 
0.31943289717428858 0 4.3368086899420177e-19 0 
0 0 0 0 
-0.32847891422352987 0.30824506598820756 0 0 
0 -0.21570438983904777 0.28792452373027472 0 
0 0 0 -0.079080625595920453 
0 0 -0.16613486111295905 0.065073850585215975 
0.23780434942035777 -0.017641976883789285 5.2041704279304213e-18 -0.0532715597910558 
0.038396321707592947 0 -0.14179311644743844 -0.13161744590349747 
0 0 -0.44723505720737822 0 
0.58008591003897225 -0.2888462461885854 -0.16807028296316365 -0.05246816821070395 
-0.4609908098195814 0 0 0.089066935062519809 
0 0 0 0 
0 0 0 0 
-0.67761296399097426 1.7347234759768071e-18 0.43042346690502364 -0.092789210547977605 
-0.28036775209244452 0 0 -0.080525256480714111 
0 0 0 -0.25210690667220031 
0.1604161287275731 0.46014468394855396 -0.16105896295716995 0.063230358581175539 
0.19206604069137434 -0.18115400243018512 -0.1358673422688399 -0.10635334181631469 
0 0 0 0.051004069654690523 
0 -0.38911407270555565 0 0.10369747423333696 
0.021608658105286477 -0.20265679136997899 0.3008250218002323 0.16710731246109889 
0.15539263302811276 -1.1858243727589568 -0.14006668678145628 0.91800340547633608 
0 0.59682315416668952 0 0.074033713728597614 
0 0.30029993394747656 -0.12281852625359482 -0.44783716152555902 
-0.65100065694420495 -0.59393180795932465 -0.28760815508502924 0.59598510146694061 
0 0 0 0 
-0.12846655862265804 0.087701841280738935 0 -0.097903829767575029 
0 -2.8189256484623115e-17 8.6736173798840355e-18 3.4694469519536142e-18 
0 0 0 0 
0 -0.74370664115181873 0.10495790196124727 -0.23619781153952515 
0 0 0 0 
-0.092206593967526493 0.049925129143238434 0 -0.025425532770477037 
0 0 0 0 
0 0 0 0 
-0.33486722998723695 0.45165058101742006 0.26673173321095323 -0.27902796423651438 
-0.40196903117619887 -0.28211619722789461 0.77069977819761637 0.1681263801062729 
-0.171709026980984 0 0 0.030503613823926551 
0.10362465662359474 -0.037661976309784732 3.4694469519536142e-18 -0.013223299460063592 
0 0 0 0 
-0.082966487389508084 0 0.046170584326833367 -0.09333116288958869 
0.76574079324102629 -0.75410162348522558 0 -0.14714501364683222 
0 0 0 0 
0.66523966090206532 -0.41943218308102304 0 -7.8062556418956319e-18 
0 0 0 0 
0 0 0 0 
0 0 -3.4694469519536142e-18 0 
0 0 0 0 
0 0 0 0 
0 0 0 0 
-0.27805143671223964 0 -0.21039347158614458 0.59990224933643477 
0 0 0 0 
0 -0.23924180726753319 0 0.32250596543632909 
0 0 0 -0.05522357089095991 
0 0.53926014375877063 0 -0.70808882100805048 
0 0 0 0 
0.027987696882797425 -0.17227355877955255 -0.37575302796561383 0.38351569995030249 
-0.29785534263132457 -0.079046480899821345 0.56838876421552831 -0.020793933746586932 
0 0.27024696291833211 -0.073412529504853885 -0.039699596061082691 
-0.51343435766324041 0.071085399643734851 0.33225997611235714 0.33066397803904157 
0 0 0 0 
0 -6.9388939039072284e-18 -0.061583130906097551 0 
0 0.47993225711281373 -0.0046184292965669744 0 
0 0 -0.26809966543493691 0 
0.36957233292168018 -0.14887323196683305 -0.082529483300048861 -0.075237131811086058 
-0.1124241761496424 0 0 -0.032932114384004028 
0 -0.088949567195121162 0 0 
0 0 0 0 
0.73683255164146488 0 -0.37063814804757639 0 
-0.19792751359176261 0.58891482667031125 0 -0.094564112854656088 
0 0 0 0 
-0.21421726476306066 0 0.13476458758748835 -6.9388939039072284e-18 
-0.52409116281235268 -0.45566681195093844 0.2571177698689866 0.77038665591840627 
-0.16207191606981811 0.14512542392228331 -0.053305046352811115 0 
-0.51804534526616297 0 0.65682074534798274 -0.0046095771552658862 
0 0 0 0 
-0.077620292066232818 0 0 0.37061239719983102 
0 0 0 0 
0.44138784319786506 0 0 -0.55185798036125377 
-0.87859486552511901 -0.099932176984013577 -0.011304503622476411 0.11144977413873279 
0.56237607981713933 -0.14165914296048973 0.050785490887655431 0.048739347023542504 
-0.011163254006909769 -0.090782036612102684 0.0089176980397999706 -0.25010507323746628 
0 -0.25337535385402471 0 0 
0 0 -0.18632801535090429 0.17245888135737411 
-0.16878632552601289 0.18304403210182457 -0.55246985149233774 0.48148855729775086 
0 0 -0.053164028487915523 0 
0 0 0.56424951979952143 -0.69760755713324363 
0 0 0 0 
-0.022570643890853045 -0.12435211537214494 -0.12637709567798747 -0.12582963526167684 
0 -0.3847506966240144 -0.043725274849435503 0.17632889755193817 
-0.11473078257471844 0.19432410577077142 -0.21201798526289051 0 
0 -0.2100248755943851 0 0.5382312171371445 
-0.24217607385934845 0 6.9388939039072284e-18 0.26499699044222003 
0 0 0 -0.068339776826909435 
-0.11777707362088738 -0.1701374351913679 -0.059979704227968889 0.10455183554393413 
0 0 0 0 
0 0 0 0 
-0.57492206534315293 1.5794756213416945 -0.21973741392707843 -0.011053144478662942 
0 0.124010225625157 -0.16098834130830136 -0.14748271693556581 
0 -0.15764372214982 -0.074013603908545889 0.33477738325207707 
-0.10528699540343099 0.17131639714554012 3.4694469519536142e-18 0.18494233415593628 
0.39016990797260886 0.0056763498633349771 0 0 
0 0.19887918654351414 -0.03547339644754792 0.25475074858112723 
0 0.15007475487421471 0 -0.19424441194652997 
0 0 -0.080014855112864089 0.096191640937272241 
-0.057380328699920151 0.15231852725610173 -0.026715993985265408 0 
0 -0.058016795448615904 0 0 
0 0 0 0 
-0.33725338214512374 0.50590114210314829 -0.10684644452556456 -0.059674745680764904 
-0.041902296876483391 0.16014909614021106 -0.21724201215391958 0 
0 0 0 0 
0 0.071568793877008999 -0.0041218763666735162 -0.13759428000175483 
0.091510433904750763 -0.38276731661468227 0.25289775886096888 -0.10186833623761349 
0 -0.17577514269067637 0 0.24494475042498146 
0 0 0 0 
-0.0038926816292072413 0.049717931168872048 0 3.5778671692021646e-18 
0.20372535006871287 -0.052847518997648023 -0.039018157093418424 0 
0 0 0 0 
0 0 0 0 
-0.64436666936185483 -0.44647053679738352 0.24147724593279857 0.3463175738855776 
0 0 0 0.22355584767150127 
0.49177676679320054 -0.31355918473594196 -0.17015556314232869 -0.091198993196618089 
0 0 0 -0.18196044122753705 
0 0 0 0 
-0.0086134173546713599 0.0065434625225987983 -0.050036987805030374 0 
0 0 0 0 
-3.4694469519536142e-18 -0.066951764861188381 -2.7755575615628914e-17 -6.9388939039072284e-18 
0 0 0 0 
0 0 0 0 
0.35997706740955093 1.3877787807814457e-17 -0.72970759251485551 0 
-0.07284728256179783 0.48359779154189192 -0.23734422953498155 -0.37187571118562751 
0.23581487212029487 0 -0.16490931848431553 0 
0 0 0 0 
0 0 0 0 
-0.057615470946721141 0 0 0 
0 -0.25216752775601192 0 0.41194746987187708 
0.11802802286703543 -0.039541326522462006 -0.13657319162510345 -0.031168857028432192 
0 0 0 0 
0 0 0 0 
0 0 0 0 
-1.6264950955068016 0 0 1.49652222674498 
0.20850650182862707 -0.037448841704536523 0 0 
0.29827039031579661 -0.27070716767750047 0 -0.24480062869976663 
0 0 0 0 
-0.55650755023321108 1.0358094342716533 -0.18788150499309672 0 
-0.29672877118624924 0.097267138997342878 -1.054127427483786 0.38891978667868043 
0.17841036155535903 -0.17987640731534527 0 0 
0 0 0 0 
-0.10726301987181883 -0.038790763465226398 0.1421811022888933 -0.0037834046269766119 
0 0 0 0 
0.09823901516665183 0 0 -0.18004333853039409 
0 0 0 -0.35840559555049067 
0 0 -0.055591826873753733 0 
0 0 0 0 
0 -0.18760660667524423 0.43835619645106838 -0.21784410596892298 
0.19562329097875572 -0.13247218176849831 -0.064231139312328905 0 
-0.35716560697613348 -0.093745721773657656 -0.056960823118476368 0.41382916909746309 
-0.21445514483036127 0.45887778942137036 -0.0054798284008646461 -0.056764545296144761 
0 0 0 0 
0 0 0 0 
-0.12636541814294103 1.3360256440975233 -0.43189681776487754 0.31444873803298479 
0.21795397082837881 -0.088498310269104111 0 0 
0.19206604069137434 -0.18115400243018512 -0.1358673422688399 -0.10635334181631469 
0 0 0 0 
0.0098067518469456064 0.13860243262477637 -0.63983462722328244 0.87629502666855741 
0.86104820597558485 0 0 -0.56470525036017638 
0 0 -0.021426964689973634 0.18741211524959459 
0 0 0 0 
0 0 0 0 
0 0 0 0 
-0.36979122044010543 0 0 0.32747906446381431 
0 -0.03940266098045362 0.20395586665340693 0 
0 0 0 -0.13957861107648589 
0 0 0 -0.25265856181940116 
-0.36367845377341312 0.27825815965711698 0.18526141430392343 0.17702435181596232 
0.26348465313008135 -0.049884231168302449 -0.18459153852326549 -0.034396886912174338 
0 0 0 0 
0 0 0 0 
-0.15356801954345034 0.58784955631098679 0 -0.42270438967413043 
0 -0.34191192391754038 0.13327573190889094 0 
-0.11419064738038866 0.46004465561129437 -0.046676208979226572 -0.061991532066269783 
0 0 0 0 
0.65884555170248038 0.15316095212418351 -0.62950247481454535 -0.048586783065975518 
0 0.67458160931952404 -0.7442059389586656 0 
0.20580313295340769 2.7755575615628914e-17 -3.4694469519536142e-18 -0.070315619345504454 
0 -0.15231148819080512 -0.11296411311485624 0.40328445165406934 
0 0 0 0 
-0.14942841887357727 -0.22136803169968766 0.58487850428284838 0 
0 0 0.42701079727188207 0 
0 0.12624973315741755 -0.021248390595442042 -0.022946041327903195 
0 -0.23911834537921381 0.093888801394913401 0 
0.056387448582919539 0 0 0 
0 0 0 0 
0 2.897328578159426 -0.035438423117676497 -0.36488485429979567 
-0.12749676384988104 0.080556423657207429 -0.045946843265405719 0 
-0.1461539858199572 0.33444290827241452 0 0 
-0.19147486952697482 0.22511557991767342 -0.11533568961556499 -0.075566779376397483 
-0.26932598579188471 0.30043413926153861 -1.9081958235744878e-17 0 
-0.26995918033305599 0.63095232700323578 -0.10342912398391509 -0.28447253539794265 
0 0 0 0 
0.47576187269898362 -0.23092019725814866 0 0 
-0.35206755563404801 0.9057446914759526 -0.39665209523255351 1.6046192152785466e-17 
0 0.41055406807849554 0 0 
0 -6.9388939039072284e-18 -0.25257601477521369 -0.36629624533625998 
-2.0816681711721685e-17 -0.26363224262178808 0.30264481622282674 0 
0 0 0 0 
0.16333948537217655 -0.19423999415756071 0.070211844443206495 -0.029117211807002753 
0 -0.13167299645585415 -0.066372238923048804 0 
-0.27640084621695138 0.24596583450161566 -0.44564294024348117 -0.32661234743684658 
-0.12991744683461201 0.42952094821966391 0 -0.35853446486538276 
0 0 0 0 
0 0 0 0 
-0.22754431287350071 -0.020958652841341303 0.88537440454029159 0 
0 0 0 0 
0 0 0.16490930753650929 -0.129893328203978 
0 0 0 0 
0.71210913764118133 -0.46713199396192223 -0.25927757172104948 -0.32839190999904244 
-0.4791461825204229 0.58630179514999137 -0.18671981323800529 -0.36735063034600923 
-1.5136829624865278 -0.049933905038284515 1.5931261312516021 -0.034098300396338564 
-0.1696878457778373 0.3619821387005645 -0.11939223026620835 0 
0 0 0 0 
-0.075558505886835839 -0.40136038400661084 0.23121551165373105 0 
0.73395120629317079 1.4723436118625277 -0.59118528681314864 -1.0188806032472426 
0 0 0 0 
0 0 0.10792421117526599 0 
0 0 -0.38644470708565992 0 
-0.083030535653487197 0 0 0 
0 0 0 0 
0 -0.058350640061324649 0 -0.20617385498785742 
-0.36782576890760488 0.13469683515866734 0.39832194525188835 0.36207943242570056 
0 0 0 0 
-0.24659656305104652 -0.21721209102420552 0.73459223703726961 -0.0098299161539251254 
0 0 0 0 
-0.29574766112542383 0.048433793845724361 0 0 
0 0 0 0 
0.4027683613019733 0 -0.39549917838888399 0 
0 0 0 0 
0.042815858230688293 -0.017755399776014587 0 -0.027738629274711768 
-0.35564334378998597 0 -0.16412506650580125 0.25665523925732925 
-0.018827038054448901 -0.04760233576705146 0 0.038123271909123277 
0.47463989631819281 0 -0.057702502800808998 -0.7851155319613744 
0 0 0 0.14183144802292671 
0 0 0 0 
0 0 0 0 
0 0 0 0 
0.26880793562272204 -0.2008780549730578 0 -0.006681813387788213 
0 0 0 0.0027708365133741974 
-0.14831000576928952 0 0 0 
0 0 0 0 
0 0 -0.080759447683847671 0 
0 -0.40962725427474628 0.34802697428729712 0 
-0.26945535457456471 -0.29853565953181282 -0.017163736784486523 0.2747459591385556 
0 0 0.095895423488084053 -0.088372039330461977 
-3.4694469519536142e-18 0 0 0.0064054926772058466 
0 -0.11621767834897455 0.017746341335097872 0 
-7.8062556418956319e-18 0.074750956873499294 0 -0.10317733880042641 
0.16172983861218926 -0.65385570432452667 -0.048419905138804682 0.16793433381019274 
0.44279330426644004 -0.30922982504255914 -0.20392422694139123 -0.12837990063356763 
0 0 0 0 
0.43989085432785319 -0.19912856325492628 -0.0084290205039454207 0.38801100881796569 
-0.79878446639473211 -1.2286214699136593 -0.87730088093508496 1.6488208983459689 
0 1.214306433183765e-17 0 7.8062556418956319e-18 
1.7347234759768071e-18 0 -0.0055135187328951719 0 
0 0 0 0 
0 0 0 0 
0 0 0 0 
0 0 0 0 
0 0 -0.0057084247047517536 0 
0 0 -0.16525770537807263 0.044662279859769789 
-0.031434586246187515 0.40692786101890366 0 -0.061583608394714502 
-0.59936206539108328 0.94153214697059606 0 0 
0 0 0 0 
0 0 0 0 
0.0056839901156792438 -0.062416427676861452 0.03457434416613353 -0.15768761172010015 
-0.26867597687494321 -0.18442971324441332 -0.64472164102364959 0.38215742636047395 
0 -0.32177457855043246 0.3894374227644673 -0.10384923329776448 
0.051138097040420216 0 0 0 
-0.036502521247217617 0.014005873072133402 0 -0.1766678182253216 
0 -0.023013662892322262 -1.1275702593849246e-17 -0.00531356747469151 
0 0 0 0 
-0.10516972995937093 0.5439656301819189 0.16269257127230252 -0.013952262087661066 
0 0 0 0 
0 0 0 0 
-0.95514047237198718 0.87594298375229307 -0.071506714971445895 -0.028100637585263662 
0 0 0 0 
0.37922667873480531 0 0 -0.090873699847031655 
-1.0408340855860843e-17 -0.25708006959816732 0.22267497649992526 0.01095137408958027 
0 0 0 -0.042503839445774981 
0 0 0.67633594170701639 -0.0044893143739515229 
0 0 0 0.34122684520427177 
-0.66908191404366801 0.76111143409369619 -0.64461085932280815 0.69800688976023872 
-0.19608572747534786 0.11435601473319676 -0.078876794496121616 0 
-0.037935619912921964 0.070761755978544033 0 0 
0 1.6899506354948803 -0.49158427504806229 0 
0.43754274600620824 -0.27845341917656541 0 0 
0.50191717796702973 -1.0397126942355532 -0.52407085556945621 -0.094564112854656102 
-0.18703097826937126 0.34852479223216631 -0.19138341926818536 0 
0 0 0 0 
0 0 0 0 
0 0 0.26543508892630596 0 
-0.096701622678443205 0 0 0 
0 -0.19743375484501183 0 0 
-0.36979122044010543 0 0 0.32747906446381431 
0.0043056459088111872 -0.12607929721903988 0 0 
0.61346930229899321 -0.52576238805812259 -0.10806951160928262 0.3022167533911253 
-0.0049871815794344174 0.10517915041905299 0 -0.11613192992139047 
0 0 0 0.057952842194139875 
0 -0.31492288708694677 0 0.47286824078976381 
0 0 0 0.62189079197636632 
-1.0432729029555672 0.70511842544481429 -0.095729769314560773 -0.35664407953775329 
0.43829405103983732 -0.53686841648788652 0 0 
0 -0.38285253380814188 0 0.38440462557822086 
0 0 0 0 
0 0 0 0 
0 0 -0.012730324867014798 0 
0 0 0.0048556872523903899 0 
0 0 0 0 
0 0 0 -0.0068966925618302163 
-0.26356490597952775 0.42167046669478708 -0.10239102489534019 -0.22031302248467705 
0 0 0.15492008052937767 -0.12785596688799589 
-0.26347837816277131 -0.3628037445832567 -0.0097379426132918907 -0.70225623098223811 
0 0.38042604981182326 -0.4049529935082577 -0.10221653624308742 
0 -0.1022079002320407 0.012314640860829212 0 
0 0.093118484449741093 -0.0088094952089984267 0 
-0.53050239561776102 0.040626416899895497 -0.73725627669137628 0.37931131552471381 
0.48262952156798561 -0.44337951879407128 -0.03394061546689308 -0.048399527123072571 
1.0476167279127229 -0.96759741349215445 -0.026378689639871663 -0.010082116858688135 
0 1.3877787807814457e-17 0 -6.9388939039072284e-18 
0.33034051695076622 -1.3877787807814457e-17 0 -0.13567006183472724 
0 -0.39961567174539037 0 0 
-0.056114774190386858 0 0.09547839672680522 0 
0.58133508759520447 0 0 0.097684037174087482 
-0.50639820745464914 -0.14210438320297311 -0.023479018512913858 -0.36224544059599939 
-0.10002587526618495 0.24779005705864665 -0.099503216713448667 0 
0 0.090895722969496495 0 -0.14946971659796229 
0 0 0 0 
0 0 0 0 
0.18390156202720392 -0.051030565522864293 0 0 
0 -0.33068858789505534 0 0 
0 0 0 -2.1467203015212988e-17 
0 -0.052108520822620755 -1.5612511283791264e-17 0 
0 -0.073368865295928759 0 0 
8.6736173798840355e-18 -0.40131823051682958 0 0.10921149904453577 
0 0 0 0 
0.084013530461548289 0 -0.046172495343267242 -0.18917081648520953 
0 -0.60483342655722239 0 0 
0 0.18334543977684334 0 0 
-0.19765045421915295 -0.32271690333252923 0.37477249079912389 -0.014596185082590163 
0 0 0 0 
0 -0.10810243920220974 0 0.040487148434764995 
-0.60363072366688564 0.032721567256808901 0.6301042358712805 -1.3877787807814457e-17 
0 0.31521046152903309 0 -0.56093355633505027 
-0.080091671941424955 0 -0.10201230226817658 0.075369922363140412 
0 0 0 -0.10858601639224592 
0 0 0 0 
0 0 0 0.15003568726346558 
-0.11809225102850815 0.030415786788193951 1.3877787807814457e-17 -0.44578164869283965 
0 -0.11312535048626572 0 0.040984140412784406 
0 -0.11510546212189343 0 0.076837217284039194 
0 0 0 0 
0 0 0 0 
0 -1.8632601018373203 1.0026571582121386 0 
0.91012208858619426 -0.86674286461353001 -0.26815254975221198 -0.074824330295611224 
-0.074805470712245997 0.20041388447847192 -0.081151229175525419 0 
-0.0001307759654952205 0 0 0 
0 0 0 -0.17746718598912672 
0.18126065546826944 -0.16221440784685509 -0.048995333843440174 -0.014560572517110414 
-0.093032315678430857 -1.1486437027200986 -0.041607034783948713 0.67184325853009175 
0 0 0 0 
0 0 0 0 
0.19941709409821792 -0.16071371963428782 -0.44902186579518177 -0.33678597575077257 
2.0274580625478933e-17 0.83078966941741106 0.24562382456266932 -0.32261077980844666 
-0.15252120355183263 0.03989210328013424 -0.0028011490782751391 -0.12021644056510203 
0 0 -0.32522058062207182 0.088255127286063675 
0 0 0 0 
0 0 0 0 
0 0 0 0 
0 0 0 0 
0 -0.22058058419934556 0.1635981250533807 -0.22965708840901031 
-0.35041470933745933 0.63317840608899889 -0.11139813501525619 -0.032784335416406379 
0.17655931148472012 -0.32332188598191403 0 0 
0 0 0 0 
0 0 0 0 
0.73027032026707206 -0.75996386361972645 0 0 
0 0 -8.6736173798840355e-19 0 
0.048535131670072888 -0.060252494709877216 2.0816681711721685e-17 0 
0.62337010670750959 -1.2170856224881228 0 0 
-1.1768113198266104 0.59540729591353203 0 0 
-0.083536072044196691 0 0 0 
0.25427707276702144 0 0 -0.17097800803567392 
-0.53001205684402519 0 0.56342659190777045 0 
0 0 0 0 
-0.1459594788444479 0.40966498003929247 -0.16972733352651403 -0.076586232660429923 
0 0 0 0 
-0.68313027850121943 0.65468404640460032 0 0 
0 0 0 0 
0.051487495311423777 -1.4311468676808659e-17 -0.35737905346629012 0.044648566194074757 
0.73033588486830714 -0.53585616525316226 0 0 
0 0 0 0 
-0.61241485964406828 0.88885372159674314 -0.094012056902973068 0.26373536565782157 
0.5151696102051988 -0.097614803421628663 0.1709975076191296 -0.2634641093172963 
-0.29821628645642273 0.054485176240673831 5.2041704279304213e-18 -8.6736173798840355e-18 
0.31074581170898319 0 -0.29742523218808153 0 
0 0 0 0 
0 0 0 0 
0 0 0 0 
0 0 0 0 
0 0 0.22764466812150227 -0.41525639178836793 
0 0 0 0 
0 0 0 0 
0 0 0 -0.21641210929142221 
0 0.32465470060246726 -0.26310399123385325 0 
0 0 0 0 
-0.20542555977473317 0.72683236860773304 0.06822231911673847 -0.50492071944221195 
0 0 0 0 
-0.19032195898029555 0 -0.2217642180672838 0.29483700183364092 
0 0 0 0 
-0.50358655447683831 0.71443539182113247 -0.36447930885382424 -0.15357261653033821 
0 0 0 0 
0.12332807139115351 0 -0.15168543795586409 -0.092498397105749697 
-0.74838465859480208 0 0.22522880316252983 0 
-3.4694469519536142e-18 0.83076918982592829 -1.7347234759768071e-18 -0.48076855537203955 
0 0 -0.37472471923634171 0 
-0.010944795955591079 0.080624915340377371 -0.11898046662671034 0 
0 0 0 0 
0 0 -0.16131068828099854 0 
0.367905554402437 -0.15659112987089502 -0.049222659488413464 0 
-0.14056799525783575 -0.38768792025162913 0.50779051779336215 0 
-0.65536900324429426 0 0.31725996731742478 0 
0 0 0.25453927431021867 0 
0.17659172288735012 -0.27068031757893285 0 0 
0.24671117986201319 -0.20130407425557509 -1.0408340855860843e-17 0 
-0.47906811051421233 0 0 0.32960968554632597 
0 -0.35562160522282088 -0.21692183994490538 0.34443714785416241 
0 0 -0.12986108715709943 -0.15512825920921991 
-0.36176040040803592 0.29225562141681316 0 0 
0.13341511839705159 0 -0.28672856446600808 0 
-0.11988246949263455 0 0 -1.3877787807814457e-17 
0 0 0 0 
0 0 0 0 
0.20060239621862955 6.9388939039072284e-18 -0.1213437783111736 0 
0.028635722523540474 -0.11888168817035774 0 0 
0.59181037156852667 -0.068796619635461076 -0.034916353932234877 -0.13809330845349133 
0.28422427813019102 -0.35056354025591485 -0.049098576812208673 -0.069932504294303061 
-0.4528354896363353 0.39707718347051507 0 -0.11016610706892296 
-0.41626878896520708 0 0.4476151829502637 0 
0 0 0 0 
-0.85047536346921859 0 0 0.12786890033530843 
0 0 0.4695239400225833 0 
0 0 -0.11150141577053173 -0.36629624533625998 
0.012445218948047785 0 -0.012437647307031086 0 
-0.21206444497515617 0.12115229216552516 0.1051008339208391 0 
0 0 0 0 
-0.40972531291694236 0.37958171236265287 -0.27652631865977073 -0.30133575542313235 
0 0 0 -0.076860352342612459 
0 0 0 -0.34009230042269151 
0.37067079570616079 -0.076345457146569359 -0.032419915297614066 -0.14353414391369895 
0.04999331774696511 0 -0.077318777901530356 0 
0 0 0 0 
-0.42947755495854323 0 -1.7347234759768071e-18 0.42040760095912499 
-0.25570222802411396 -0.039265743116853435 -0.33353867737600451 0.086020403879708593 
0 0 0 0 
0 0 0.89616365632127315 -0.26957904417866185 
-0.14574248616568414 -0.32185754177511505 0.0047268868269452202 -0.30926669760056341 
0 0 -1.0408340855860843e-17 -3.4694469519536142e-18 
-0.85596765501271077 1.8488882739517924 0 -0.74041368056562895 
0 -0.025056990740470741 0.1401569992023021 -0.092879877383065801 
0.53976622254099682 -0.4409389175227284 0 0 
0 0 0.1510986078346869 -0.42542376946440441 
0 -0.15375408253431339 -0.032472268437937192 0.3598070154104383 
-0.12593282215022789 0 0 0 
0.50647968047865977 -0.13863949829166894 -0.043128291684150298 0 
0 0 -0.2748970468615376 0 
0 0 0 0 
0 0 0 0 
-0.19313658805328807 0.34662163064827706 0 1.0408340855860843e-17 
0.37844377835806076 -5.2041704279304213e-18 -0.35452138152399348 0 
0 0 0 0 
0 -0.32956402882067376 0.35351688468381337 0 
1.5952722838496847 -0.17109535971166137 -0.15789118470342356 0 
0 0.03292717437436047 0.070810902259335909 -0.19151938551256051 
0.67496158541632389 -0.17109353268837316 0 -0.13012587752281485 
-0.092768350932702012 -0.012539717412877247 -0.024198769828482944 0.13170922370340593 
0 0 0 0 
0.34941342294833894 -0.28702956031635257 -0.014376288972269061 -0.089875888803364071 
0.72381569458748496 -0.89170024584931773 -0.13063032564986871 6.9388939039072284e-18 
0 0.61215410034920903 0 -0.20409069014111614 
-0.53006478154138703 0.544103133980953 0 0 
-0.53880001598364835 1.0940775103891212 0.11219370894990256 -2.2949086451655263 
0 0.66862357725030253 0 -0.46306892776153569 
0 0 0 0 
0 1.5155576141424076 0 -1.1709031005047448 
-0.15244844404946681 0 0 0 
0 0 0 0 
0.2686587363440881 -0.85932778654695641 0 0 
0.28792204695091528 -1.0408340855860843e-17 -0.10748724465432941 0 
-0.086451224506534308 0 -0.16505092257611811 0.50145379051201189 
-0.12998358455663844 0.67591864036569616 -0.0038045178085355457 -0.14637014688458766 
0.32298814939621456 0 0 -0.068621630003155826 
0 0 -8.6736173798840355e-19 -0.089951644685121235 
0.14298688632573711 -0.73882838933816497 0 -0.029363516439289822 
0 0 0 0 
-3.5236570605778894e-18 0.034470066316469906 0 0 
0 0 0.14644266146555657 -0.35960263630699596 
0 -0.30226162834913251 0.10952491979181764 0 
0 0 0 0 
-0.16398334810984419 -0.15375408253431339 -0.16014367609356017 -0.30308117805268758 
1.7347234759768071e-18 0 0 0 
0.18381001049475301 0 -0.34724805598202058 -0.031588257218931569 
0 0 0 0 
0 0 0 0 
-0.079128243343828175 0 0.74426136581136038 -0.11015104546810789 
0 0 0 0 
-5.7245874707234634e-17 -0.20452353106863463 0 0.37142889065121165 
0.29238470696342539 -3.4694469519536142e-18 -0.15880322058367807 0 
-0.02605609673123668 -0.00039554701856440696 0.0022510551048445602 0.0030389337074248806 
0 -2.0816681711721685e-17 0 -0.14655760287979236 
0.2222094779507518 -0.0953082724392776 0 0 
-0.16112745083535351 0.37488002741744941 -0.037020540804650004 -0.10580828958499494 
-0.13605365784980022 -1.0358557974427005 0.5652002896323296 0.64835363099992371 
0 0 0 -0.23046282203210353 
0 0 0 0 
-0.0042356588466679395 0 -0.34503668419416211 0.42938303757837071 
0 0 2.1684043449710089e-17 -3.4694469519536142e-18 
0 -1.7347234759768071e-18 -0.0089148518180963091 0 
-0.036043384072841383 0.97444354735748373 -0.70326648235244105 0 
-0.0054869816459458005 0.14128181416082369 0.44667857164600416 -0.12678348133374712 
-0.4027402209109251 -0.1122385852788001 -1.214306433183765e-17 0.34099287104846165 
-0.026875775677173461 0.25494267803062953 -0.067259180304006419 0 
0.33477701238497493 0 0 0 
-0.087117219837937132 0.43847278096695785 0 -0.16147034232764543 
-0.55820298370599697 -0.86416069724415578 0.17352405659789821 0.86088917563309064 
-0.17880463610203104 0 0 0 
-0.0067792599038237825 -0.062918460172462068 0.13620155368453862 0.087592246624669814 
-0.18344585730626478 -0.52106727307839351 -0.1933608236757754 0.93482556494162161 
0 -0.0096888253178714009 0.2349278083486514 -0.1890463751351604 
-0.63127712929596047 0.546851137868682 0 0.065147132397876048 
-0.70091923435647785 0 0.037208196771469075 0.68322493196968515 
0.24429683788721701 -0.16810069110676135 0 0 
0.51942316674251399 -0.82030366436493429 -0.10833682822274383 0.4462434028819372 
0.65368054958833854 -0.6032991004031395 -0.20397509247685278 -0.22986548569808696 
0 0 -3.4694469519536142e-18 0 
-0.41908351762155821 0.09241704716540125 0.059911941794445214 0 
-0.0264815820036267 0 -0.018666103463537288 0 
0.081046040606252895 0 0 0 
0 0 0 0 
-0.091987374011409925 0.1742044437805243 -0.33073032280455572 0 
0 -1.5155686987990284 0 0.36163817707129858 
-0.014566676467050579 0.064728200475951916 -0.27685566555585894 0.1967682305399176 
0 0.776602950008358 0 -0.62852654107810024 
-0.29518516574935411 0.23808599459339555 -0.14045431422892257 -0.015407474317689544 
-0.02613228972960872 0.44428724961857335 0 -0.60020045168980973 
0 -0.082854099680241752 0 0 
0 0 0 0 
0 0 0.17988532151078968 0 
0 0.31805901998454539 0 0 
0.28164482053885231 -0.22184171407502859 3.4694469519536142e-18 0.42246198104129939 
-0.047044675571709715 0 0 0 
0 -0.15767511502102646 -0.43269240074117771 8.6736173798840355e-19 
0 -2.0816681711721685e-17 0 0 
0.15062801957847402 -0.33538150794847094 -4.3368086899420177e-19 0 
0 0 0 0 
0 0 0 0 
-0.081552104992579422 0 0 0 
0.43604523997947148 -0.41040299336759783 1.951563910473908e-18 9.9746599868666408e-18 
0.3541039675392102 -0.52484469228375785 -0.14735482466498356 0.23593634593312052 
0 0 -0.00085297526562025578 2.6020852139652106e-18 
0 0 0 0 
0 0 0 0 
0 0 0 -0.092618789851414182 
0 0 0 0 
-0.3012294568706253 0.70331943418380327 -0.48329610584613497 0 
0 -0.18550517968529906 0.13696063012363527 0 
0 0 0 0 
0 0 0 0 
0.066946428557937573 -0.13372816509224142 0 0 
0 0 0 0 
0 0 0 0 
0.094395308044081722 1.3877787807814457e-17 0 -6.9388939039072284e-18 
-0.33426524331086532 -0.061045557669107922 -0.21423210548003829 0.28775504485799897 
0 0 0 0 
-0.17499764059026604 -3.4694469519536142e-17 0 0 
0 0 0 0 
-0.23647236478330555 -0.11170102206259214 -0.20468787711651104 0.53785923446017059 
-0.02613228972960872 0 0 0 
0 -0.3104893772124131 -0.19803754993995679 0.49888398642474574 
0 0 0 0 
0 0 0.58702243104053398 0 
0 -0.030762362672571288 0 0 
0 -0.13604830125690837 0 0 
-0.15603396247108647 0.25944385870899206 0 -0.074558224260280512 
-0.45479866921914541 0.45321694609809249 0 0 
0 0.47016732507533138 -0.13502142642152365 0 
0 0 0 0 
0 0.25914707666311776 -0.09842108621051042 0 
0 0 0 0 
0.3577703370201874 -0.25230600512632967 0 0 
0 -0.28423729104817852 0 0 
0.56333800355221619 0.1417675980487336 0.13606376113325991 -0.75157353586268549 
0.11383223647826163 -0.11678890793437215 -0.017658421843180405 -0.042975565587821847 
0 0 -0.061818874935627391 0 
-0.28604144806164655 0 -0.13155024028515419 0.23308077142331732 
0 0 0.79850091029049031 -0.20415389744006154 
-0.0724715964838544 0.06189744379535364 -0.3016130763202165 -0.017541375368601987 
0 0 0 0 
0 0 0 0 
-0.075601713342275861 -0.53112805840009614 0.48820186132093224 -0.079738417751145346 
0 -0.31392587017688767 0.40077045337437844 0 
0 0 0 0 
0 -0.11170102206259216 0 0 
-0.24347016827470497 0.52186889033451889 -0.18652459814168854 -0.18603733034225697 
-1.7347234759768071e-18 0.37482026046958028 -0.70326648235244105 0 
0 0 -0.01956502473169441 0 
0 0 0 0 
0.34997828706018513 -0.44768331413859375 0 2.7755575615628914e-17 
0 0 0 0 
0 0 0 0 
1.7347234759768071e-18 -0.37611920657082482 -0.048277889344152961 -4.4235448637408581e-17 
0.21692255302261093 -0.35238933769631398 -8.6736173798840355e-18 0 
0 0 0 0 
0 0 0 0 
0 0 0 0 
0 0 -0.37448128150450427 0.18608829987038625 
-0.37881636628851839 0.82436188398179322 -0.19524072645277954 -0.30363733363651429 
-0.15552088623925406 0 0.036889191639996134 0 
0 0 0 0 
-0.50494520373328988 0 -0.10657121553349642 0 
-0.2863084618095344 0.63341251901025053 -0.23072627060088524 0 
-0.096519348492408868 0.0053443533821209499 -0.03152707676286657 0 
4.3368086899420177e-19 -0.11465846699818744 -0.029831479163657609 0.15435104117715509 
0 -0.36259390677508063 0 0 
0.18071243844796636 0 0 -0.12722413771462082 
0.2408242916307021 -0.81036046487070423 0.61204281921427117 -0.31386885516762564 
-0.062938883214956484 -0.0011048503234854928 -0.17788522593362732 -0.085073688921612961 
0 0.20732865931495606 0 -0.46663728110870406 
0 -1.474514954580286e-17 0 0 
0.10680341573626274 0 0 0 
0 -0.40962725427474628 0.34802697428729712 0 
-0.11805619734181461 -1.7347234759768071e-17 0 0.16517450558576396 
0 0 0 -0.0017205258873356194 
0 0 0 0.055467847301041359 
0 0.62082485899438511 -0.39431695809758149 0 
-0.078032840500739067 -0.10958904109589039 0 -0.10986579681736683 
-0.12294496100706628 -0.0079535885146417157 0.61601069828447763 0 
0 0 0 0 
0 -0.028106495443750081 0 0 
0 0 0 0 
0.62489444006315653 -0.8305191789950741 -0.16144008854597103 -0.066174514666729661 
-0.56636420445193925 -0.33879178204422611 0 1.0299502150226616 
0 0.44674624813313335 0 -0.3383420488009089 
0 0 0 0 
-0.0018026486314423535 0.13678441183264231 -0.027664581255055325 -0.0091453958948880774 
0 0.22393677261177805 -0.17029944828291574 -0.17451402130137361 
0.19899691016703452 -0.15367186258240961 -0.095369064852670521 -0.15175135963911104 
0 0 0.27299812843225119 -0.15402933507973052 
0 0 0 0 
-0.035352050404296058 -0.24139944874152391 0.045296917757208129 0 
0 0 0 0.065185581079308913 
0 0 0 0 
-0.1016822083624889 0.42385308294883839 0 0 
-0.42785436627243123 0.40361849692269053 -0.12458050625365449 -0.53287239004423659 
0 -0.79920700980200254 0 0.35711447948385294 
0.17417094224829877 -0.35540985966366956 0 0 
0.51735310188904904 0 0 0 
-0.013814420706949758 -0.043069009083854831 -0.035039494131554286 0.30209925623316536 
-0.022406985245505232 0 0 -0.0055071566356544996 
2.6047957193964244e-17 -4.163336342344337e-17 -0.0051828981305447955 0 
-0.42764827119764903 0.56807518348884312 -0.096845075125262053 -0.028564390650919019 
0 0.17921833641617985 0 -0.23446288645274055 
0.18055813653242436 -0.59997398022120207 -0.40707541100163447 0.37011901756707377 
0.0036963600108863583 0.041118165248508767 -0.17353300689611048 -0.11377625400169872 
0.32217836715593873 -0.34743808741266263 0 -0.040719352331502888 
-0.11522335772048291 -0.59790154565175213 0.69535932648956733 -0.21602989719967719 
0 -0.2984678006242833 0.2981289296558724 8.6736173798840355e-19 
0.47922678321531942 -0.10563665462957103 -2.0599841277224584e-18 0.026781102143941221 
0.17106003210574564 -0.48863404024186236 0.22779791664953031 -0.0052976347643302847 
0 0.12841549344844683 -0.3518648992959395 0 
0.092179561386385986 0.014007111113527378 -0.26475939828499734 0.033392238948268045 
-0.25269717054508778 -0.47130978642057286 -1.1963328790738867 0.87845882921826102 
0.72402426835169509 0 0 -0.38545638115095021 
0 0 0 0 
0.10161860009352333 -0.30702394354512841 0.65033499373832193 -0.42020092060952069 
0.13524690010648996 -0.31384692571468586 0 0 
0 -0.12779102222827565 0.19056767192356938 0 
0 0 0 0 
0 -0.17525170161090287 0.6293501112012071 8.6736173798840355e-19 
0 0 0 0 
0.068192631672613968 -0.057642097906525677 0 0 
-0.25210963150626736 0.59347480477623704 -0.070367042912249836 -0.30748736818614902 
0 0 0 0 
0 0 0 0 
-0.23248110468636157 0.048962478663113672 -0.012985014390461885 -0.11749391577198368 
-0.19898244783044719 -1.1618393767549773 -0.42363455115183807 1.5965408615792658 
0.17481594129490902 -0.17775100819292397 0 0 
-0.039342576870142004 0.072581459573912335 -0.0049868057818028902 -0.089461586864915191 
0.34773575328961631 -0.27485724286687047 0 0 
-0.041418728734472485 -0.42724078583673886 0.25903135818792655 -0.097659395615947803 
0 0 0 0.13770824100007498 
0 0 0 0 
0.47521943899297658 -0.24121371879575826 -0.069105295491590141 0 
-0.14117517024289367 -0.30804961126962072 0.31363200810430147 -0.23122890057877529 
-0.056200876874009147 0 -7.8062556418956319e-18 0.19489967835009442 
0.74887974968819615 -4.3368086899420177e-18 0 -0.21012601842176776 
0 0 0 0 
-0.23846682662154114 0.2437716784847539 -0.042917157345325647 -0.036103121056976988 
0 0 0 0 
0 0 0 0 
-0.083548158948807891 -0.055442730641099482 -0.048605358153408475 0.35458095879870938 
-0.088003663994105891 0.491590873976682 -0.65137201070141548 -0.34664257275479865 
-0.29100908362538697 -0.062962052544631081 0 0.56570705168784252 
0 0.065298635125243185 -0.40506757045583508 0 
-0.14139392344980722 -1.0749153327491872 0.42667145846768778 0.65707690914335382 
0.2186853248090781 -0.11317944075275245 -0.16518861051471204 0 
0.33599771278100665 -0.23495902271635827 -0.027106140450119529 -0.15192884504678827 
-0.54567927774061864 0.98184136935501554 -0.30890815412776162 -0.039824042548023908 
-0.47456623141790349 0.45807748277932703 -0.13166871947601808 -0.36091193565638024 
-0.62128322472967235 0.45910551283003542 0 0 
0 0 0 -0.052317507464939614 
0 0 0 0 
-1.7347234759768071e-18 -0.056413344314523314 0 0 
-0.1137019012031005 0.13027358720576301 -0.0022201024260629582 0 
-0.058506527545522762 0.35406944154186354 0.11951416191051441 -0.0088904522103281543 
0.36089961998715003 -0.20000464139855512 0 -0.23591135217691361 
0.38728183323481563 0 -0.26200503405245262 0 
-0.17658924980132981 0 -0.16511950728565475 0 
-1.0248482205885585 0.78007774866228985 -0.25979718661465639 -0.13468570593587109 
0 0 0 -0.081778387215186987 
0 0 0 0 
-0.06561445425790341 0.1688661071948736 -0.014638786602390088 0 
-0.10680547164847537 0 0 0 
0 2.6020852139652106e-18 0 0 
0.3427218448574354 0 -0.49792193271423985 -0.0559141015089447 
0 0 0 0 
-0.50541332911116243 0.055296817372329048 0 0 
-1.6098542966453764 0 0 1.0173143753253107 
0 -0.087996012459792564 0 0.085284195046642225 
0 -0.10644346013386075 0.29261314065848709 -0.24328492878782793 
5.2041704279304213e-18 -0.065300764706359843 -8.304988641238964e-17 0.80308244378255733 
0 -0.039570074733650845 0 0 
-0.12453015493202985 0.45422813347986013 0 -0.0073469456311473754 
0 0 0 0 
0 0 0 0 
0 0 0 0 
0 0 -0.12441676594261178 0 
0.22391071944821556 -0.06139203858666361 -0.10192356928231787 -0.01393847876543795 
-0.35655373864887618 0.20352659838584211 -0.11307247299744655 -0.051009193263427788 
-0.4153705099150119 -1.2981234213519008 -0.15480787794934797 1.4819475501466579 
0.58780006797692907 0 0 -0.35704805566355602 
0.3155731461639496 -0.10525215231349261 0 0 
0 -0.4090295952015025 0 0.17294640174598491 
-3.4694469519536142e-17 -6.9388939039072284e-18 -0.21675471786295225 0 
0 0 0 0 
0 0 0 0 
0.079162013247454435 0 0 0 
0 0 0 0 
0 0 0 0 
-0.14374776554725904 0.056905414203143649 -0.18152303062273289 0.041574522915009196 
-0.032989275498504472 0.47357003439402146 -0.093495011611329365 -0.099397656518494623 
0 0 0 0 
0 0 0 0 
-0.24538102824837221 0.38636082204444949 -0.13623584674459821 0 
0.35412619017025571 0 -0.12284887084447568 -0.36113431118599049 
-0.13971272810595392 0 0 0 
-0.3904450232505558 0 0.23058802919909824 0 
0.073221569199463238 -0.086059293449536001 0 6.9388939039072284e-18 
-0.047459287647103374 0.19429926941084474 0 -0.40158938445832498 
-0.21251196555299287 -0.36883566318142841 0.95890508174442968 0 
-0.032943049150122986 0 0.23714136137650818 -0.025360909289643553 
0.072344038523368542 5.2041704279304213e-18 0 -1.7347234759768071e-18 
-0.014514824698898926 -0.093834784995448298 -0.096918188841952899 0.2931859299599277 
0 0.13873387691384864 -0.098748921184627636 0 
0 -0.022894961834115372 0 0 
0 -0.46990231586952208 -0.022158091602183166 0.50466234534917165 
6.9388939039072284e-18 0.23493899069279289 0 -0.095930590925910525 
0 0.010648084075363821 -0.045337878038132086 -0.2081631336061113 
-0.14707773357337667 -0.23026632969813807 0 0.4768802600073348 
0 0 0 0 
0 0 0 0 
5.6378512969246231e-18 -0.42555542696115245 -0.05864833548744957 0.35837505781906082 
0.50933263310871268 0.50798701184865802 -0.47892933683013394 -0.91440938686394158 
0.15559590469366733 1.6557828514673516 -0.2339837850364766 -0.25437449679228447 
0.48639706030882357 -0.039110117034497918 -0.056068772147854648 -0.14532968218868905 
-0.32166196599625818 0.36078529533936099 0 -0.14859592265127231 
0 0 0 0 
0 0 0 0 
0 0 0 0 
-0.34511740844052641 0.53507816883697668 0.056196858566530547 -0.36646959454358397 
0 0 0 0 
-0.087626183252004136 0 0 0 
0 0 0 0 
0 0 0 0 
0.63191088625780079 -1.2217827173387223 -0.36713478759369889 -0.17977322005816554 
0 0 0 0 
2.2314745872439277 -1.4554054030172685 -1.4674836976756869 -1.8551730313824808 
-0.17479338208904224 0.093654427624966813 -0.12742387679025396 0 
-0.056636319813337867 0 -0.066984235564216246 -0.036596232383580896 
0 0.93727468077702947 0 -0.18096056940744557 
0.19846776852291292 -1.0595503566884883 0.97331421141160102 0.091569509143533359 
0 0 0 0 
-1.3877787807814457e-17 -0.013300667929799684 -0.071528101284531478 0.21119213208420137 
0.227316011129892 -0.14937718064096664 -0.10745870451464838 -0.11821150220217838 
-0.21200421535700611 -0.055745010563774199 -0.23163456629870477 -0.12647027156279045 
-0.10750951316721906 0.26297022558686134 -0.0072509099962865123 0 
-0.071471349784396482 0 0 0 
0 -0.052942763418528674 0.026800178040871835 -0.042551572906623772 
0 0 0 0 
0 0 0.21375455610597865 -0.078750949506046178 
0 0 0 0 
0 0.64514886996282628 0 -0.69163203127788753 
-0.14432953771579091 0 0 0.47915748644407624 
0 0.12127858307513245 -0.0046720118104115688 -0.18135917020529727 
-0.48693503977137242 0.13824748816171833 0.027365025982208691 0 
0 6.9388939039072284e-18 -0.02872638445058304 -8.6736173798840355e-19 
0 -0.12423884361734439 0 0.11648593615175676 
-0.11459966920380388 0.13155550275181824 -8.3018631130652999e-06 0 
-0.10637886820456627 0 -0.57957382843780636 0.23851266596199874 
0 0 0 0 
-0.13072823410087842 0.20038861934303681 -0.12841313996848508 0 
0 -0.06593499933362526 0.080407293957928686 0 
0 0 0 0 
0 0 -0.090824516975407804 -1.7347234759768071e-18 
0 -0.16348386531021536 0 0 
0.090186990071896442 0.13629627924004639 -0.26049033581464104 -0.36013081811973546 
-0.15826559798248305 0 0.15236258794721624 0 
0 0 0 0 
0.35659912162909202 0.38786111753204255 0.098294915589034471 -0.098672112884339191 
-0.21933408496936344 0.31167902968430666 0.077127116572267312 -0.062286169056710944 
-0.24027828601579626 0.013231645774065199 0 0 
-0.33996514657073124 0.21487904806554456 0 0 
0 -0.1796126095848686 -0.34645380054456992 1.2299963114109209 
0 0 0 0 
0 0 0.33000273714340267 3.4694469519536142e-18 
0 0 0 0 
0 0 0 0 
0 0 0 0 
-0.31256456853368353 0.31523783628207291 -0.3370473875758328 -0.068957958554228177 
0 0 0 0 
0 0.27880377719126709 0 0 
0 0 0 0 
-0.12227872852501459 0 0.20148201869991555 -0.032775947274589191 
0 -0.49416004121881368 0 0 
0 0 0.10936001710346051 -0.0035809304204739503 
0 0 0 0 
-0.0070610011555725782 0 0 0 
-0.04505993268875029 0 0.85599189902208961 -0.49422666882933569 
0 -0.099390848263057607 0 0.13449307691109039 
0 0 0 -0.2952451953946848 
0 0.14310825729678273 0 0 
0 0.7469544375894448 -0.102068983597493 -0.06366012097508765 
0 0 0 0 
-0.16150258087893715 -0.057411136011629046 0.20760436389600281 -0.0067666483294596853 
0 0 0 0 
0 0 0 0 
-1.3877787807814457e-17 0 1.7347234759768071e-18 1.3444106938820255e-17 
0.67496158541632389 -0.17109353268837316 0 -0.13012587752281485 
0.44116771612064776 0.26538420922514516 -0.022541851399283663 -0.35665642854221136 
0.12614637489782729 0 0 0 
0.26140812364384813 -0.20078234564008712 -0.0040983965029790523 0 
0.21511854278658357 -0.30802170339796697 0 0 
-0.35528035812490721 -0.074562440428021778 -0.077934771113015749 0.2610101378678174 
0 0 0 0 
0 0 0 0 
-0.2855928184085097 0 0 0 
0 -1.7347234759768071e-18 -0.065338390546991532 -0.039824042548023922 
0.44494297853761361 0.091767904163186143 0 -0.77097375687213932 
0 0 0 0 
0 0 0 0 
0 0 0 0 
-0.46038658801704957 -0.17022776927947536 0 0.5311817359373775 
-0.12558742586805546 -0.28914587985238233 0 0.16810268399047709 
0.11252316000647086 0 0 -0.17920517690737925 
0 0 0 0 
-0.47500917774736906 0.64558070164614723 -0.24649176927667488 -0.28808383338582921 
0.0036963600108863791 -0.28855798339918876 -0.17149260071890279 -0.055335756901824691 
-0.34373229196939126 0 0.28496287119546032 0 
0 -0.30738715933142263 -0.17278177062092623 0.33878903968078344 
0 -0.49369216063569205 0 0.14866451723846397 
0 0 -0.016040248987733648 0 
0 0 0 0 
0 0 0 0 
0.032116074677091724 0 -0.03530150963510665 0 
-0.12415786472287033 -0.4643114971202712 -0.19231732331539486 0.36087229857727404 
0 0 0 0 
-0.26344716864926554 0.041280881886328474 -0.16337883000356918 -0.029424377259470291 
0 0 0 0.030452249692243517 
0.70054319269466303 -0.56052385816061034 -0.075271017361049714 0 
0 0 0 0 
-0.089209946308273572 0.18151733730142441 -0.081586899156987747 -0.096033603602680581 
0.49038840308650833 -0.0048595452792683852 0 -0.29372104709872665 
0 0 0 0 
-0.12729371478239324 0 0 0 
0.089176767806559712 0.23966301204539328 -0.46253091723964984 0 
0 0 0 0 
0 0 0 0 
-0.079495050143245996 -0.10400988376055752 -0.035193572645791357 0.17509994195335807 
0.63005940891473544 -0.473085905832001 -0.13783862993929627 -0.032112956117112436 
-0.35944263790891146 0.29349034150511633 0.05322171128102024 0 
0.276149240659262 -0.13915730554886757 0 0 
-0.15641440613386798 0 -0.045128016285543075 0.026645064087767005 
0.11926279836422217 -0.23901885692682057 -0.0078699849348453574 0 
0 0 0 0 
0 0 0 0 
0.055774897602427626 0 -0.029252873014219208 0.22394476587283479 
-0.1762750980368428 -0.48565134343744387 -0.1854460637884216 0.19387930657991431 
-0.085937408069637705 0.076923372169023382 -0.31347386412340267 0 
0 0 0.80600435664462111 0 
0 0 0 0 
-0.11681879194040247 0.55852737018611553 -0.013986169907876694 -0.16514159901719888 
0 0 0 0 
0.9054435561424764 -0.72194319697386022 -0.0209863945223982 -0.7690675844129029 
-1.3877787807814457e-17 0.26294873430782817 -0.40273395599279993 -0.34916314660650505 
0 0.013292118882232237 0 0 
0.24708268901571109 0 -0.17744208579340609 -0.1116173323676545 
0.067880426153189802 0 0 -0.055348440110046165 
0.24405859333015878 0 0 -0.28535993669161908 
-0.0042044444353812049 -0.21186824570911367 -0.242926716877789 0.096269053415121389 
-0.42425114592778712 0.4130340357440101 -0.45953500124096791 -0.47323109623313103 
-0.1804174484213287 0 0 0.18167765617779258 
0 0.75273259407308712 0 -0.37504996989678013 
0 0 0 0 
0 0 0 0 
0 0 0 0 
-0.21155512327015277 0.066757622362572516 -0.10638828699342756 0 
-0.18709023791770882 0 0 0.0083023006549989616 
0 0 0 0 
-4.3368086899420177e-19 -0.4958222228748691 0.068526525771324953 0.23315570073356587 
0 0 0 0.11213888902472469 
0 0 0 0 
0.52829117862602781 -0.53165971910875354 -0.097419064903590202 -0.11812319232699124 
0 0 0 0 
0 0 0 0 
-0.11224342784424982 0.13464784702690458 3.0357660829594124e-18 0 
0 0 -0.21249490589702399 0 
0 0 0 0 
0.11747821410305069 -0.033052065336942486 0 0 
-0.015626169498670892 -6.9388939039072284e-18 -0.048645711933621189 0 
0 -0.1636794975076315 -0.11125107882921639 0.24047946166515216 
0 0 0 0 
-0.16966281253167967 0.34872279503294451 -0.29469175469438597 -0.16527079718395915 
-0.051534712535043783 0 -1.3169187924798571 0.30810148368970558 
0.79629852963918679 -0.58508838688140563 3.4694469519536142e-18 0.28760323222492823 
0 0 -0.14930434453186262 0 
0 0 0 0 
0 0.59539977513861952 -0.23796727646510388 -0.34466340567608844 
0 0 0.14717677624221753 0 
-0.20746650974364914 0 0 0 
-0.071312365935821811 0.086198451531171769 -0.0087599697120510703 0 
0 0 0.13636927087172548 -0.072185035103248849 
0 0 0 -0.052389386824526873 
0 0 0 0 
0 0 1.7347234759768071e-18 0 
0.49614596558274254 0.33347312572520982 0.58744012585031091 -1.1190506873985098 
-0.018010092001180353 0 0 0 
-0.39029822555653121 0.048795765611653469 0.58367584999936095 -0.031514840585559194 
-0.04846746102552886 0 0 0 
0.016856892707704071 -0.059933483061021926 -0.066951281756505318 -0.12435536688800865 
0 -0.17732428606592279 0.15312103380867528 0 
-0.22143391312543004 0.44434370863553718 -0.097057540172797399 3.903127820947816e-18 
0 0 -0.045128016285543075 0.026645064087767012 
0 0.051209227422212136 -0.22290550140319954 5.6378512969246231e-18 
0 0 0 0 
0 0 0 0 
0.27950997440724412 -0.42379078872066228 0 0.046079251845848324 
0.03478118542252949 0 0 0 
-0.44309011892126066 0.40757371859874819 0 0 
-0.074625308568568666 0 0.32608720428976573 -0.4419923454071597 
-0.17960215598260842 -0.51390431229294153 0.482533392680769 -6.9388939039072284e-18 
-0.024539310881010256 0 0 0.31954353085409043 
0 -0.077910405607416702 0 0 
-6.9388939039072284e-18 0.1927677436754254 0 -0.22807159521036791 
1.0234868508263162e-16 -0.087450646682133606 0.94876308392320674 0 
1.3877787807814457e-17 0 0 0 
0 0 0 0 
0.19424492200305551 -0.26122315547301544 -0.071926385514273827 -0.069851044698943099 
-0.81834307977168963 0.96064736660622385 -0.19173667795360028 -0.27942007094364452 
0 0 0 0 
0 0 0 0 
0 0 0 0 
-0.051060751272394983 0 0.10653375484375228 0 
0.72426749984312178 -0.035506914939723105 0 -0.53446907310267333 
0 0 0 0 
1.5080836863749487 -1.1123352948026 -0.14928203142355181 -0.064024088028072176 
0 0 0 0 
0 0 0 -4.3368086899420177e-19 
0.0043266362169118366 3.4694469519536142e-18 -0.074377499750535758 0.035948365877892186 
-0.21221509686974929 0.13230450282748657 0 0 
0 -0.19875032565723319 0 5.128276275856436e-17 
0.19998159823988884 -0.44291834896523358 -0.55064427839620389 0.46304894210658659 
0 0 0 0 
0 0 3.4694469519536142e-18 -0.098964122214792616 
-0.28800881500534226 0.031613461661002075 -0.12993721257939161 0.40175778968942055 
0.11761587695352728 0 0 -0.31923769645091676 
-0.17854995766928325 0.025455607527916146 -0.19381376314450965 -5.2041704279304213e-18 
0 0 0 0 
0 0.13157354821867945 -0.049461531800569794 0 
-1.4336575709406092 1.3342925006066775 -0.53336538625887542 -0.90435052742486388 
-0.024733623633079387 0 -6.9388939039072284e-18 0.00060020892671157008 
-0.49136791584305461 -0.050216138061352562 -0.14521909714909353 0.21467501547105433 
-0.39774704896208046 -0.031975813960800847 -0.57849669598515741 -0.22650853954878852 
0 0 0 0 
0 0 0 0 
-0.38435013758380104 0.74456671543186337 -0.08864450330689079 -6.9388939039072284e-18 
0 0 -0.27834999706326768 0.2613279652162403 
-0.34376794671815014 -0.28564854564047415 0.21917392204805566 0.45093539656686032 
0.097992778881491077 0.028488529248611283 -0.070699347810151664 -0.14263910056760659 
0.10102703689474711 -0.29429083397593891 0 0 
0 0 0 0 
0.54219525223581921 -0.47695828404080842 0 1.0408340855860843e-17 
0 0.55955166267647849 0 -0.2076128214314952 
0 0 0 -0.048753735734937902 
0 0 0 0 
0 0 0 0 
0 0 0 0 
0 0 0 0 
0 0 0 0 
0 -0.050879063753350405 0 0.02433877507930856 
0 -0.036818523206006447 0.036426107611030052 0 
0 0 0 0 
0 0 0 0 
0 0 0 0 
-0.18515248616591107 0.23723831456107691 -0.19191560069176708 -0.1574384875053266 
-0.20318607342503378 0 0 0.2513071880757129 
0 -0.12284845299169456 0 0.068937212622517188 
-0.45051250350395194 0.8634915714522331 -0.23385502739661035 0 
0 0 -0.640073708735445 0.19663024601510998 
0.057993400880020203 0 0 -0.092493914164162333 
0 0 0 0 
0.4894727129886618 -5.2041704279304213e-18 -3.3163033950900367e-17 0 
0.083272428800131276 -0.13482642736528527 0.4158959386900048 -0.22426871951121538 
0 0 0 0 
-0.092514978808364359 0.10568949229771399 -3.4694469519536142e-18 -1.3078188705606397e-18 
-0.45049273382375327 0.23789106229035512 -0.17049204669855908 0.31571110469342545 
0 0 0 0 
0 0.12841549344844683 -0.12389080615788556 -0.22417208391913682 
0 -0.26170920919140306 0.30420696855666457 0 
0 0 0 0 
0.76776212442367098 0 0 -0.30147196474734134 
0 0 0 0 
0.25578890259901799 0 -0.95624364029770226 0 
0 0 0 0 
0 0.14569324064928924 -0.34331570583298066 0 
0 0 0 0.038396044369589391 
-1.7383762900097062 1.7476115283574696 0 0 
0 0 0 0 
0 0 0 0 
0.20773113027448015 -0.2755581389019266 -0.012004866174194466 0 
0 0 0.14804378644566693 0.23926778591505435 
0 0 0 0 
0 0 0 0 
0.42735000162499986 0.071258166447339163 -0.053533822539785766 -0.066293928887446119 
3.4694469519536142e-18 0 0 -0.014822063544032897 
-0.13997892260696096 0.29938114686612705 0.36045447381365903 -0.16927614503300978 
-0.11711398348324327 -0.2442353883528246 0 0.32861616783982905 
0 0 0.13753236579795344 0 
0 -0.11885786751702487 0 0 
0.28944280266345479 -0.58477812749051195 0 0 
-0.06720045024083196 -0.076443540621149039 -0.036122131064088632 0.11212458805725074 
-0.43275494965923617 -0.97590064380504127 5.2041704279304213e-18 0.68023253797638394 
-0.0077950398698083401 0.21733256202130014 -0.27908870651041717 -0.60781399003698278 
0.2199075527899475 -0.11012177936068682 -5.2041704279304213e-18 0.058892504906358584 
0.22076646427045088 -0.054921429406909819 0 0 
0 -0.70069803416800047 0 0.18800779278422203 
0 0 0 0 
-0.093876367801781158 0 0 0.51230019491427392 
0 0 0 0 
0 0.26934696859066526 0 -0.30688574999232482 
0 0.37655512384693723 -0.22018412678815519 0.22012316241548155 
-0.46017460245134001 0.77079317556165849 0 -0.06010044765381329 
-0.021828636818162862 0 0 0 
-0.093463159731324047 0.35058744678182263 -0.32316564365054673 -0.24005284705927959 
0 0 0 0 
0.12358435578251191 0 0 -0.41259987748545573 
0 0 0 0 
0 0 0 0 
0 0 0 0 
0.19994639968417083 -0.14217178920425994 0 0 
0 0 0 0 
0 0 0 0 
0 0 0 0 
-0.68055277119269741 0 -0.1937907741088204 -0.095701908659231893 
0 0 0 0 
0 0 0 0 
0 -0.13592723555624658 0 0 
0.78028139892324266 -0.95463140071991681 0 0 
-0.34317225495330417 0.36551409494137088 -0.018571284631981398 -0.053200332264511763 
6.9388939039072284e-18 0.6505095209031635 0 -0.12413886760710156 
0 0 0 0 
0.076086964606343926 0 -0.16649876612100531 0 
-0.82997253074717325 0.31578274269033285 -0.17163346221575873 -0.2470547922477562 
-0.21685319797660771 -0.059697202839769661 0.17303961244530597 0 
0 0 0 0 
0 -0.1067399433372451 0 0.14034490761175389 
0 0 0 0 
0.96088801864729323 -0.72707947746768198 -0.065283498252199187 -0.4094510076776155 
-0.013512752457385159 -0.26452005290216041 0.41642749081607933 -0.037290486678916358 
0 0 0 0 
0 -0.31489181362007407 0.23913133680246557 -0.066990287665145504 
-0.017281308173383331 -0.21179032024433619 0 0.33919073084780654 
0 0 0 0 
0 0 0 0 
0 0 0 0 
0.12597532167481088 -0.038501305596426644 0 -0.062551946347536899 
0 0 0 0 
0.14600109305579395 -0.34035788656847704 0 0 
0 0 0 0 
-0.35180908817290452 0.22294134486897399 -0.081483986393646568 -0.33059034831917034 
0 0 0 0 
0 -0.005981520446601581 0 0 
-0.44269334994188109 0.59498691264846104 -0.068278388413304983 -0.098603505734850966 
-0.080338975599376097 0.29195027369311211 0 0 
-0.17157192032079893 -0.33168848687340591 0.097404087694145922 -0.084608199691664512 
0 0.035379598855205786 -0.014418325734680121 -0.205687603828377 
0 0 0 0 
0.04999331774696511 0 -0.077318777901530356 0 
0 0 0 0 
-0.062628803118438547 -0.083336350825093664 -0.23474008780466005 0.42711639996169981 
-0.1006144205283484 0 0 0.24843226837524857 
-1.3636090107784908 0.58737608578765921 0.1645667293671087 -0.12473414494361254 
8.6736173798840355e-19 0.20586952553762236 0 -0.14638650666003519 
0 0 -0.71977885970297673 0 
0 0 0 0 
-0.06326953599679784 -0.1916697614982481 0.82880546697559376 -1.1492543028346347e-17 
-0.098555829609371731 0 0.29399968129861559 -0.22509001656032407 
0 0 -0.019140367460859748 0 
-0.0062230437780209022 0.52329665773137402 -0.58955499352904472 -9.540979117872439e-18 
0 -0.058981425427412547 0 0 
0 0.23374134441295419 -0.32762178852874452 0 
0 0.18971657652348753 -0.078940460766154352 0 
-0.21603040977338039 0 0 0 
0 -0.25979710224128183 0.62008172236959502 -0.084014814946380301 
-0.2980845332063401 0 -0.40001578254283837 0.7405205186009487 
0.026147390982631587 0 -0.045128016285543075 0.091830645167075953 
6.9388939039072284e-18 0.23493899069279289 0 -0.095930590925910525 
0 0 -1.0687541549329003 0 
0 0 -0.25409550927504815 0.15742425720746775 
0 0 -0.029672865154069108 0 
-0.031020445383943392 0.10833314613904217 -0.00052198964963823453 -0.047492445859052809 
-0.0014195885920610428 -0.89912930797630908 0.65718559718595182 -0.17343451031851259 
-5.0306980803327406e-17 -1.6223349366136377 0 1.724399427608265 
0 0 0 0 
0 0 0 0 
-0.0089800945425066014 0.45824133729701755 -0.11085125192718739 0 
0.11037747131249086 -0.24133398951121401 0 0 
1.2289590904893293 -0.81272291612156944 -0.11447851220810061 -1.2099638587283645 
0.78764365515364687 -0.42543516428799555 -0.2915324718135085 -0.22443060202760479 
0 0 0 0 
-0.0019090334679108889 0.086154724663241464 0 0 
-0.088606537922680556 6.9388939039072284e-18 0.35376836792865513 0 
-0.15660030298158936 0.15408065038555901 0 -0.065850150502761898 
-0.57421555354305576 0.63704020964393826 0.11851046111751062 -0.094977518401045805 
0 0 0.53758185966670602 -0.53385484108451708 
0 0 0 0 
0 0 0 0 
-0.026514176334386845 -0.34109712601169023 6.9388939039072284e-18 -0.068833413261635015 
-0.25797037150980512 0 0 0.22685062806548889 
0.65014290524521179 -0.050073348785717821 0 -0.31721259651753192 
0 0 0 0 
0.18322421487034785 -8.6736173798840355e-18 -0.045718579420920891 -0.09508324364933976 
-0.36736839038865216 0.24073497782261416 0.14505240498075525 -0.089364023986445898 
-0.15595050187899584 0 0 -8.2399365108898337e-18 
-0.23503725421400279 0.32394506040343357 0 -0.24760168219390014 
0.30997664437535161 -0.38540361954424124 0 0 
0 -0.4993753441109875 0.46741568382272786 0.083946275584609917 
0 -0.07003789459528123 0 0 
0 0 0 0 
0 0 0 0 
-0.11264335249784019 -0.44781833992909059 -0.20372656719620752 0.43489882100330191 
0.10005837006804659 0.032080284633195226 0.021061237041103617 0.18786823904980537 
0 0 0 0 
-0.37784636271933969 0.61720290140895528 -0.39451777706826502 0.04577418344248927 
0.81564611986999247 0 0 -0.60388103204036903 
0.16729272593210973 -0.28410418693680589 0 0 
0.38841455876355113 -0.31898402745530263 0 0 
0 0.034421184503244495 -0.02374511989248625 0 
3.4694469519536142e-18 0 0 -0.26415219166593773 
-0.12614479607391155 0.26982432841082327 -0.046256845984682431 0 
0 0 0 0 
-0.11161674516172476 0.19925088271998975 -0.25130598387618752 0 
0 0 0 0 
-0.019895811685696096 0.20735390726506681 -0.32023235015696583 0 
0 0 0 0 
-0.32522995829640133 0.2422714027656547 -0.094194335960040426 -0.20266087711723221 
-0.18250941653033048 -0.38159251568653935 -0.10491545595894786 0.31663268922244486 
-0.078032840500739067 -0.10958904109589039 0 -0.10986579681736683 
0 0 0 0.39691619286197849 
-6.9388939039072284e-18 0 0 0.068410440680468892 
0 -0.13788693329746074 0.071733618074423217 0 
0.3911004389731465 -0.42244147800358794 -0.091512097030883283 0 
0 0 0 0 
0 -0.1976758966239433 0 0 
0.72003064699934294 -0.3832363295905119 0 0 
0.18126065546826944 -0.16221440784685509 -0.048995333843440174 -0.014560572517110414 
0 0 0 0 
-0.19128302507224945 0.1663062737402913 0.0019473304129117176 0.17559963258446903 
-0.27944350825451858 0.57372950713966941 0 -0.12746820664412564 
-5.8980598183211441e-17 0 0 -0.23177255337638999 
0.44269345431720186 0 -0.60352206961518928 0 
0 0 0 0.24801738674638166 
0 0 0.033612220854695826 -0.74502244687483232 
0 0 0 0 
0.66623907645725089 -1.1759783893494027 -0.096162168766226519 0.092396100867423447 
0 0 -3.4694469519536142e-18 0.042262045515257751 
-0.29003166701532318 -0.70919415328723545 -0.16214667751076572 0.25636349912537248 
0 0 0 -0.010619077035624418 
0 0 0 -0.21946854414116412 
-0.45751986964754188 0.11500240190301665 0 0 
0 -0.37162332257727576 0 0.20314976797036893 
-0.082638209492503695 0.29218522011030973 0 -0.020806048850219295 
0 0 -0.026654212761525714 0 
0.4368051967386184 -0.37950384089002842 -0.14069249296748387 -6.9388939039072284e-18 
0 -0.33443776748482729 0 0 
0 0 0 0 
0 0 0 0 
0 0 0 0 
0.3095801067098739 -0.8231633697013111 0.68574341256111737 0.010374931487308205 
-0.26580497153151783 0.098010603745604219 -0.47637796053963749 0.048926970880337803 
0.36630903983184065 -0.22285711834683269 -0.22726847432906408 -0.24210987026126249 
0 0.3671568978478511 0 -0.21183996937727798 
-0.097703862396143273 -0.15410539007544027 0 0.25115076368457001 
0 0 0 0.22954623761611229 
-0.18530138008010957 0.04686691691122663 0.049719619452915809 -0.31269476377096722 
-0.11072124836396299 0 0 0 
0 -0.23573578272198623 0 0 
-0.15248002377027708 0.1279265397047944 0 0 
0 0 0 0 
0 0 0 0 
0.095274254174000345 -0.34099313010736376 0.12368981694911869 -0.19725425714932873 
0 0 0 0 
0.011453187946278212 0.15842411738952383 -0.18552347996543131 -0.2439748471619074 
0 0 0 0 
0.065401051326190812 -1.7347234759768071e-18 0 0 
0 -0.015051016961730678 0 0 
-0.012346125446365683 0.033984383460229355 0 -0.083211951379354915 
-0.086428823133774133 0.73621437976279891 0 -0.22596764686859638 
0.082985434933777524 -0.33450771062942319 -0.15302762473424217 0 
0.065207781371335899 0 -0.38994572000001776 -0.17758864814010164 
-0.096501800227101947 0.60965334741273258 0.11945317561920869 -0.35527434529709601 
-0.35623842224933555 0.13342700711166722 -1.2847095366839758 0.66599069627683904 
-7.8062556418956319e-18 -3.4694469519536142e-18 0 -2.4069288229178198e-17 
0 0 0 0 
0 0 0 0 
0 0 -0.055821924039337813 -0.13388051892576186 
0 -0.052496597009554495 -0.1515960528870941 0.11538414263542626 
0 0.24869981966823926 0 -0.54533626865728801 
0.30345286417720863 0.081370721498180823 -0.097614308094538513 -0.1450205272617292 
0.41434508495728517 -0.16680683792434098 0 0 
0 -0.27155653569283367 0.40131425524765235 0 
0 0 0.36711316641278224 -0.084007589308179198 
0 0 0 0 
0 0 0 0 
0 0 -0.22650877578683506 0 
0 -0.052055679014612687 0 0 
-0.23525911340793959 0.58420800200938705 -0.17762423007999401 -0.174254482876915 
-0.52042726216743607 -0.057821462402522353 0.1019814234598635 -1.7347234759768071e-18 
-0.14303304142498693 0.086776533608633549 0.13279754165527974 0 
0.03432157882796661 0 0 -0.19453743061812623 
0.049247528143395565 1.3877787807814457e-17 0 -0.12386566313374507 
0.35816475651105029 -0.91389632956015143 -0.01369810966633987 0.28963810222708114 
0 0 0 0 
0 0 0 -0.21708551426057082 
-0.28069297966980555 0 0.33141041691675532 0 
0.085374737715593313 0 -1.7347234759768071e-18 -1.3877787807814457e-17 
1.1125534896871996 -1.0060540156317359 -0.092253389267308222 0 
0 -0.081536602960284255 -0.0082747710686908241 0.32859178296904878 
0 0 0 0 
-0.1275650754327933 -0.20259827420540397 0.29584616143042319 0 
-0.18141923991824407 0 0.2692907506169841 0 
-0.041902296876483391 0.16014909614021106 -0.21724201215391958 0 
0.12497816691931823 -0.29743431886599697 -0.095090634952582284 0 
0 -0.03357342024953771 -0.25466422934533101 0.31677512508527245 
-0.011883761939393847 -0.29279673814156665 0.64618621198030124 -0.14050620032474187 
0 0 0 0 
-0.54432425590905686 0.38358321150887187 0 0 
-0.78799053040653932 0.14615182157510664 0 0 
0 0 0 0 
-0.25016724956940084 0 0 0.32391605615703112 
0 0 0 0.21521596883247632 
-1.5386012271306544 -0.011638566130336182 1.5950959718355444 -0.035696701489994799 
0.023851664889522207 0.1446805664828878 0.071429193349009934 -0.24005005478056954 
0.58827022572312471 -0.49878617365983596 0 4.3368086899420177e-18 
-0.062416657674417744 0.21473202885071499 -0.24029894439001484 3.4694469519536142e-18 
0.10555256285638652 -0.095495394252503474 -0.099345293370307688 -0.049245319049603428 
0 0 0 0 
0 0 0 0 
0.19424492200305551 -0.26122315547301544 -0.071926385514273827 -0.069851044698943099 
0 0 0 0 
0 0 0 0 
0 -0.17997121481637343 0.24941636805843426 -0.21532793758463215 
0 0 0 0 
0 0 0 0 
0 -0.5405517569480085 0.537655917530248 -0.08724926250762001 
0.63950714698535127 -0.74813235284643109 -1.7780915628762273e-17 -0.062576438162220027 
-0.17467291325257944 0.27218669155689046 -0.065343714320203083 -0.17511008814783524 
0 0 0 0.72161553321605321 
-0.047060803099785768 1.474514954580286e-17 0 0 
0 0 0.19183517715341267 0 
0.012721161188390721 -1.0408340855860843e-17 -3.4694469519536142e-18 0 
0 -0.17159788940995094 -0.017939939305295499 0.34417308106388522 
0 0 0 0 
0 0 0 0 
-0.30754454529976505 0.47529656661077774 -0.19179219450062387 -2.7755575615628914e-17 
0 0 0 0 
-0.42858449771038609 1.2019924349980149 -0.41737806449448633 0 
0 0.6071349567142279 0 0 
-0.026888011720129862 0.030928248845926182 0 0 
0.58332828455765418 -0.72765559091039655 0 -0.15251281508511372 
0.48319249631163524 -0.45792907241773662 1.3877787807814457e-17 -0.017976945033900155 
0.21226978198966406 -0.34917129335793212 0 0 
-0.074758856702300341 0.65708477513619989 -0.069431839437997231 -0.11817455376149764 
0.21400451596047138 -0.041908287538854644 -0.11994782819727758 0 
0 0 -0.16572020494572884 -0.17002557326585793 
0 0 0.12138511653888107 0 
0 0 0 0 
0 0 0 0 
0 -0.039638141367011492 0 0 
-0.47243660455204506 0.8085940158903886 -0.22499274702285765 -0.063008799889715861 
0 0 0 0 
-3.4694469519536142e-18 -6.5052130349130266e-18 0 0 
0 0 0 -0.21171282424186186 
0 0 0 0 
0 0 -0.040125710242142711 0.2494338987992672 
0 -0.17070628691893844 -0.16338071474849664 0.14015260773011765 
0 1.544726284517518 0 -1.5462499753637335 
0 0 0 0 
0 0 -0.1263232607177702 0 
0 0 0 0 
-0.18802877228314724 0 0 0 
0 0 0.1015678705926038 0 
0 0 0 0 
0 0.5908648639317523 0 -0.061681293232090033 
-0.42655444289159289 -0.021523938458473738 1.5134185096985251 -0.23720959053038904 
0 0.32873423327880791 -0.24162019818540736 0 
1.23602110984534 -0.72479866500021362 -0.18544858600370528 -0.073185123061444465 
-0.16167094811867899 0 0.073831393692964237 0 
-0.1757381807703744 0.10773633688340015 0.014994168795690117 -0.53755132089044921 
0 0.066911000339112611 -0.39882925425738963 -0.37763649802654398 
-0.1798676285484225 0 -0.22659007465365941 0.37294666434904744 
0 0 0 -0.081778387215187001 
0 0 0 0 
0 0 0 0 
0 0 0 0 
0 0.053976680680104146 -2.7321894746634712e-17 -0.092709289645942605 
0 -7.589415207398531e-18 0 0 
0 0.10056543801104925 -0.15196811299406141 -2.5478751053409354e-18 
0 0 0 0 
0 0 0 0 
0 0 0 0 
0.0064118228201796726 0 -0.0759869420595356 0 
0 0 0 0 
0 0 0 -0.080823212064178668 
0 0 0 0 
-0.23459011061048116 -0.58357801927439279 -0.82465178899422698 1.859192243920093 
-0.21491812658807324 0.32421642166872566 -0.56771684309569426 0.092382193032393783 
-0.59846170509015439 0.66324231094585007 -0.68727270683541453 -0.61298796589166682 
0 0 0 0 
-0.22085369734785565 0.24466210057821897 -0.1645412151382904 -0.24228855132963423 
0 0 0 0 
0.061910202867923404 -0.078247595403849415 -2.6020852139652106e-18 -0.25172019242856147 
0.29349662003764654 0 -0.22748418300526835 0 
-0.46567323376085612 0.49854902319850103 -0.31214657814541569 0.25973206136704219 
0 0 0 0 
-0.22617847828747342 0.21821060237834422 -0.2050472804009548 0 
-0.39494504689661514 0 0 0.28200114831765466 
0 0 0 0 
0 0 -0.56629271562657857 0 
0.81530578147375699 -0.30837446773669164 -0.40441207252948919 -0.5570132255207243 
0.3686696758951063 -0.22671108369853576 -0.21479559069120457 -0.033713227988439898 
0 -0.50747943823604946 0 0.26147057790908645 
0 -0.45703277848705831 0.10497182597914134 0.045375717345007269 
0.74924016118620818 -0.54057591330934085 -0.080482877407885539 -0.1001153573493867 
-0.86474281444380707 0.42223318054014314 0.032999624639946303 0.2486725130758134 
0 -0.11018228252661989 0 0.12695940054730781 
0 0 0 0 
-0.32531138692284728 -0.016939754148490221 -0.28338599991191415 0.40304911854086489 
-0.19758478029703033 0 0 0.1230795224846221 
0 0 0 0 
0.085167335653762236 -0.048895877937311823 0 -0.007505592584799433 
0.23771099338414672 -0.16198765256801542 0 0 
-0.81873017209269627 0 0 0.34027391486407399 
0 0 0 0 
0.046220847980615661 -0.26871351995059034 0.14269301886014252 -0.17243136853452656 
-0.14404536135478663 0.17358955420563316 -0.077746786621513755 -0.10048997459071736 
0 0 0 0 
0 0 0 0 
0 0 0 0 
-0.034441468980708996 0.48733306139221089 -0.024439692180399399 0 
-0.21847382507025109 0.30138237997132944 -0.08019909080040763 -0.13701244179337105 
0 0 0 0 
-0.19164861216535889 0.23808540290542243 0 -0.15786122483027437 
0 0.94167369746603447 0 -0.40545392794238483 
0 0 0 0 
0.031410751138826631 -0.059375766387253906 0 -0.02750356050275635 
0.7198570712626492 -0.40692172292926859 -0.045420997996858579 -0.017224115586991242 
0 0 -0.21071050520851831 0 
-0.52327862790690438 0.362244207344185 -0.24601203026354582 -0.25961712912786489 
0 0 0 0 
-0.32071572146828836 0.27476074950634827 0 0 
-0.17318027271042488 0 0 -0.23784552302003645 
0 0.99902917477776776 -0.34664467605108185 -0.49228936072132179 
0 0 0 0 
0.53147735659465922 -0.10028306499393513 -0.084715326559750032 -0.41246996498727184 
-0.1774504901311493 -0.29333824525045848 0.37259815828332532 0 
0 -0.19875032565723319 0 5.128276275856436e-17 
0.12879794628303179 0 0.1017568252167953 -0.21520122796938371 
0 0 0 0 
-0.37110181233225609 -0.34913900191202091 0.65315520726441489 0.47131451114254025 
-0.072154333513097857 0.48836274228645693 -0.07444337778918797 -6.1799523831673753e-18 
-0.22786319113569026 -0.38993496179172771 0.54738603044672562 -0.23313996195779629 
0 0 0 0 
0 0 0 -0.054771818178338871 
-0.089081754314661379 -0.74384635490763096 -0.62762205129269477 1.0403564735898911 
